{"params": {"bootstrap": true, "criterion": "entropy", "max_depth": 60, "min_samples_leaf": 1, "min_samples_split": 4, "n_estimators": 10, "train_test_split_seed": 151}, "classes": ["correct", "incorrect"], "features": {"points": ["LEFT_WRIST", "RIGHT_WRIST", "LEFT_ELBOW", "RIGHT_ELBOW", "LEFT_SHOULDER", "RIGHT_SHOULDER"], "angles": [["LEFT_WRIST", "LEFT_ELBOW", "LEFT_SHOULDER"], ["RIGHT_WRIST", "RIGHT_ELBOW", "RIGHT_SHOULDER"], ["LEFT_WRIST", "LEFT_SHOULDER", "RIGHT_SHOULDER"], ["RIGHT_WRIST", "RIGHT_SHOULDER", "LEFT_SHOULDER"]]}, "model_data": [{"children_left": [1, 2, 3, -1, 5, 6, -1, -1, -1, 10, 11, 12, -1, -1, -1, -1, -1], "children_right": [16, 9, 4, -1, 8, 7, -1, -1, -1, 15, 14, 13, -1, -1, -1, -1, -1], "feature": [0, 3, 2, -2, 2, 0, -2, -2, -2, 2, 1, 3, -2, -2, -2, -2, -2], "threshold": [0.2280159592628479, 0.4533526748418808, 0.46102623641490936, -2.0, 0.5089699029922485, 0.16595593094825745, -2.0, -2.0, -2.0, 0.45373736321926117, 0.21037237346172333, 0.47414982318878174, -2.0, -2.0, -2.0, -2.0, -2.0], "value": [[0.5219512195121951, 0.47804878048780486], [0.7328767123287672, 0.2671232876712329], [0.16279069767441862, 0.8372093023255814], [0.0, 1.0], [0.6363636363636364, 0.36363636363636365], [0.875, 0.125], [0.5, 0.5], [1.0, 0.0], [0.0, 1.0], [0.970873786407767, 0.02912621359223301], [0.7, 0.3], [0.875, 0.125], [0.0, 1.0], [1.0, 0.0], [0.0, 1.0], [1.0, 0.0], [0.0, 1.0]]}, {"children_left": [1, 2, -1, 4, 5, -1, -1, 8, -1, 10, -1, -1, -1], "children_right": [12, 3, -1, 7, 6, -1, -1, 9, -1, 11, -1, -1, -1], "feature": [1, 0, -2, 2, 3, -2, -2, 0, -2, 3, -2, -2, -2], "threshold": [0.19542182981967926, 0.07868519425392151, -2.0, 0.446890652179718, 0.44644351303577423, -2.0, -2.0, 0.19843772053718567, -2.0, 0.47684650123119354, -2.0, -2.0, -2.0], "value": [[0.5121951219512195, 0.4878048780487805], [0.7046979865771812, 0.2953020134228188], [0.0, 1.0], [0.75, 0.25], [0.1891891891891892, 0.8108108108108109], [0.0, 1.0], [1.0, 0.0], [0.9514563106796117, 0.04854368932038835], [1.0, 0.0], [0.16666666666666666, 0.8333333333333334], [0.0, 1.0], [1.0, 0.0], [0.0, 1.0]]}, {"children_left": [1, -1, 3, 4, 5, 6, -1, 8, -1, 10, 11, -1, -1, -1, -1, -1, -1], "children_right": [2, -1, 16, 15, 14, 7, -1, 9, -1, 13, 12, -1, -1, -1, -1, -1, -1], "feature": [3, -2, 1, 3, 0, 0, -2, 1, -2, 0, 3, -2, -2, -2, -2, -2, -2], "threshold": [0.41366373002529144, -2.0, 0.19558943808078766, 0.46789608895778656, 0.18986375629901886, 0.13550019264221191, -2.0, 0.09347884729504585, -2.0, 0.16969801485538483, 0.4509749114513397, -2.0, -2.0, -2.0, -2.0, -2.0, -2.0], "value": [[0.5170731707317073, 0.48292682926829267], [0.0, 1.0], [0.6708860759493671, 0.3291139240506329], [0.8907563025210085, 0.1092436974789916], [0.4583333333333333, 0.5416666666666666], [0.6470588235294118, 0.35294117647058826], [1.0, 0.0], [0.5384615384615384, 0.46153846153846156], [1.0, 0.0], [0.3333333333333333, 0.6666666666666666], [0.14285714285714285, 0.8571428571428571], [0.0, 1.0], [1.0, 0.0], [1.0, 0.0], [0.0, 1.0], [1.0, 0.0], [0.0, 1.0]]}, {"children_left": [1, 2, 3, -1, 5, -1, -1, 8, 9, -1, -1, 12, -1, 14, -1, -1, 17, -1, -1], "children_right": [16, 7, 4, -1, 6, -1, -1, 11, 10, -1, -1, 13, -1, 15, -1, -1, 18, -1, -1], "feature": [0, 2, 3, -2, 3, -2, -2, 2, 0, -2, -2, 2, -2, 3, -2, -2, 1, -2, -2], "threshold": [0.20809735357761383, 0.4465430825948715, 0.440133199095726, -2.0, 0.5497818291187286, -2.0, -2.0, 0.4574926942586899, 0.16616738587617874, -2.0, -2.0, 0.5122133493423462, -2.0, 0.45480625331401825, -2.0, -2.0, 0.16536637395620346, -2.0, -2.0], "value": [[0.526829268292683, 0.47317073170731705], [0.7133333333333334, 0.2866666666666667], [0.15217391304347827, 0.8478260869565217], [0.0, 1.0], [0.7, 0.3], [1.0, 0.0], [0.0, 1.0], [0.9615384615384616, 0.038461538461538464], [0.75, 0.25], [1.0, 0.0], [0.0, 1.0], [0.9791666666666666, 0.020833333333333332], [1.0, 0.0], [0.9512195121951219, 0.04878048780487805], [0.0, 1.0], [1.0, 0.0], [0.01818181818181818, 0.9818181818181818], [0.25, 0.75], [0.0, 1.0]]}, {"children_left": [1, 2, 3, 4, 5, -1, -1, 8, -1, -1, -1, 12, 13, -1, -1, -1, -1], "children_right": [16, 11, 10, 7, 6, -1, -1, 9, -1, -1, -1, 15, 14, -1, -1, -1, -1], "feature": [0, 2, 0, 3, 0, -2, -2, 1, -2, -2, -2, 3, 2, -2, -2, -2, -2], "threshold": [0.21172910928726196, 0.46067287027835846, 0.13179926574230194, 0.43988507986068726, 0.049699410796165466, -2.0, -2.0, 0.21134482324123383, -2.0, -2.0, -2.0, 0.45210325717926025, 0.505444124341011, -2.0, -2.0, -2.0, -2.0], "value": [[0.4878048780487805, 0.5121951219512195], [0.7575757575757576, 0.24242424242424243], [0.375, 0.625], [0.5625, 0.4375], [0.13333333333333333, 0.8666666666666667], [0.4, 0.6], [0.0, 1.0], [0.9411764705882353, 0.058823529411764705], [1.0, 0.0], [0.0, 1.0], [0.0, 1.0], [0.9761904761904762, 0.023809523809523808], [0.6666666666666666, 0.3333333333333333], [1.0, 0.0], [0.0, 1.0], [1.0, 0.0], [0.0, 1.0]]}, {"children_left": [1, 2, 3, 4, -1, -1, 7, 8, -1, -1, -1, 12, 13, -1, -1, -1, -1], "children_right": [16, 11, 6, 5, -1, -1, 10, 9, -1, -1, -1, 15, 14, -1, -1, -1, -1], "feature": [0, 3, 1, 2, -2, -2, 0, 3, -2, -2, -2, 1, 3, -2, -2, -2, -2], "threshold": [0.23037484288215637, 0.45541709661483765, 0.0910317562520504, 0.44436511397361755, -2.0, -2.0, 0.09737242385745049, 0.41342639923095703, -2.0, -2.0, -2.0, 0.21815186738967896, 0.46789608895778656, -2.0, -2.0, -2.0, -2.0], "value": [[0.5170731707317073, 0.48292682926829267], [0.7162162162162162, 0.28378378378378377], [0.1702127659574468, 0.8297872340425532], [0.5454545454545454, 0.45454545454545453], [0.0, 1.0], [1.0, 0.0], [0.05555555555555555, 0.9444444444444444], [0.3333333333333333, 0.6666666666666666], [0.0, 1.0], [1.0, 0.0], [0.0, 1.0], [0.9702970297029703, 0.0297029702970297], [0.98989898989899, 0.010101010101010102], [0.75, 0.25], [1.0, 0.0], [0.0, 1.0], [0.0, 1.0]]}, {"children_left": [1, 2, 3, 4, -1, -1, 7, -1, -1, 10, 11, 12, -1, -1, -1, 16, 17, -1, 19, -1, -1, -1, -1], "children_right": [22, 9, 6, 5, -1, -1, 8, -1, -1, 15, 14, 13, -1, -1, -1, 21, 18, -1, 20, -1, -1, -1, -1], "feature": [0, 2, 1, 3, -2, -2, 1, -2, -2, 0, 0, 0, -2, -2, -2, 3, 2, -2, 0, -2, -2, -2, -2], "threshold": [0.20919537544250488, 0.4465430825948715, 0.1804409697651863, 0.44644351303577423, -2.0, -2.0, 0.19558943808078766, -2.0, -2.0, 0.15528982877731323, 0.08254710212349892, 0.08054438605904579, -2.0, -2.0, -2.0, 0.46789608895778656, 0.48148053884506226, -2.0, 0.1620338186621666, -2.0, -2.0, -2.0, -2.0], "value": [[0.44390243902439025, 0.5560975609756098], [0.6453900709219859, 0.3546099290780142], [0.06666666666666667, 0.9333333333333333], [0.02631578947368421, 0.9736842105263158], [0.0, 1.0], [1.0, 0.0], [0.2857142857142857, 0.7142857142857143], [1.0, 0.0], [0.0, 1.0], [0.9166666666666666, 0.08333333333333333], [0.9830508474576272, 0.01694915254237288], [0.9, 0.1], [1.0, 0.0], [0.0, 1.0], [1.0, 0.0], [0.8108108108108109, 0.1891891891891892], [0.36363636363636365, 0.6363636363636364], [0.0, 1.0], [0.6666666666666666, 0.3333333333333333], [0.0, 1.0], [1.0, 0.0], [1.0, 0.0], [0.0, 1.0]]}, {"children_left": [1, 2, -1, 4, 5, -1, -1, -1, 9, 10, -1, 12, -1, -1, 15, -1, -1], "children_right": [8, 3, -1, 7, 6, -1, -1, -1, 14, 11, -1, 13, -1, -1, 16, -1, -1], "feature": [3, 2, -2, 0, 3, -2, -2, -2, 1, 1, -2, 0, -2, -2, 0, -2, -2], "threshold": [0.45448102056980133, 0.4465430825948715, -2.0, 0.18848589062690735, 0.42126934230327606, -2.0, -2.0, -2.0, 0.19558943808078766, 0.16781748086214066, -2.0, 0.18717005103826523, -2.0, -2.0, 0.15315347164869308, -2.0, -2.0], "value": [[0.5170731707317073, 0.48292682926829267], [0.06349206349206349, 0.9365079365079365], [0.0, 1.0], [0.18181818181818182, 0.8181818181818182], [0.5, 0.5], [1.0, 0.0], [0.3333333333333333, 0.6666666666666666], [0.0, 1.0], [0.7183098591549296, 0.28169014084507044], [0.9803921568627451, 0.0196078431372549], [1.0, 0.0], [0.8571428571428571, 0.14285714285714285], [1.0, 0.0], [0.0, 1.0], [0.05, 0.95], [1.0, 0.0], [0.0, 1.0]]}, {"children_left": [1, 2, 3, -1, 5, -1, -1, 8, 9, 10, -1, -1, 13, 14, -1, -1, -1, -1, 19, -1, -1], "children_right": [18, 7, 4, -1, 6, -1, -1, 17, 12, 11, -1, -1, 16, 15, -1, -1, -1, -1, 20, -1, -1], "feature": [1, 2, 1, -2, 3, -2, -2, 2, 0, 2, -2, -2, 3, 1, -2, -2, -2, -2, 0, -2, -2], "threshold": [0.20635014027357101, 0.4440486282110214, 0.17816410958766937, -2.0, 0.4747184067964554, -2.0, -2.0, 0.5822374522686005, 0.08254710212349892, 0.5051522850990295, -2.0, -2.0, 0.4509749114513397, 0.09347884729504585, -2.0, -2.0, -2.0, -2.0, 0.15267395228147507, -2.0, -2.0], "value": [[0.4926829268292683, 0.5073170731707317], [0.6711409395973155, 0.3288590604026846], [0.16981132075471697, 0.8301886792452831], [0.0, 1.0], [0.6923076923076923, 0.3076923076923077], [0.0, 1.0], [1.0, 0.0], [0.9479166666666666, 0.052083333333333336], [0.9680851063829787, 0.031914893617021274], [0.8, 0.2], [1.0, 0.0], [0.0, 1.0], [0.9775280898876404, 0.02247191011235955], [0.6666666666666666, 0.3333333333333333], [1.0, 0.0], [0.0, 1.0], [1.0, 0.0], [0.0, 1.0], [0.017857142857142856, 0.9821428571428571], [1.0, 0.0], [0.0, 1.0]]}, {"children_left": [1, 2, 3, 4, -1, 6, -1, -1, -1, 10, 11, -1, 13, -1, 15, -1, -1, 18, 19, -1, 21, -1, -1, 24, -1, -1, -1], "children_right": [26, 9, 8, 5, -1, 7, -1, -1, -1, 17, 12, -1, 14, -1, 16, -1, -1, 23, 20, -1, 22, -1, -1, 25, -1, -1, -1], "feature": [0, 0, 1, 3, -2, 2, -2, -2, -2, 2, 2, -2, 3, -2, 1, -2, -2, 0, 0, -2, 3, -2, -2, 3, -2, -2, -2], "threshold": [0.2280159592628479, 0.08451423048973083, 0.12998367100954056, 0.39062538743019104, -2.0, 0.4085572361946106, -2.0, -2.0, -2.0, 0.4365791082382202, 0.37097708880901337, -2.0, 0.44644351303577423, -2.0, 0.19542182981967926, -2.0, -2.0, 0.198520265519619, 0.15847647935152054, -2.0, 0.45303933322429657, -2.0, -2.0, 0.4312197118997574, -2.0, -2.0, -2.0], "value": [[0.4878048780487805, 0.5121951219512195], [0.6944444444444444, 0.3055555555555556], [0.37037037037037035, 0.6296296296296297], [0.47619047619047616, 0.5238095238095238], [0.0, 1.0], [0.8333333333333334, 0.16666666666666666], [0.0, 1.0], [1.0, 0.0], [0.0, 1.0], [0.7692307692307693, 0.23076923076923078], [0.15384615384615385, 0.8461538461538461], [0.0, 1.0], [0.25, 0.75], [0.0, 1.0], [0.5714285714285714, 0.42857142857142855], [1.0, 0.0], [0.0, 1.0], [0.945054945054945, 0.054945054945054944], [0.9764705882352941, 0.023529411764705882], [1.0, 0.0], [0.92, 0.08], [0.3333333333333333, 0.6666666666666666], [1.0, 0.0], [0.5, 0.5], [0.0, 1.0], [1.0, 0.0], [0.0, 1.0]]}]}