{"params": {"bootstrap": true, "criterion": "entropy", "max_depth": 80, "min_samples_leaf": 2, "min_samples_split": 4, "n_estimators": 5}, "features": {"points": ["LEFT_WRIST", "RIGHT_WRIST", "LEFT_ELBOW", "RIGHT_ELBOW", "LEFT_SHOULDER", "RIGHT_SHOULDER"], "angles": [["LEFT_WRIST", "LEFT_ELBOW", "LEFT_SHOULDER"], ["RIGHT_WRIST", "RIGHT_ELBOW", "RIGHT_SHOULDER"], ["LEFT_WRIST", "LEFT_SHOULDER", "RIGHT_SHOULDER"], ["RIGHT_WRIST", "RIGHT_SHOULDER", "LEFT_SHOULDER"]]}, "classes": ["correct", "incorrect"], "forest": [{"children_left": [1, 2, 3, 4, -1, -1, 7, -1, -1, 10, 11, 12, -1, -1, 15, -1, -1, -1, -1], "children_right": [18, 9, 6, 5, -1, -1, 8, -1, -1, 17, 14, 13, -1, -1, 16, -1, -1, -1, -1], "feature": [15, 15, 12, 8, -2, -2, 3, -2, -2, 11, 9, 6, -2, -2, 8, -2, -2, -2, -2], "threshold": [0.75005242228508, 0.7134762108325958, 0.6862663924694061, 0.4729749858379364, -2.0, -2.0, 0.4831322729587555, -2.0, -2.0, 0.47453996539115906, 0.5180993378162384, 0.3792216628789902, -2.0, -2.0, 0.4411139488220215, -2.0, -2.0, -2.0, -2.0], "value": [[0.526829268292683, 0.47317073170731705], [0.7297297297297297, 0.2702702702702703], [0.8556701030927835, 0.14432989690721648], [0.9634146341463414, 0.036585365853658534], [1.0, 0.0], [0.0, 1.0], [0.26666666666666666, 0.7333333333333333], [0.0, 1.0], [1.0, 0.0], [0.49019607843137253, 0.5098039215686274], [0.7352941176470589, 0.2647058823529412], [0.9583333333333334, 0.041666666666666664], [0.8333333333333334, 0.16666666666666666], [1.0, 0.0], [0.2, 0.8], [1.0, 0.0], [0.0, 1.0], [0.0, 1.0], [0.0, 1.0]]}, {"children_left": [1, 2, 3, -1, 5, -1, 7, -1, -1, -1, 11, -1, -1], "children_right": [10, 9, 4, -1, 6, -1, 8, -1, -1, -1, 12, -1, -1], "feature": [15, 5, 8, -2, 11, -2, 2, -2, -2, -2, 16, -2, -2], "threshold": [0.7499734461307526, 0.23037484288215637, 0.4494294375181198, -2.0, 0.453703910112381, -2.0, 0.7023029625415802, -2.0, -2.0, -2.0, 0.8050802946090698, -2.0, -2.0], "value": [[0.6048780487804878, 0.3951219512195122], [0.7735849056603774, 0.22641509433962265], [0.9318181818181818, 0.06818181818181818], [1.0, 0.0], [0.55, 0.45], [1.0, 0.0], [0.25, 0.75], [1.0, 0.0], [0.0, 1.0], [0.0, 1.0], [0.021739130434782608, 0.9782608695652174], [0.3333333333333333, 0.6666666666666666], [0.0, 1.0]]}, {"children_left": [1, 2, 3, -1, 5, 6, -1, -1, 9, -1, -1, -1, -1], "children_right": [12, 11, 4, -1, 8, 7, -1, -1, 10, -1, -1, -1, -1], "feature": [7, 14, 3, -2, 2, 10, -2, -2, 6, -2, -2, -2, -2], "threshold": [0.7169424593448639, 0.23755521327257156, 0.5235008895397186, -2.0, 0.7117781639099121, 0.8402988910675049, -2.0, -2.0, 0.49530620872974396, -2.0, -2.0, -2.0, -2.0], "value": [[0.5463414634146342, 0.45365853658536587], [0.8175182481751825, 0.18248175182481752], [0.9572649572649573, 0.042735042735042736], [1.0, 0.0], [0.9019607843137255, 0.09803921568627451], [0.5, 0.5], [1.0, 0.0], [0.0, 1.0], [0.9767441860465116, 0.023255813953488372], [1.0, 0.0], [0.5, 0.5], [0.0, 1.0], [0.0, 1.0]]}, {"children_left": [1, 2, 3, -1, -1, 6, -1, -1, 9, 10, 11, -1, -1, -1, -1], "children_right": [8, 5, 4, -1, -1, 7, -1, -1, 14, 13, 12, -1, -1, -1, -1], "feature": [11, 12, 5, -2, -2, 5, -2, -2, 19, 5, 9, -2, -2, -2, -2], "threshold": [0.43878889083862305, 0.6800034046173096, 0.2278307005763054, -2.0, -2.0, 0.20606613904237747, -2.0, -2.0, 0.8284189999103546, 0.20562689006328583, 0.45731237530708313, -2.0, -2.0, -2.0, -2.0], "value": [[0.5609756097560976, 0.43902439024390244], [0.9, 0.1], [0.941747572815534, 0.05825242718446602], [1.0, 0.0], [0.0, 1.0], [0.2857142857142857, 0.7142857142857143], [1.0, 0.0], [0.0, 1.0], [0.16842105263157894, 0.8315789473684211], [0.42105263157894735, 0.5789473684210527], [0.9411764705882353, 0.058823529411764705], [1.0, 0.0], [0.5, 0.5], [0.0, 1.0], [0.0, 1.0]]}, {"children_left": [1, 2, 3, -1, 5, -1, 7, -1, -1, 10, -1, -1, -1], "children_right": [12, 9, 4, -1, 6, -1, 8, -1, -1, 11, -1, -1, -1], "feature": [12, 6, 8, -2, 5, -2, 13, -2, -2, 14, -2, -2, -2], "threshold": [0.6981695294380188, 0.4769282639026642, 0.44933226704597473, -2.0, 0.15887659788131714, -2.0, 0.3129507899284363, -2.0, -2.0, 0.22427283972501755, -2.0, -2.0, -2.0], "value": [[0.551219512195122, 0.44878048780487806], [0.8692307692307693, 0.13076923076923078], [0.9824561403508771, 0.017543859649122806], [1.0, 0.0], [0.8947368421052632, 0.10526315789473684], [1.0, 0.0], [0.5, 0.5], [1.0, 0.0], [0.0, 1.0], [0.0625, 0.9375], [0.5, 0.5], [0.0, 1.0], [0.0, 1.0]]}]}