{"params": {"bootstrap": true, "criterion": "gini", "max_depth": 40, "min_samples_leaf": 2, "min_samples_split": 4, "n_estimators": 5, "train_test_split_seed": 7759}, "classes": ["correct", "incorrect"], "features": {"points": ["LEFT_WRIST", "RIGHT_WRIST", "LEFT_ELBOW", "RIGHT_ELBOW", "LEFT_SHOULDER", "RIGHT_SHOULDER"], "angles": [["LEFT_WRIST", "LEFT_ELBOW", "LEFT_SHOULDER"], ["RIGHT_WRIST", "RIGHT_ELBOW", "RIGHT_SHOULDER"], ["LEFT_WRIST", "LEFT_SHOULDER", "RIGHT_SHOULDER"], ["RIGHT_WRIST", "RIGHT_SHOULDER", "LEFT_SHOULDER"]]}, "model_data": [{"children_left": [1, 2, 3, 4, -1, -1, 7, 8, -1, 10, -1, -1, 13, -1, -1, 16, 17, 18, -1, -1, -1, -1, 23, 24, -1, -1, -1], "children_right": [22, 15, 6, 5, -1, -1, 12, 9, -1, 11, -1, -1, 14, -1, -1, 21, 20, 19, -1, -1, -1, -1, 26, 25, -1, -1, -1], "feature": [0, 3, 1, 3, -2, -2, 3, 2, -2, 2, -2, -2, 0, -2, -2, 2, 0, 1, -2, -2, -2, -2, 1, 1, -2, -2, -2], "threshold": [0.1988428756594658, 0.4489106237888336, 0.06897078454494476, 0.41604912281036377, -2.0, -2.0, 0.42664188146591187, 0.43135373294353485, -2.0, 0.48148053884506226, -2.0, -2.0, 0.10754011198878288, -2.0, -2.0, 0.4400811642408371, 0.14922131597995758, 0.19088831543922424, -2.0, -2.0, -2.0, -2.0, 0.16344168037176132, 0.15067025274038315, -2.0, -2.0, -2.0], "value": [[0.5463414634146342, 0.45365853658536587], [0.7785714285714286, 0.22142857142857142], [0.2777777777777778, 0.7222222222222222], [0.8333333333333334, 0.16666666666666666], [0.6666666666666666, 0.3333333333333333], [1.0, 0.0], [0.16666666666666666, 0.8333333333333334], [0.08333333333333333, 0.9166666666666666], [0.0, 1.0], [0.5, 0.5], [0.5, 0.5], [0.5, 0.5], [0.5, 0.5], [1.0, 0.0], [0.0, 1.0], [0.9519230769230769, 0.04807692307692308], [0.7058823529411765, 0.29411764705882354], [0.9230769230769231, 0.07692307692307693], [1.0, 0.0], [0.5, 0.5], [0.0, 1.0], [1.0, 0.0], [0.046153846153846156, 0.9538461538461539], [0.42857142857142855, 0.5714285714285714], [0.0, 1.0], [1.0, 0.0], [0.0, 1.0]]}, {"children_left": [1, 2, 3, 4, -1, -1, 7, -1, -1, 10, 11, 12, -1, -1, -1, -1, -1], "children_right": [16, 9, 6, 5, -1, -1, 8, -1, -1, 15, 14, 13, -1, -1, -1, -1, -1], "feature": [1, 2, 1, 1, -2, -2, 3, -2, -2, 3, 0, 2, -2, -2, -2, -2, -2], "threshold": [0.21320615708827972, 0.4276057928800583, 0.16456595808267593, 0.07503579184412956, -2.0, -2.0, 0.45924197137355804, -2.0, -2.0, 0.46593184769153595, 0.18838408589363098, 0.5125881135463715, -2.0, -2.0, -2.0, -2.0, -2.0], "value": [[0.5317073170731708, 0.4682926829268293], [0.689873417721519, 0.310126582278481], [0.21739130434782608, 0.782608695652174], [0.058823529411764705, 0.9411764705882353], [0.5, 0.5], [0.0, 1.0], [0.6666666666666666, 0.3333333333333333], [0.0, 1.0], [1.0, 0.0], [0.8839285714285714, 0.11607142857142858], [0.4090909090909091, 0.5909090909090909], [0.8181818181818182, 0.18181818181818182], [1.0, 0.0], [0.3333333333333333, 0.6666666666666666], [0.0, 1.0], [1.0, 0.0], [0.0, 1.0]]}, {"children_left": [1, 2, 3, -1, -1, 6, -1, -1, 9, 10, 11, 12, -1, -1, 15, -1, 17, -1, -1, -1, 21, -1, -1], "children_right": [8, 5, 4, -1, -1, 7, -1, -1, 20, 19, 14, 13, -1, -1, 16, -1, 18, -1, -1, -1, 22, -1, -1], "feature": [3, 1, 3, -2, -2, 0, -2, -2, 2, 0, 3, 0, -2, -2, 1, -2, 1, -2, -2, -2, 1, -2, -2], "threshold": [0.4533526748418808, 0.07863325253129005, 0.3980932980775833, -2.0, -2.0, 0.061559198424220085, -2.0, -2.0, 0.57150998711586, 0.2322593852877617, 0.47038665413856506, 0.16758577525615692, -2.0, -2.0, 0.19558943808078766, -2.0, 0.20513657480478287, -2.0, -2.0, -2.0, 0.33733488619327545, -2.0, -2.0], "value": [[0.5609756097560976, 0.43902439024390244], [0.11940298507462686, 0.8805970149253731], [0.6666666666666666, 0.3333333333333333], [0.0, 1.0], [1.0, 0.0], [0.034482758620689655, 0.9655172413793104], [0.4, 0.6], [0.0, 1.0], [0.7753623188405797, 0.2246376811594203], [0.828125, 0.171875], [0.954954954954955, 0.04504504504504504], [0.75, 0.25], [1.0, 0.0], [0.4, 0.6], [0.9797979797979798, 0.020202020202020204], [1.0, 0.0], [0.6666666666666666, 0.3333333333333333], [0.5, 0.5], [0.75, 0.25], [0.0, 1.0], [0.1, 0.9], [0.3333333333333333, 0.6666666666666666], [0.0, 1.0]]}, {"children_left": [1, 2, -1, 4, 5, -1, -1, -1, -1], "children_right": [8, 3, -1, 7, 6, -1, -1, -1, -1], "feature": [1, 3, -2, 3, 1, -2, -2, -2, -2], "threshold": [0.20491767674684525, 0.4128448963165283, -2.0, 0.45501595735549927, 0.13781322538852692, -2.0, -2.0, -2.0, -2.0], "value": [[0.5951219512195122, 0.40487804878048783], [0.8079470198675497, 0.19205298013245034], [0.0, 1.0], [0.9682539682539683, 0.031746031746031744], [0.75, 0.25], [1.0, 0.0], [0.0, 1.0], [1.0, 0.0], [0.0, 1.0]]}, {"children_left": [1, 2, 3, -1, 5, -1, 7, -1, -1, 10, -1, 12, -1, -1, 15, 16, -1, -1, -1], "children_right": [14, 9, 4, -1, 6, -1, 8, -1, -1, 11, -1, 13, -1, -1, 18, 17, -1, -1, -1], "feature": [0, 3, 3, -2, 1, -2, 0, -2, -2, 1, -2, 2, -2, -2, 0, 1, -2, -2, -2], "threshold": [0.19608032703399658, 0.4389151930809021, 0.39577095210552216, -2.0, 0.0986853837966919, -2.0, 0.0948632787913084, -2.0, -2.0, 0.1926494538784027, -2.0, 0.46345776319503784, -2.0, -2.0, 0.20809735357761383, 0.1464298591017723, -2.0, -2.0, -2.0], "value": [[0.5414634146341464, 0.4585365853658537], [0.7586206896551724, 0.2413793103448276], [0.16216216216216217, 0.8378378378378378], [0.0, 1.0], [0.42857142857142855, 0.5714285714285714], [1.0, 0.0], [0.2, 0.8], [0.6666666666666666, 0.3333333333333333], [0.0, 1.0], [0.9629629629629629, 0.037037037037037035], [1.0, 0.0], [0.42857142857142855, 0.5714285714285714], [0.0, 1.0], [1.0, 0.0], [0.016666666666666666, 0.9833333333333333], [0.125, 0.875], [0.0, 1.0], [0.3333333333333333, 0.6666666666666666], [0.0, 1.0]]}]}