{
  "params": {
    "bootstrap": false,
    "criterion": "log_loss",
    "max_depth": 60,
    "min_samples_leaf": 1,
    "min_samples_split": 6,
    "n_estimators": 30
  },
  "classes": ["correct", "incorrect"],
  "forest": [
    {
      "children_left": [
        1, 2, -1, -1, 5, 6, 7, -1, 9, -1, 11, 12, -1, -1, -1, 16, 17, -1, -1,
        -1, 21, 22, 23, 24, -1, -1, -1, -1, -1
      ],
      "children_right": [
        4, 3, -1, -1, 20, 15, 8, -1, 10, -1, 14, 13, -1, -1, -1, 19, 18, -1, -1,
        -1, 28, 27, 26, 25, -1, -1, -1, -1, -1
      ],
      "feature": [
        70, 202, -2, -2, 122, 59, 191, -2, 97, -2, 64, 217, -2, -2, -2, 151, 2,
        -2, -2, -2, 214, 55, 141, 95, -2, -2, -2, -2, -2
      ],
      "threshold": [
        0.44586318731307983, 0.5125715136528015, -2.0, -2.0,
        0.31237539649009705, 0.639449805021286, 0.13748864084482193, -2.0,
        0.2012597769498825, -2.0, 0.3617624491453171, 0.4652664512395859, -2.0,
        -2.0, -2.0, 0.4434175342321396, 0.7436699867248535, -2.0, -2.0, -2.0,
        0.08108403906226158, 0.8523050546646118, 0.6184637546539307,
        0.2349129095673561, -2.0, -2.0, -2.0, -2.0, -2.0
      ],
      "value": [
        [0.41198501872659177, 0.5880149812734082],
        [0.013333333333333334, 0.9866666666666667],
        [0.25, 0.75],
        [0.0, 1.0],
        [0.5677083333333334, 0.4322916666666667],
        [0.7777777777777778, 0.2222222222222222],
        [0.8952380952380953, 0.10476190476190476],
        [1.0, 0.0],
        [0.5416666666666666, 0.4583333333333333],
        [0.0, 1.0],
        [0.7647058823529411, 0.23529411764705882],
        [0.9285714285714286, 0.07142857142857142],
        [0.0, 1.0],
        [1.0, 0.0],
        [0.0, 1.0],
        [0.19047619047619047, 0.8095238095238095],
        [0.4444444444444444, 0.5555555555555556],
        [1.0, 0.0],
        [0.0, 1.0],
        [0.0, 1.0],
        [0.16666666666666666, 0.8333333333333334],
        [0.3793103448275862, 0.6206896551724138],
        [0.5789473684210527, 0.42105263157894735],
        [0.8461538461538461, 0.15384615384615385],
        [1.0, 0.0],
        [0.3333333333333333, 0.6666666666666666],
        [0.0, 1.0],
        [0.0, 1.0],
        [0.0, 1.0]
      ]
    },
    {
      "children_left": [
        1, 2, 3, -1, 5, 6, 7, 8, -1, -1, -1, -1, 13, 14, 15, 16, 17, -1, -1, -1,
        -1, -1, 23, -1, -1, -1, -1
      ],
      "children_right": [
        26, 25, 4, -1, 12, 11, 10, 9, -1, -1, -1, -1, 22, 21, 20, 19, 18, -1,
        -1, -1, -1, -1, 24, -1, -1, -1, -1
      ],
      "feature": [
        214, 19, 15, -2, 91, 85, 113, 34, -2, -2, -2, -2, 2, 65, 63, 204, 24,
        -2, -2, -2, -2, -2, 44, -2, -2, -2, -2
      ],
      "threshold": [
        0.11841249465942383, 0.719376415014267, 0.38735783100128174, -2.0,
        0.39155614376068115, 0.6976195871829987, 0.7341002523899078,
        0.5954897105693817, -2.0, -2.0, -2.0, -2.0, 0.7554592490196228,
        0.18004408478736877, 0.5903040170669556, 0.5840876996517181,
        0.522984504699707, -2.0, -2.0, -2.0, -2.0, -2.0, 0.42089247703552246,
        -2.0, -2.0, -2.0, -2.0
      ],
      "value": [
        [0.41198501872659177, 0.5880149812734082],
        [0.5263157894736842, 0.47368421052631576],
        [0.6875, 0.3125],
        [0.0, 1.0],
        [0.8270676691729323, 0.17293233082706766],
        [0.9550561797752809, 0.0449438202247191],
        [0.9770114942528736, 0.022988505747126436],
        [0.9883720930232558, 0.011627906976744186],
        [0.75, 0.25],
        [1.0, 0.0],
        [0.0, 1.0],
        [0.0, 1.0],
        [0.5681818181818182, 0.4318181818181818],
        [0.35714285714285715, 0.6428571428571429],
        [0.21739130434782608, 0.782608695652174],
        [0.4166666666666667, 0.5833333333333334],
        [0.8333333333333334, 0.16666666666666666],
        [1.0, 0.0],
        [0.0, 1.0],
        [0.0, 1.0],
        [0.0, 1.0],
        [1.0, 0.0],
        [0.9375, 0.0625],
        [1.0, 0.0],
        [0.0, 1.0],
        [0.0, 1.0],
        [0.0, 1.0]
      ]
    },
    {
      "children_left": [
        1, -1, 3, 4, 5, 6, -1, 8, -1, 10, -1, -1, -1, -1, 15, 16, 17, 18, -1,
        20, 21, -1, 23, -1, -1, -1, -1, -1, -1
      ],
      "children_right": [
        2, -1, 14, 13, 12, 7, -1, 9, -1, 11, -1, -1, -1, -1, 28, 27, 26, 19, -1,
        25, 22, -1, 24, -1, -1, -1, -1, -1, -1
      ],
      "feature": [
        68, -2, 171, 84, 61, 191, -2, 172, -2, 85, -2, -2, -2, -2, 198, 23, 42,
        104, -2, 19, 31, -2, 172, -2, -2, -2, -2, -2, -2
      ],
      "threshold": [
        0.4114088714122772, -2.0, 0.12257739901542664, 0.6813928782939911,
        0.6728394031524658, 0.13748864084482193, -2.0, 0.18707385659217834,
        -2.0, 0.6303967535495758, -2.0, -2.0, -2.0, -2.0, 0.09502143412828445,
        0.6101676821708679, 0.429595023393631, 0.5855959355831146, -2.0,
        0.7186804115772247, 0.4910062700510025, -2.0, 0.24159613996744156, -2.0,
        -2.0, -2.0, -2.0, -2.0, -2.0
      ],
      "value": [
        [0.41198501872659177, 0.5880149812734082],
        [0.0, 1.0],
        [0.5339805825242718, 0.46601941747572817],
        [0.8518518518518519, 0.14814814814814814],
        [0.9108910891089109, 0.0891089108910891],
        [0.9484536082474226, 0.05154639175257732],
        [1.0, 0.0],
        [0.6666666666666666, 0.3333333333333333],
        [0.0, 1.0],
        [0.9090909090909091, 0.09090909090909091],
        [0.0, 1.0],
        [1.0, 0.0],
        [0.0, 1.0],
        [0.0, 1.0],
        [0.1836734693877551, 0.8163265306122449],
        [0.3103448275862069, 0.6896551724137931],
        [0.43902439024390244, 0.5609756097560976],
        [0.6, 0.4],
        [0.0, 1.0],
        [0.72, 0.28],
        [0.8571428571428571, 0.14285714285714285],
        [0.0, 1.0],
        [0.9473684210526315, 0.05263157894736842],
        [1.0, 0.0],
        [0.0, 1.0],
        [0.0, 1.0],
        [0.0, 1.0],
        [0.0, 1.0],
        [0.0, 1.0]
      ]
    },
    {
      "children_left": [
        1, -1, 3, 4, 5, 6, -1, 8, 9, 10, -1, -1, 13, -1, -1, -1, -1, 18, 19, 20,
        -1, 22, -1, -1, -1, -1, -1
      ],
      "children_right": [
        2, -1, 26, 17, 16, 7, -1, 15, 12, 11, -1, -1, 14, -1, -1, -1, -1, 25,
        24, 21, -1, 23, -1, -1, -1, -1, -1
      ],
      "feature": [
        68, -2, 76, 122, 101, 91, -2, 20, 14, 214, -2, -2, 98, -2, -2, -2, -2,
        169, 211, 176, -2, 84, -2, -2, -2, -2, -2
      ],
      "threshold": [
        0.4114088714122772, -2.0, 0.6932668089866638, 0.31237539649009705,
        0.6506030559539795, 0.3912605196237564, -2.0, 0.46616847813129425,
        0.44186343252658844, 0.02353113703429699, -2.0, -2.0,
        0.12929920107126236, -2.0, -2.0, -2.0, -2.0, 0.5054889023303986,
        0.1937418356537819, 0.1205248050391674, -2.0, 0.6351327002048492, -2.0,
        -2.0, -2.0, -2.0, -2.0
      ],
      "value": [
        [0.41198501872659177, 0.5880149812734082],
        [0.0, 1.0],
        [0.5339805825242718, 0.46601941747572817],
        [0.6666666666666666, 0.3333333333333333],
        [0.8839285714285714, 0.11607142857142858],
        [0.9166666666666666, 0.08333333333333333],
        [1.0, 0.0],
        [0.6785714285714286, 0.32142857142857145],
        [0.55, 0.45],
        [0.2, 0.8],
        [1.0, 0.0],
        [0.0, 1.0],
        [0.9, 0.1],
        [0.0, 1.0],
        [1.0, 0.0],
        [1.0, 0.0],
        [0.0, 1.0],
        [0.20754716981132076, 0.7924528301886793],
        [0.3793103448275862, 0.6206896551724138],
        [0.6111111111111112, 0.3888888888888889],
        [0.0, 1.0],
        [0.8461538461538461, 0.15384615384615385],
        [1.0, 0.0],
        [0.5, 0.5],
        [0.0, 1.0],
        [0.0, 1.0],
        [0.0, 1.0]
      ]
    },
    {
      "children_left": [
        1, 2, 3, 4, -1, 6, -1, -1, -1, -1, 11, 12, 13, -1, 15, -1, -1, 18, 19,
        20, -1, -1, 23, -1, 25, -1, 27, -1, -1, -1, 31, 32, -1, 34, -1, 36, -1,
        38, -1, -1, -1
      ],
      "children_right": [
        10, 9, 8, 5, -1, 7, -1, -1, -1, -1, 30, 17, 14, -1, 16, -1, -1, 29, 22,
        21, -1, -1, 24, -1, 26, -1, 28, -1, -1, -1, 40, 33, -1, 35, -1, 37, -1,
        39, -1, -1, -1
      ],
      "feature": [
        97, 20, 125, 60, -2, 190, -2, -2, -2, -2, 161, 190, 24, -2, 63, -2, -2,
        14, 78, 10, -2, -2, 50, -2, 185, -2, 209, -2, -2, -2, 207, 84, -2, 33,
        -2, 63, -2, 44, -2, -2, -2
      ],
      "threshold": [
        0.20695621520280838, 0.4807881861925125, 0.24669840931892395,
        0.4905444383621216, -2.0, 0.15658045560121536, -2.0, -2.0, -2.0, -2.0,
        0.2172602266073227, 0.1445782259106636, 0.4603000581264496, -2.0,
        0.525219202041626, -2.0, -2.0, 0.44186343252658844, 0.612194836139679,
        0.4852825701236725, -2.0, -2.0, 0.18282990902662277, -2.0,
        0.6566881835460663, -2.0, 0.6350222826004028, -2.0, -2.0, -2.0,
        0.5260031521320343, 0.565777987241745, -2.0, 0.5363440811634064, -2.0,
        0.6186066269874573, -2.0, 0.4711119830608368, -2.0, -2.0, -2.0
      ],
      "value": [
        [0.41198501872659177, 0.5880149812734082],
        [0.09375, 0.90625],
        [0.16981132075471697, 0.8301886792452831],
        [0.32142857142857145, 0.6785714285714286],
        [0.0, 1.0],
        [0.6428571428571429, 0.35714285714285715],
        [1.0, 0.0],
        [0.0, 1.0],
        [0.0, 1.0],
        [0.0, 1.0],
        [0.5906432748538012, 0.4093567251461988],
        [0.7946428571428571, 0.20535714285714285],
        [0.9487179487179487, 0.05128205128205128],
        [0.0, 1.0],
        [0.9866666666666667, 0.013333333333333334],
        [0.0, 1.0],
        [1.0, 0.0],
        [0.4411764705882353, 0.5588235294117647],
        [0.32142857142857145, 0.6785714285714286],
        [0.8333333333333334, 0.16666666666666666],
        [0.0, 1.0],
        [1.0, 0.0],
        [0.18181818181818182, 0.8181818181818182],
        [0.0, 1.0],
        [0.36363636363636365, 0.6363636363636364],
        [1.0, 0.0],
        [0.125, 0.875],
        [0.0, 1.0],
        [1.0, 0.0],
        [1.0, 0.0],
        [0.2033898305084746, 0.7966101694915254],
        [0.375, 0.625],
        [0.0, 1.0],
        [0.5217391304347826, 0.4782608695652174],
        [1.0, 0.0],
        [0.3125, 0.6875],
        [0.0, 1.0],
        [0.8333333333333334, 0.16666666666666666],
        [1.0, 0.0],
        [0.0, 1.0],
        [0.0, 1.0]
      ]
    },
    {
      "children_left": [
        1, 2, 3, -1, 5, 6, -1, -1, 9, 10, 11, -1, 13, 14, -1, -1, -1, 18, -1,
        -1, -1, -1, -1
      ],
      "children_right": [
        22, 21, 4, -1, 8, 7, -1, -1, 20, 17, 12, -1, 16, 15, -1, -1, -1, 19, -1,
        -1, -1, -1, -1
      ],
      "feature": [
        136, 195, 13, -2, 80, 65, -2, -2, 140, 214, 150, -2, 128, 184, -2, -2,
        -2, 154, -2, -2, -2, -2, -2
      ],
      "threshold": [
        0.8372339308261871, 0.1541397124528885, 0.25611500442028046, -2.0,
        0.49338968098163605, 0.10857784003019333, -2.0, -2.0,
        0.7220802009105682, 0.08366459235548973, 0.32835617661476135, -2.0,
        0.36867986619472504, 0.44773516058921814, -2.0, -2.0, -2.0,
        0.2576059103012085, -2.0, -2.0, -2.0, -2.0, -2.0
      ],
      "value": [
        [0.41198501872659177, 0.5880149812734082],
        [0.5288461538461539, 0.47115384615384615],
        [0.625, 0.375],
        [0.0, 1.0],
        [0.7534246575342466, 0.2465753424657534],
        [0.16666666666666666, 0.8333333333333334],
        [0.75, 0.25],
        [0.0, 1.0],
        [0.8359375, 0.1640625],
        [0.8916666666666667, 0.10833333333333334],
        [0.9611650485436893, 0.038834951456310676],
        [1.0, 0.0],
        [0.7777777777777778, 0.2222222222222222],
        [0.42857142857142855, 0.5714285714285714],
        [1.0, 0.0],
        [0.0, 1.0],
        [1.0, 0.0],
        [0.47058823529411764, 0.5294117647058824],
        [1.0, 0.0],
        [0.0, 1.0],
        [0.0, 1.0],
        [0.0, 1.0],
        [0.0, 1.0]
      ]
    },
    {
      "children_left": [
        1, 2, 3, 4, -1, 6, 7, 8, 9, 10, -1, 12, -1, -1, -1, 16, -1, -1, 19, -1,
        21, -1, -1, -1, -1, -1, -1
      ],
      "children_right": [
        26, 25, 24, 5, -1, 23, 18, 15, 14, 11, -1, 13, -1, -1, -1, 17, -1, -1,
        20, -1, 22, -1, -1, -1, -1, -1, -1
      ],
      "feature": [
        11, 154, 87, 68, -2, 211, 113, 31, 56, 14, -2, 15, -2, -2, -2, 8, -2,
        -2, 150, -2, 196, -2, -2, -2, -2, -2, -2
      ],
      "threshold": [
        0.2295011505484581, 0.3422333300113678, 0.5442115962505341,
        0.4114088714122772, -2.0, 0.204755961894989, 0.6202871203422546,
        0.574042946100235, 0.5320194363594055, 0.2831001430749893, -2.0,
        0.46057331562042236, -2.0, -2.0, -2.0, 0.6237808167934418, -2.0, -2.0,
        0.32835617661476135, -2.0, 0.2548041492700577, -2.0, -2.0, -2.0, -2.0,
        -2.0, -2.0
      ],
      "value": [
        [0.41198501872659177, 0.5880149812734082],
        [0.5164319248826291, 0.4835680751173709],
        [0.650887573964497, 0.34911242603550297],
        [0.7333333333333333, 0.26666666666666666],
        [0.0, 1.0],
        [0.8333333333333334, 0.16666666666666666],
        [0.873015873015873, 0.12698412698412698],
        [0.7021276595744681, 0.2978723404255319],
        [0.8205128205128205, 0.1794871794871795],
        [0.9142857142857143, 0.08571428571428572],
        [0.0, 1.0],
        [0.9696969696969697, 0.030303030303030304],
        [1.0, 0.0],
        [0.0, 1.0],
        [0.0, 1.0],
        [0.125, 0.875],
        [0.0, 1.0],
        [1.0, 0.0],
        [0.9746835443037974, 0.02531645569620253],
        [1.0, 0.0],
        [0.8333333333333334, 0.16666666666666666],
        [0.0, 1.0],
        [1.0, 0.0],
        [0.0, 1.0],
        [0.0, 1.0],
        [0.0, 1.0],
        [0.0, 1.0]
      ]
    },
    {
      "children_left": [
        1, 2, -1, 4, -1, -1, 7, 8, 9, 10, 11, 12, 13, 14, -1, -1, 17, -1, 19,
        -1, -1, -1, -1, -1, 25, 26, -1, -1, -1, -1, -1
      ],
      "children_right": [
        6, 3, -1, 5, -1, -1, 30, 29, 24, 23, 22, 21, 16, 15, -1, -1, 18, -1, 20,
        -1, -1, -1, -1, -1, 28, 27, -1, -1, -1, -1, -1
      ],
      "feature": [
        69, 15, -2, 3, -2, -2, 198, 61, 86, 147, 46, 57, 213, 46, -2, -2, 45,
        -2, 12, -2, -2, -2, -2, -2, 208, 85, -2, -2, -2, -2, -2
      ],
      "threshold": [
        0.42661920189857483, 0.4226352721452713, -2.0, 0.5335977971553802, -2.0,
        -2.0, 0.10483140498399734, 0.6596430540084839, 0.4242628216743469,
        0.7190283536911011, 0.44203636050224304, 0.7030311226844788,
        0.12545233219861984, 0.3714764565229416, -2.0, -2.0,
        0.47346433997154236, -2.0, 0.41931886970996857, -2.0, -2.0, -2.0, -2.0,
        -2.0, 0.16962582617998123, 0.5864361524581909, -2.0, -2.0, -2.0, -2.0,
        -2.0
      ],
      "value": [
        [0.41198501872659177, 0.5880149812734082],
        [0.02564102564102564, 0.9743589743589743],
        [0.0, 1.0],
        [0.13333333333333333, 0.8666666666666667],
        [0.6666666666666666, 0.3333333333333333],
        [0.0, 1.0],
        [0.5714285714285714, 0.42857142857142855],
        [0.72, 0.28],
        [0.8059701492537313, 0.19402985074626866],
        [0.8839285714285714, 0.11607142857142858],
        [0.9166666666666666, 0.08333333333333333],
        [0.9611650485436893, 0.038834951456310676],
        [0.9705882352941176, 0.029411764705882353],
        [0.6666666666666666, 0.3333333333333333],
        [1.0, 0.0],
        [0.0, 1.0],
        [0.9895833333333334, 0.010416666666666666],
        [1.0, 0.0],
        [0.9, 0.1],
        [1.0, 0.0],
        [0.0, 1.0],
        [0.0, 1.0],
        [0.0, 1.0],
        [0.0, 1.0],
        [0.4090909090909091, 0.5909090909090909],
        [0.75, 0.25],
        [0.0, 1.0],
        [1.0, 0.0],
        [0.0, 1.0],
        [0.0, 1.0],
        [0.0, 1.0]
      ]
    },
    {
      "children_left": [
        1, 2, -1, -1, 5, 6, 7, 8, -1, -1, -1, 12, 13, -1, -1, 16, -1, -1, 19,
        -1, 21, 22, -1, 24, 25, -1, -1, -1, -1
      ],
      "children_right": [
        4, 3, -1, -1, 18, 11, 10, 9, -1, -1, -1, 15, 14, -1, -1, 17, -1, -1, 20,
        -1, 28, 23, -1, 27, 26, -1, -1, -1, -1
      ],
      "feature": [
        71, 134, -2, -2, 126, 97, 61, 123, -2, -2, -2, 167, 37, -2, -2, 53, -2,
        -2, 98, -2, 181, 97, -2, 178, 50, -2, -2, -2, -2
      ],
      "threshold": [
        0.4479081779718399, 0.05115681514143944, -2.0, -2.0, 0.4391361027956009,
        0.1975739523768425, 0.6337383389472961, 0.3085503578186035, -2.0, -2.0,
        -2.0, 0.4977658540010452, 0.5782233774662018, -2.0, -2.0,
        0.259770929813385, -2.0, -2.0, 0.1598847731947899, -2.0,
        0.28910544514656067, 0.2542247176170349, -2.0, 0.2611098438501358,
        0.14721114188432693, -2.0, -2.0, -2.0, -2.0
      ],
      "value": [
        [0.41198501872659177, 0.5880149812734082],
        [0.01282051282051282, 0.9871794871794872],
        [1.0, 0.0],
        [0.0, 1.0],
        [0.5767195767195767, 0.42328042328042326],
        [0.8260869565217391, 0.17391304347826086],
        [0.3181818181818182, 0.6818181818181818],
        [0.5833333333333334, 0.4166666666666667],
        [1.0, 0.0],
        [0.0, 1.0],
        [0.0, 1.0],
        [0.946236559139785, 0.053763440860215055],
        [0.42857142857142855, 0.5714285714285714],
        [0.0, 1.0],
        [0.75, 0.25],
        [0.9883720930232558, 0.011627906976744186],
        [1.0, 0.0],
        [0.5, 0.5],
        [0.1891891891891892, 0.8108108108108109],
        [0.0, 1.0],
        [0.34146341463414637, 0.6585365853658537],
        [0.5, 0.5],
        [0.0, 1.0],
        [0.7368421052631579, 0.2631578947368421],
        [0.875, 0.125],
        [0.0, 1.0],
        [1.0, 0.0],
        [0.0, 1.0],
        [0.0, 1.0]
      ]
    },
    {
      "children_left": [
        1, 2, 3, -1, 5, 6, -1, -1, 9, -1, 11, -1, 13, -1, -1, 16, 17, 18, -1,
        20, -1, -1, -1, -1, 25, -1, 27, 28, -1, 30, -1, -1, -1
      ],
      "children_right": [
        24, 15, 4, -1, 8, 7, -1, -1, 10, -1, 12, -1, 14, -1, -1, 23, 22, 19, -1,
        21, -1, -1, -1, -1, 26, -1, 32, 29, -1, 31, -1, -1, -1
      ],
      "feature": [
        56, 122, 43, -2, 191, 117, -2, -2, 80, -2, 113, -2, 38, -2, -2, 210, 39,
        125, -2, 107, -2, -2, -2, -2, 68, -2, 102, 141, -2, 56, -2, -2, -2
      ],
      "threshold": [
        0.4538390189409256, 0.3002869337797165, 0.26079055666923523, -2.0,
        0.13612085580825806, 0.6177980601787567, -2.0, -2.0, 0.5234438478946686,
        -2.0, 0.6688107252120972, -2.0, 0.6938710510730743, -2.0, -2.0,
        0.695703774690628, 0.5930675566196442, 0.2428031861782074, -2.0,
        0.5393244624137878, -2.0, -2.0, -2.0, -2.0, 0.4530045837163925, -2.0,
        0.6980337500572205, 0.5463542640209198, -2.0, 0.4786769300699234, -2.0,
        -2.0, -2.0
      ],
      "value": [
        [0.41198501872659177, 0.5880149812734082],
        [0.5964912280701754, 0.40350877192982454],
        [0.8034188034188035, 0.19658119658119658],
        [0.0, 1.0],
        [0.8785046728971962, 0.12149532710280374],
        [0.9761904761904762, 0.023809523809523808],
        [0.0, 1.0],
        [1.0, 0.0],
        [0.5217391304347826, 0.4782608695652174],
        [1.0, 0.0],
        [0.26666666666666666, 0.7333333333333333],
        [0.0, 1.0],
        [0.6666666666666666, 0.3333333333333333],
        [1.0, 0.0],
        [0.0, 1.0],
        [0.14814814814814814, 0.8518518518518519],
        [0.32, 0.68],
        [0.5, 0.5],
        [0.0, 1.0],
        [0.8, 0.2],
        [1.0, 0.0],
        [0.0, 1.0],
        [0.0, 1.0],
        [0.0, 1.0],
        [0.08333333333333333, 0.9166666666666666],
        [0.0, 1.0],
        [0.21621621621621623, 0.7837837837837838],
        [0.5333333333333333, 0.4666666666666667],
        [1.0, 0.0],
        [0.3, 0.7],
        [0.75, 0.25],
        [0.0, 1.0],
        [0.0, 1.0]
      ]
    },
    {
      "children_left": [
        1, 2, -1, -1, 5, 6, -1, 8, -1, -1, 11, 12, 13, 14, 15, -1, -1, -1, 19,
        -1, 21, -1, -1, 24, 25, -1, -1, 28, -1, 30, -1, -1, -1
      ],
      "children_right": [
        4, 3, -1, -1, 10, 7, -1, 9, -1, -1, 32, 23, 18, 17, 16, -1, -1, -1, 20,
        -1, 22, -1, -1, 27, 26, -1, -1, 29, -1, 31, -1, -1, -1
      ],
      "feature": [
        98, 204, -2, -2, 68, 183, -2, 202, -2, -2, 154, 103, 154, 140, 206, -2,
        -2, -2, 98, -2, 52, -2, -2, 72, 85, -2, -2, 211, -2, 1, -2, -2, -2
      ],
      "threshold": [
        0.1275983229279518, 0.4796814024448395, -2.0, -2.0, 0.4259028285741806,
        0.029283062554895878, -2.0, 0.7036320269107819, -2.0, -2.0,
        0.3422333300113678, 0.5868712663650513, 0.28988899290561676,
        0.7232397794723511, 0.35820040106773376, -2.0, -2.0, -2.0,
        0.19507495313882828, -2.0, 0.32528769969940186, -2.0, -2.0,
        0.7159309089183807, 0.7000123560428619, -2.0, -2.0, 0.09882501885294914,
        -2.0, 0.5489973425865173, -2.0, -2.0, -2.0
      ],
      "value": [
        [0.41198501872659177, 0.5880149812734082],
        [0.015151515151515152, 0.9848484848484849],
        [0.3333333333333333, 0.6666666666666666],
        [0.0, 1.0],
        [0.5422885572139303, 0.4577114427860697],
        [0.05, 0.95],
        [1.0, 0.0],
        [0.02564102564102564, 0.9743589743589743],
        [0.0, 1.0],
        [0.5, 0.5],
        [0.6645962732919255, 0.33540372670807456],
        [0.7588652482269503, 0.24113475177304963],
        [0.883495145631068, 0.11650485436893204],
        [0.9545454545454546, 0.045454545454545456],
        [0.9882352941176471, 0.011764705882352941],
        [1.0, 0.0],
        [0.0, 1.0],
        [0.0, 1.0],
        [0.4666666666666667, 0.5333333333333333],
        [0.0, 1.0],
        [0.7777777777777778, 0.2222222222222222],
        [0.0, 1.0],
        [1.0, 0.0],
        [0.42105263157894735, 0.5789473684210527],
        [0.9230769230769231, 0.07692307692307693],
        [1.0, 0.0],
        [0.0, 1.0],
        [0.16, 0.84],
        [1.0, 0.0],
        [0.08695652173913043, 0.9130434782608695],
        [0.0, 1.0],
        [0.4, 0.6],
        [0.0, 1.0]
      ]
    },
    {
      "children_left": [
        1, -1, 3, 4, 5, 6, -1, 8, 9, -1, -1, -1, 13, 14, 15, -1, -1, 18, -1, 20,
        21, -1, -1, -1, -1, -1, -1
      ],
      "children_right": [
        2, -1, 26, 25, 12, 7, -1, 11, 10, -1, -1, -1, 24, 17, 16, -1, -1, 19,
        -1, 23, 22, -1, -1, -1, -1, -1, -1
      ],
      "feature": [
        68, -2, 180, 19, 191, 24, -2, 197, 121, -2, -2, -2, 140, 50, 178, -2,
        -2, 97, -2, 104, 92, -2, -2, -2, -2, -2, -2
      ],
      "threshold": [
        0.4114088714122772, -2.0, 0.17529356479644775, 0.7211017310619354,
        0.13485807180404663, 0.524593710899353, -2.0, 0.18639924377202988,
        0.5092118978500366, -2.0, -2.0, -2.0, 0.6927774250507355,
        0.18142563104629517, 0.11829542368650436, -2.0, -2.0,
        0.20289291441440582, -2.0, 0.6104826629161835, 0.4149274528026581, -2.0,
        -2.0, -2.0, -2.0, -2.0, -2.0
      ],
      "value": [
        [0.41198501872659177, 0.5880149812734082],
        [0.0, 1.0],
        [0.5339805825242718, 0.46601941747572817],
        [0.6432748538011696, 0.3567251461988304],
        [0.7482993197278912, 0.25170068027210885],
        [0.9659090909090909, 0.03409090909090909],
        [1.0, 0.0],
        [0.8571428571428571, 0.14285714285714285],
        [0.9473684210526315, 0.05263157894736842],
        [1.0, 0.0],
        [0.0, 1.0],
        [0.0, 1.0],
        [0.423728813559322, 0.576271186440678],
        [0.5102040816326531, 0.4897959183673469],
        [0.125, 0.875],
        [0.4, 0.6],
        [0.0, 1.0],
        [0.696969696969697, 0.30303030303030304],
        [0.0, 1.0],
        [0.8846153846153846, 0.11538461538461539],
        [0.5, 0.5],
        [1.0, 0.0],
        [0.0, 1.0],
        [1.0, 0.0],
        [0.0, 1.0],
        [0.0, 1.0],
        [0.0, 1.0]
      ]
    },
    {
      "children_left": [
        1, -1, 3, 4, 5, 6, 7, -1, 9, -1, 11, -1, 13, -1, -1, 16, -1, -1, 19, -1,
        21, -1, -1, -1, 25, 26, 27, -1, -1, -1, -1
      ],
      "children_right": [
        2, -1, 24, 23, 18, 15, 8, -1, 10, -1, 12, -1, 14, -1, -1, 17, -1, -1,
        20, -1, 22, -1, -1, -1, 30, 29, 28, -1, -1, -1, -1
      ],
      "feature": [
        15, -2, 23, 19, 123, 110, 152, -2, 143, -2, 191, -2, 21, -2, -2, 206,
        -2, -2, 97, -2, 192, -2, -2, -2, 172, 126, 4, -2, -2, -2, -2
      ],
      "threshold": [
        0.38735783100128174, -2.0, 0.610959380865097, 0.7211143672466278,
        0.30867519974708557, 0.5399533212184906, 0.26542916893959045, -2.0,
        0.5076837539672852, -2.0, 0.11196640133857727, -2.0, 0.5462242960929871,
        -2.0, -2.0, 0.31297414004802704, -2.0, -2.0, 0.22636082023382187, -2.0,
        0.19565065205097198, -2.0, -2.0, -2.0, 0.1519566848874092,
        0.43948863446712494, 0.7347316741943359, -2.0, -2.0, -2.0, -2.0
      ],
      "value": [
        [0.41198501872659177, 0.5880149812734082],
        [0.0, 1.0],
        [0.5213270142180095, 0.4786729857819905],
        [0.7608695652173914, 0.2391304347826087],
        [0.8015267175572519, 0.1984732824427481],
        [0.9074074074074074, 0.09259259259259259],
        [0.7, 0.3],
        [1.0, 0.0],
        [0.4375, 0.5625],
        [1.0, 0.0],
        [0.25, 0.75],
        [1.0, 0.0],
        [0.1, 0.9],
        [1.0, 0.0],
        [0.0, 1.0],
        [0.9871794871794872, 0.01282051282051282],
        [1.0, 0.0],
        [0.0, 1.0],
        [0.30434782608695654, 0.6956521739130435],
        [0.0, 1.0],
        [0.7, 0.3],
        [1.0, 0.0],
        [0.0, 1.0],
        [0.0, 1.0],
        [0.0684931506849315, 0.9315068493150684],
        [0.3333333333333333, 0.6666666666666666],
        [0.7142857142857143, 0.2857142857142857],
        [1.0, 0.0],
        [0.0, 1.0],
        [0.0, 1.0],
        [0.0, 1.0]
      ]
    },
    {
      "children_left": [
        1, -1, 3, 4, 5, -1, 7, 8, -1, -1, -1, -1, 13, 14, 15, 16, -1, -1, 19,
        -1, -1, 22, 23, -1, 25, -1, 27, -1, -1, -1, -1
      ],
      "children_right": [
        2, -1, 12, 11, 6, -1, 10, 9, -1, -1, -1, -1, 30, 21, 18, 17, -1, -1, 20,
        -1, -1, 29, 24, -1, 26, -1, 28, -1, -1, -1, -1
      ],
      "feature": [
        13, -2, 97, 126, 23, -2, 39, 11, -2, -2, -2, -2, 214, 133, 60, 83, -2,
        -2, 59, -2, -2, 24, 70, -2, 85, -2, 69, -2, -2, -2, -2
      ],
      "threshold": [
        0.25625596940517426, -2.0, 0.21307921409606934, 0.40901799499988556,
        0.5292714834213257, -2.0, 0.6164166033267975, 0.18831685930490494, -2.0,
        -2.0, -2.0, -2.0, 0.10650421306490898, 0.34239307045936584,
        0.5594783127307892, 0.5363390445709229, -2.0, -2.0, 0.6053952276706696,
        -2.0, -2.0, 0.5164779722690582, 0.440940722823143, -2.0,
        0.5885998010635376, -2.0, 0.43497440218925476, -2.0, -2.0, -2.0, -2.0
      ],
      "value": [
        [0.41198501872659177, 0.5880149812734082],
        [0.0, 1.0],
        [0.5069124423963134, 0.4930875576036866],
        [0.16, 0.84],
        [0.5217391304347826, 0.4782608695652174],
        [0.0, 1.0],
        [0.75, 0.25],
        [0.9166666666666666, 0.08333333333333333],
        [1.0, 0.0],
        [0.0, 1.0],
        [0.25, 0.75],
        [0.0, 1.0],
        [0.6901408450704225, 0.30985915492957744],
        [0.8099173553719008, 0.19008264462809918],
        [0.9404761904761905, 0.05952380952380952],
        [0.9868421052631579, 0.013157894736842105],
        [0.0, 1.0],
        [1.0, 0.0],
        [0.5, 0.5],
        [0.0, 1.0],
        [1.0, 0.0],
        [0.5135135135135135, 0.4864864864864865],
        [0.6551724137931034, 0.3448275862068966],
        [0.0, 1.0],
        [0.7916666666666666, 0.20833333333333334],
        [0.0, 1.0],
        [0.9047619047619048, 0.09523809523809523],
        [0.5, 0.5],
        [1.0, 0.0],
        [0.0, 1.0],
        [0.0, 1.0]
      ]
    },
    {
      "children_left": [
        1, -1, 3, 4, 5, -1, 7, 8, -1, -1, 11, -1, 13, -1, 15, -1, -1, 18, 19,
        -1, -1, 22, -1, -1, 25, 26, -1, -1, -1
      ],
      "children_right": [
        2, -1, 24, 17, 6, -1, 10, 9, -1, -1, 12, -1, 14, -1, 16, -1, -1, 21, 20,
        -1, -1, 23, -1, -1, 28, 27, -1, -1, -1
      ],
      "feature": [
        15, -2, 117, 123, 81, -2, 91, 104, -2, -2, 49, -2, 167, -2, 50, -2, -2,
        99, 185, -2, -2, 77, -2, -2, 187, 57, -2, -2, -2
      ],
      "threshold": [
        0.38735783100128174, -2.0, 0.6902984976768494, 0.30867519974708557,
        0.5224631428718567, -2.0, 0.39155614376068115, 0.5492287874221802, -2.0,
        -2.0, 0.4929523766040802, -2.0, 0.5147376358509064, -2.0,
        0.16426730901002884, -2.0, -2.0, 0.5902830958366394, 0.6410967409610748,
        -2.0, -2.0, 0.6216703057289124, -2.0, -2.0, 0.32659025490283966,
        0.6691381335258484, -2.0, -2.0, -2.0
      ],
      "value": [
        [0.41198501872659177, 0.5880149812734082],
        [0.0, 1.0],
        [0.5213270142180095, 0.4786729857819905],
        [0.7027027027027027, 0.2972972972972973],
        [0.8016528925619835, 0.19834710743801653],
        [0.0, 1.0],
        [0.8584070796460177, 0.1415929203539823],
        [0.9876543209876543, 0.012345679012345678],
        [0.0, 1.0],
        [1.0, 0.0],
        [0.53125, 0.46875],
        [0.0, 1.0],
        [0.85, 0.15],
        [0.0, 1.0],
        [0.9444444444444444, 0.05555555555555555],
        [0.0, 1.0],
        [1.0, 0.0],
        [0.25925925925925924, 0.7407407407407407],
        [0.6666666666666666, 0.3333333333333333],
        [1.0, 0.0],
        [0.25, 0.75],
        [0.05555555555555555, 0.9444444444444444],
        [0.0, 1.0],
        [1.0, 0.0],
        [0.09523809523809523, 0.9047619047619048],
        [0.42857142857142855, 0.5714285714285714],
        [1.0, 0.0],
        [0.0, 1.0],
        [0.0, 1.0]
      ]
    },
    {
      "children_left": [
        1, 2, -1, -1, 5, 6, 7, 8, 9, -1, -1, -1, -1, 14, 15, 16, -1, -1, -1, 20,
        21, -1, 23, -1, 25, -1, 27, -1, -1, -1, 31, 32, -1, 34, -1, -1, -1
      ],
      "children_right": [
        4, 3, -1, -1, 30, 13, 12, 11, 10, -1, -1, -1, -1, 19, 18, 17, -1, -1,
        -1, 29, 22, -1, 24, -1, 26, -1, 28, -1, -1, -1, 36, 33, -1, 35, -1, -1,
        -1
      ],
      "feature": [
        84, 200, -2, -2, 61, 126, 116, 212, 187, -2, -2, -2, -2, 162, 150, 120,
        -2, -2, -2, 46, 191, -2, 60, -2, 13, -2, 167, -2, -2, -2, 100, 69, -2,
        79, -2, -2, -2
      ],
      "threshold": [
        0.565777987241745, 0.5910207629203796, -2.0, -2.0, 0.6359288394451141,
        0.42105382680892944, 0.6464855372905731, 0.2837984263896942,
        0.3294365704059601, -2.0, -2.0, -2.0, -2.0, 0.11693569272756577,
        0.29576149582862854, 0.5972297489643097, -2.0, -2.0, -2.0,
        0.4604797065258026, 0.1491318643093109, -2.0, 0.4912872463464737, -2.0,
        0.31987717747688293, -2.0, 0.5328910946846008, -2.0, -2.0, -2.0,
        0.7988821566104889, 0.5269449949264526, -2.0, 0.6481260657310486, -2.0,
        -2.0, -2.0
      ],
      "value": [
        [0.41198501872659177, 0.5880149812734082],
        [0.014925373134328358, 0.9850746268656716],
        [0.25, 0.75],
        [0.0, 1.0],
        [0.545, 0.455],
        [0.7323943661971831, 0.2676056338028169],
        [0.9534883720930233, 0.046511627906976744],
        [0.9759036144578314, 0.024096385542168676],
        [0.8181818181818182, 0.18181818181818182],
        [1.0, 0.0],
        [0.3333333333333333, 0.6666666666666666],
        [1.0, 0.0],
        [0.3333333333333333, 0.6666666666666666],
        [0.39285714285714285, 0.6071428571428571],
        [0.1111111111111111, 0.8888888888888888],
        [0.375, 0.625],
        [1.0, 0.0],
        [0.0, 1.0],
        [0.0, 1.0],
        [0.6551724137931034, 0.3448275862068966],
        [0.76, 0.24],
        [1.0, 0.0],
        [0.6, 0.4],
        [0.0, 1.0],
        [0.6923076923076923, 0.3076923076923077],
        [1.0, 0.0],
        [0.3333333333333333, 0.6666666666666666],
        [0.0, 1.0],
        [1.0, 0.0],
        [0.0, 1.0],
        [0.08620689655172414, 0.9137931034482759],
        [0.5, 0.5],
        [1.0, 0.0],
        [0.16666666666666666, 0.8333333333333334],
        [0.0, 1.0],
        [0.5, 0.5],
        [0.0, 1.0]
      ]
    },
    {
      "children_left": [
        1, -1, 3, 4, 5, 6, 7, 8, -1, -1, 11, -1, -1, -1, -1, 16, 17, 18, 19, 20,
        -1, -1, -1, 24, -1, 26, -1, -1, -1, -1, -1
      ],
      "children_right": [
        2, -1, 30, 15, 14, 13, 10, 9, -1, -1, 12, -1, -1, -1, -1, 29, 28, 23,
        22, 21, -1, -1, -1, 25, -1, 27, -1, -1, -1, -1, -1
      ],
      "feature": [
        83, -2, 136, 189, 76, 184, 191, 40, -2, -2, 102, -2, -2, -2, -2, 190,
        23, 21, 192, 113, -2, -2, -2, 51, -2, 175, -2, -2, -2, -2, -2
      ],
      "threshold": [
        0.5374714732170105, -2.0, 0.837304562330246, 0.27830956876277924,
        0.7014530599117279, 0.5693431794643402, 0.1359100267291069,
        0.5505307018756866, -2.0, -2.0, 0.6766737997531891, -2.0, -2.0, -2.0,
        -2.0, 0.24435870349407196, 0.6093210577964783, 0.5676560401916504,
        0.16497428715229034, 0.6208517849445343, -2.0, -2.0, -2.0,
        0.3043607473373413, -2.0, 0.36170679330825806, -2.0, -2.0, -2.0, -2.0,
        -2.0
      ],
      "value": [
        [0.41198501872659177, 0.5880149812734082],
        [0.0, 1.0],
        [0.5188679245283019, 0.4811320754716981],
        [0.632183908045977, 0.367816091954023],
        [0.8020833333333334, 0.19791666666666666],
        [0.875, 0.125],
        [0.9156626506024096, 0.08433734939759036],
        [0.9733333333333334, 0.02666666666666667],
        [1.0, 0.0],
        [0.0, 1.0],
        [0.375, 0.625],
        [1.0, 0.0],
        [0.0, 1.0],
        [0.2, 0.8],
        [0.0, 1.0],
        [0.4230769230769231, 0.5769230769230769],
        [0.6346153846153846, 0.36538461538461536],
        [0.7333333333333333, 0.26666666666666666],
        [0.3076923076923077, 0.6923076923076923],
        [0.1, 0.9],
        [0.0, 1.0],
        [1.0, 0.0],
        [1.0, 0.0],
        [0.90625, 0.09375],
        [1.0, 0.0],
        [0.6666666666666666, 0.3333333333333333],
        [1.0, 0.0],
        [0.0, 1.0],
        [0.0, 1.0],
        [0.0, 1.0],
        [0.0, 1.0]
      ]
    },
    {
      "children_left": [
        1, -1, 3, 4, 5, 6, 7, -1, -1, -1, 11, 12, 13, -1, 15, -1, 17, 18, 19,
        -1, -1, 22, -1, -1, -1, -1, -1, -1, -1
      ],
      "children_right": [
        2, -1, 28, 27, 10, 9, 8, -1, -1, -1, 26, 25, 14, -1, 16, -1, 24, 21, 20,
        -1, -1, 23, -1, -1, -1, -1, -1, -1, -1
      ],
      "feature": [
        17, -2, 72, 208, 172, 149, 93, -2, -2, -2, 87, 82, 129, -2, 97, -2, 121,
        59, 84, -2, -2, 158, -2, -2, -2, -2, -2, -2, -2
      ],
      "threshold": [
        0.40502403676509857, -2.0, 0.7527799010276794, 0.20594223588705063,
        0.14089322090148926, 0.7607101202011108, 0.41155073046684265, -2.0,
        -2.0, -2.0, 0.5452308058738708, 0.6540945470333099, 0.26267872750759125,
        -2.0, 0.20452558249235153, -2.0, 0.45305393636226654,
        0.5946644842624664, 0.5853801071643829, -2.0, -2.0, 0.6468225121498108,
        -2.0, -2.0, -2.0, -2.0, -2.0, -2.0, -2.0
      ],
      "value": [
        [0.41198501872659177, 0.5880149812734082],
        [0.0, 1.0],
        [0.5238095238095238, 0.47619047619047616],
        [0.625, 0.375],
        [0.7692307692307693, 0.23076923076923078],
        [0.9705882352941176, 0.029411764705882353],
        [0.9850746268656716, 0.014925373134328358],
        [1.0, 0.0],
        [0.0, 1.0],
        [0.0, 1.0],
        [0.5866666666666667, 0.41333333333333333],
        [0.6666666666666666, 0.3333333333333333],
        [0.7096774193548387, 0.2903225806451613],
        [1.0, 0.0],
        [0.5609756097560976, 0.43902439024390244],
        [0.0, 1.0],
        [0.6764705882352942, 0.3235294117647059],
        [0.45, 0.55],
        [0.1111111111111111, 0.8888888888888888],
        [0.3333333333333333, 0.6666666666666666],
        [0.0, 1.0],
        [0.7272727272727273, 0.2727272727272727],
        [1.0, 0.0],
        [0.25, 0.75],
        [1.0, 0.0],
        [0.0, 1.0],
        [0.0, 1.0],
        [0.0, 1.0],
        [0.0, 1.0]
      ]
    },
    {
      "children_left": [
        1, 2, 3, -1, 5, 6, -1, 8, -1, -1, 11, -1, 13, -1, 15, 16, -1, -1, -1,
        -1, -1
      ],
      "children_right": [
        20, 19, 4, -1, 10, 7, -1, 9, -1, -1, 12, -1, 14, -1, 18, 17, -1, -1, -1,
        -1, -1
      ],
      "feature": [
        183, 20, 23, -2, 155, 60, -2, 116, -2, -2, 51, -2, 97, -2, 136, 28, -2,
        -2, -2, -2, -2
      ],
      "threshold": [
        0.14509554207324982, 0.5037559270858765, 0.5291652083396912, -2.0,
        0.3033219128847122, 0.4729064255952835, -2.0, 0.6481637954711914, -2.0,
        -2.0, 0.22814761847257614, -2.0, 0.20394735038280487, -2.0,
        0.8331157863140106, 0.4583682119846344, -2.0, -2.0, -2.0, -2.0, -2.0
      ],
      "value": [
        [0.41198501872659177, 0.5880149812734082],
        [0.497737556561086, 0.502262443438914],
        [0.6285714285714286, 0.37142857142857144],
        [0.0, 1.0],
        [0.738255033557047, 0.26174496644295303],
        [0.946236559139785, 0.053763440860215055],
        [0.0, 1.0],
        [0.9777777777777777, 0.022222222222222223],
        [1.0, 0.0],
        [0.3333333333333333, 0.6666666666666666],
        [0.39285714285714285, 0.6071428571428571],
        [0.0, 1.0],
        [0.5641025641025641, 0.4358974358974359],
        [0.0, 1.0],
        [0.7857142857142857, 0.21428571428571427],
        [0.9130434782608695, 0.08695652173913043],
        [0.3333333333333333, 0.6666666666666666],
        [1.0, 0.0],
        [0.2, 0.8],
        [0.0, 1.0],
        [0.0, 1.0]
      ]
    },
    {
      "children_left": [
        1, 2, -1, -1, 5, 6, 7, -1, -1, -1, 11, 12, 13, 14, -1, -1, 17, -1, 19,
        20, -1, 22, 23, -1, -1, 26, -1, -1, -1, -1, -1
      ],
      "children_right": [
        4, 3, -1, -1, 10, 9, 8, -1, -1, -1, 30, 29, 16, 15, -1, -1, 18, -1, 28,
        21, -1, 25, 24, -1, -1, 27, -1, -1, -1, -1, -1
      ],
      "feature": [
        70, 158, -2, -2, 151, 200, 104, -2, -2, -2, 45, 208, 92, 151, -2, -2,
        161, -2, 136, 85, -2, 104, 15, -2, -2, 168, -2, -2, -2, -2, -2
      ],
      "threshold": [
        0.44586318731307983, 0.5086598694324493, -2.0, -2.0, 0.4218703955411911,
        0.7278416752815247, 0.5695318579673767, -2.0, -2.0, -2.0,
        0.539861798286438, 0.19219336658716202, 0.30319464206695557,
        0.4305776357650757, -2.0, -2.0, 0.1145322434604168, -2.0,
        0.837304562330246, 0.5885998010635376, -2.0, 0.6319929361343384,
        0.3607165068387985, -2.0, -2.0, 0.6112972497940063, -2.0, -2.0, -2.0,
        -2.0, -2.0
      ],
      "value": [
        [0.41198501872659177, 0.5880149812734082],
        [0.013333333333333334, 0.9866666666666667],
        [1.0, 0.0],
        [0.0, 1.0],
        [0.5677083333333334, 0.4322916666666667],
        [0.9444444444444444, 0.05555555555555555],
        [0.9714285714285714, 0.02857142857142857],
        [0.3333333333333333, 0.6666666666666666],
        [1.0, 0.0],
        [0.0, 1.0],
        [0.3416666666666667, 0.6583333333333333],
        [0.45555555555555555, 0.5444444444444444],
        [0.5694444444444444, 0.4305555555555556],
        [0.07692307692307693, 0.9230769230769231],
        [1.0, 0.0],
        [0.0, 1.0],
        [0.6779661016949152, 0.3220338983050847],
        [0.0, 1.0],
        [0.7272727272727273, 0.2727272727272727],
        [0.8333333333333334, 0.16666666666666666],
        [0.0, 1.0],
        [0.9090909090909091, 0.09090909090909091],
        [0.9722222222222222, 0.027777777777777776],
        [0.0, 1.0],
        [1.0, 0.0],
        [0.625, 0.375],
        [0.0, 1.0],
        [1.0, 0.0],
        [0.0, 1.0],
        [0.0, 1.0],
        [0.0, 1.0]
      ]
    },
    {
      "children_left": [
        1, 2, 3, 4, -1, -1, 7, 8, -1, -1, 11, 12, 13, 14, -1, -1, 17, -1, 19,
        -1, -1, 22, -1, 24, -1, -1, -1, -1, -1
      ],
      "children_right": [
        28, 27, 6, 5, -1, -1, 10, 9, -1, -1, 26, 21, 16, 15, -1, -1, 18, -1, 20,
        -1, -1, 23, -1, 25, -1, -1, -1, -1, -1
      ],
      "feature": [
        154, 20, 70, 65, -2, -2, 187, 121, -2, -2, 140, 104, 190, 166, -2, -2,
        157, -2, 112, -2, -2, 108, -2, 6, -2, -2, -2, -2, -2
      ],
      "threshold": [
        0.3422333300113678, 0.5037559270858765, 0.4453853368759155,
        0.15590083599090576, -2.0, -2.0, 0.3348270058631897, 0.5092118978500366,
        -2.0, -2.0, 0.7220802009105682, 0.6319929361343384, 0.14331165701150894,
        0.5761020481586456, -2.0, -2.0, 0.2803787589073181, -2.0,
        0.6088522672653198, -2.0, -2.0, 0.406086802482605, -2.0,
        0.645664632320404, -2.0, -2.0, -2.0, -2.0, -2.0
      ],
      "value": [
        [0.41198501872659177, 0.5880149812734082],
        [0.5, 0.5],
        [0.6470588235294118, 0.35294117647058826],
        [0.03333333333333333, 0.9666666666666667],
        [0.3333333333333333, 0.6666666666666666],
        [0.0, 1.0],
        [0.7785714285714286, 0.22142857142857142],
        [0.9848484848484849, 0.015151515151515152],
        [1.0, 0.0],
        [0.0, 1.0],
        [0.5945945945945946, 0.40540540540540543],
        [0.676923076923077, 0.3230769230769231],
        [0.8125, 0.1875],
        [0.9655172413793104, 0.034482758620689655],
        [0.0, 1.0],
        [1.0, 0.0],
        [0.5789473684210527, 0.42105263157894735],
        [0.0, 1.0],
        [0.7857142857142857, 0.21428571428571427],
        [1.0, 0.0],
        [0.4, 0.6],
        [0.29411764705882354, 0.7058823529411765],
        [1.0, 0.0],
        [0.07692307692307693, 0.9230769230769231],
        [0.0, 1.0],
        [1.0, 0.0],
        [0.0, 1.0],
        [0.0, 1.0],
        [0.0, 1.0]
      ]
    },
    {
      "children_left": [
        1, 2, -1, 4, -1, -1, 7, 8, 9, -1, -1, 12, -1, 14, 15, -1, -1, 18, 19,
        -1, 21, -1, -1, -1, 25, 26, -1, -1, -1
      ],
      "children_right": [
        6, 3, -1, 5, -1, -1, 24, 11, 10, -1, -1, 13, -1, 17, 16, -1, -1, 23, 20,
        -1, 22, -1, -1, -1, 28, 27, -1, -1, -1
      ],
      "feature": [
        69, 208, -2, 212, -2, -2, 140, 91, 207, -2, -2, 97, -2, 210, 82, -2, -2,
        0, 95, -2, 46, -2, -2, -2, 171, 85, -2, -2, -2
      ],
      "threshold": [
        0.42661920189857483, 0.09499716758728027, -2.0, 0.2371394857764244,
        -2.0, -2.0, 0.6944188475608826, 0.39106428623199463, 0.2440042346715927,
        -2.0, -2.0, 0.2034762278199196, -2.0, 0.6616097390651703,
        0.5800468325614929, -2.0, -2.0, 0.8447897136211395, 0.2118205726146698,
        -2.0, 0.4637066572904587, -2.0, -2.0, -2.0, 0.07977502420544624,
        0.6546246707439423, -2.0, -2.0, -2.0
      ],
      "value": [
        [0.41198501872659177, 0.5880149812734082],
        [0.02564102564102564, 0.9743589743589743],
        [1.0, 0.0],
        [0.012987012987012988, 0.987012987012987],
        [0.5, 0.5],
        [0.0, 1.0],
        [0.5714285714285714, 0.42857142857142855],
        [0.7555555555555555, 0.24444444444444444],
        [0.9746835443037974, 0.02531645569620253],
        [0.3333333333333333, 0.6666666666666666],
        [1.0, 0.0],
        [0.44642857142857145, 0.5535714285714286],
        [0.0, 1.0],
        [0.6756756756756757, 0.32432432432432434],
        [0.125, 0.875],
        [1.0, 0.0],
        [0.0, 1.0],
        [0.8275862068965517, 0.1724137931034483],
        [0.5, 0.5],
        [0.0, 1.0],
        [0.8333333333333334, 0.16666666666666666],
        [1.0, 0.0],
        [0.0, 1.0],
        [1.0, 0.0],
        [0.1111111111111111, 0.8888888888888888],
        [0.46153846153846156, 0.5384615384615384],
        [1.0, 0.0],
        [0.0, 1.0],
        [0.0, 1.0]
      ]
    },
    {
      "children_left": [
        1, -1, 3, 4, 5, 6, -1, -1, 9, 10, -1, 12, -1, -1, 15, -1, 17, -1, -1,
        20, 21, 22, -1, -1, 25, -1, -1, -1, -1
      ],
      "children_right": [
        2, -1, 28, 19, 8, 7, -1, -1, 14, 11, -1, 13, -1, -1, 16, -1, 18, -1, -1,
        27, 24, 23, -1, -1, 26, -1, -1, -1, -1
      ],
      "feature": [
        90, -2, 46, 122, 42, 152, -2, -2, 191, 66, -2, 145, -2, -2, 174, -2, 71,
        -2, -2, 102, 13, 88, -2, -2, 3, -2, -2, -2, -2
      ],
      "threshold": [
        0.2920088768005371, -2.0, 0.4463876485824585, 0.31237539649009705,
        0.28500694036483765, 0.23999286442995071, -2.0, -2.0,
        0.13748864084482193, 0.3569909483194351, -2.0, 0.7380359470844269, -2.0,
        -2.0, 0.12406762689352036, -2.0, 0.47542060911655426, -2.0, -2.0,
        0.6746651232242584, 0.3165172040462494, 0.3220093548297882, -2.0, -2.0,
        0.43281081318855286, -2.0, -2.0, -2.0, -2.0
      ],
      "value": [
        [0.41198501872659177, 0.5880149812734082],
        [0.0, 1.0],
        [0.5116279069767442, 0.4883720930232558],
        [0.6470588235294118, 0.35294117647058826],
        [0.792, 0.208],
        [0.14285714285714285, 0.8571428571428571],
        [1.0, 0.0],
        [0.0, 1.0],
        [0.8738738738738738, 0.12612612612612611],
        [0.9545454545454546, 0.045454545454545456],
        [0.25, 0.75],
        [0.9880952380952381, 0.011904761904761904],
        [1.0, 0.0],
        [0.0, 1.0],
        [0.5652173913043478, 0.43478260869565216],
        [0.0, 1.0],
        [0.7647058823529411, 0.23529411764705882],
        [0.2, 0.8],
        [1.0, 0.0],
        [0.24444444444444444, 0.7555555555555555],
        [0.5789473684210527, 0.42105263157894735],
        [0.9090909090909091, 0.09090909090909091],
        [0.0, 1.0],
        [1.0, 0.0],
        [0.125, 0.875],
        [1.0, 0.0],
        [0.0, 1.0],
        [0.0, 1.0],
        [0.0, 1.0]
      ]
    },
    {
      "children_left": [
        1, 2, 3, -1, 5, 6, -1, 8, -1, 10, -1, 12, -1, -1, 15, 16, -1, -1, 19,
        -1, -1, 22, -1, -1, -1
      ],
      "children_right": [
        24, 21, 4, -1, 14, 7, -1, 9, -1, 11, -1, 13, -1, -1, 18, 17, -1, -1, 20,
        -1, -1, 23, -1, -1, -1
      ],
      "feature": [
        20, 191, 60, -2, 171, 23, -2, 46, -2, 146, -2, 23, -2, -2, 195, 46, -2,
        -2, 215, -2, -2, 7, -2, -2, -2
      ],
      "threshold": [
        0.5037559270858765, 0.20500411838293076, 0.470426470041275, -2.0,
        0.11952927336096764, 0.5257969498634338, -2.0, 0.3836844861507416, -2.0,
        0.6187452673912048, -2.0, 0.5565645098686218, -2.0, -2.0,
        0.10601413995027542, 0.4421110600233078, -2.0, -2.0, 0.6023934483528137,
        -2.0, -2.0, 0.45287512242794037, -2.0, -2.0, -2.0
      ],
      "value": [
        [0.41198501872659177, 0.5880149812734082],
        [0.541871921182266, 0.458128078817734],
        [0.6687116564417178, 0.3312883435582822],
        [0.0, 1.0],
        [0.7956204379562044, 0.20437956204379562],
        [0.9183673469387755, 0.08163265306122448],
        [0.0, 1.0],
        [0.9473684210526315, 0.05263157894736842],
        [1.0, 0.0],
        [0.75, 0.25],
        [0.0, 1.0],
        [0.8823529411764706, 0.11764705882352941],
        [0.5, 0.5],
        [1.0, 0.0],
        [0.48717948717948717, 0.5128205128205128],
        [0.8421052631578947, 0.15789473684210525],
        [1.0, 0.0],
        [0.0, 1.0],
        [0.15, 0.85],
        [0.0, 1.0],
        [0.75, 0.25],
        [0.025, 0.975],
        [0.3333333333333333, 0.6666666666666666],
        [0.0, 1.0],
        [0.0, 1.0]
      ]
    },
    {
      "children_left": [
        1, 2, -1, -1, 5, 6, 7, -1, -1, 10, -1, -1, 13, 14, 15, 16, 17, -1, 19,
        20, -1, -1, -1, -1, 25, -1, 27, -1, -1, -1, 31, -1, -1
      ],
      "children_right": [
        4, 3, -1, -1, 12, 9, 8, -1, -1, 11, -1, -1, 30, 29, 24, 23, 18, -1, 22,
        21, -1, -1, -1, -1, 26, -1, 28, -1, -1, -1, 32, -1, -1
      ],
      "feature": [
        70, 203, -2, -2, 87, 42, 94, -2, -2, 155, -2, -2, 82, 105, 40, 183, 99,
        -2, 103, 162, -2, -2, -2, -2, 124, -2, 113, -2, -2, -2, 56, -2, -2
      ],
      "threshold": [
        0.44586318731307983, 0.3930723965167999, -2.0, -2.0, 0.464683473110199,
        0.2785060852766037, 0.6984765529632568, -2.0, -2.0, 0.30403222143650055,
        -2.0, -2.0, 0.6469205021858215, 0.5574431419372559, 0.46554335951805115,
        0.10599791258573532, 0.5393916964530945, -2.0, 0.5837559401988983,
        0.111634012311697, -2.0, -2.0, -2.0, -2.0, 0.2704305201768875, -2.0,
        0.6254074275493622, -2.0, -2.0, -2.0, 0.29856282472610474, -2.0, -2.0
      ],
      "value": [
        [0.41198501872659177, 0.5880149812734082],
        [0.013333333333333334, 0.9866666666666667],
        [0.25, 0.75],
        [0.0, 1.0],
        [0.5677083333333334, 0.4322916666666667],
        [0.9036144578313253, 0.0963855421686747],
        [0.16666666666666666, 0.8333333333333334],
        [0.0, 1.0],
        [1.0, 0.0],
        [0.961038961038961, 0.03896103896103896],
        [1.0, 0.0],
        [0.25, 0.75],
        [0.3119266055045872, 0.6880733944954128],
        [0.4583333333333333, 0.5416666666666666],
        [0.6, 0.4],
        [0.2692307692307692, 0.7307692307692307],
        [0.4666666666666667, 0.5333333333333333],
        [0.0, 1.0],
        [0.6363636363636364, 0.36363636363636365],
        [0.875, 0.125],
        [0.0, 1.0],
        [1.0, 0.0],
        [0.0, 1.0],
        [0.0, 1.0],
        [0.896551724137931, 0.10344827586206896],
        [1.0, 0.0],
        [0.625, 0.375],
        [1.0, 0.0],
        [0.0, 1.0],
        [0.0, 1.0],
        [0.02702702702702703, 0.972972972972973],
        [0.5, 0.5],
        [0.0, 1.0]
      ]
    },
    {
      "children_left": [
        1, 2, 3, -1, 5, 6, 7, 8, -1, -1, -1, 12, -1, -1, -1, 16, 17, 18, -1, -1,
        -1, -1, 23, 24, 25, -1, -1, -1, -1
      ],
      "children_right": [
        22, 15, 4, -1, 14, 11, 10, 9, -1, -1, -1, 13, -1, -1, -1, 21, 20, 19,
        -1, -1, -1, -1, 28, 27, 26, -1, -1, -1, -1
      ],
      "feature": [
        56, 171, 41, -2, 76, 144, 16, 219, -2, -2, -2, 23, -2, -2, -2, 205, 27,
        214, -2, -2, -2, -2, 136, 11, 126, -2, -2, -2, -2
      ],
      "threshold": [
        0.4538390189409256, 0.14317896962165833, 0.24642472714185715, -2.0,
        0.7026649713516235, 0.5623025596141815, 0.48637571930885315,
        0.679686039686203, -2.0, -2.0, -2.0, 0.5358875393867493, -2.0, -2.0,
        -2.0, 0.1032724566757679, 0.49575871229171753, 0.038104163482785225,
        -2.0, -2.0, -2.0, -2.0, 0.8226048350334167, 0.14863883703947067,
        0.5028270035982132, -2.0, -2.0, -2.0, -2.0
      ],
      "value": [
        [0.41198501872659177, 0.5880149812734082],
        [0.5964912280701754, 0.40350877192982454],
        [0.8245614035087719, 0.17543859649122806],
        [0.0, 1.0],
        [0.8867924528301887, 0.11320754716981132],
        [0.9215686274509803, 0.0784313725490196],
        [0.5625, 0.4375],
        [0.8181818181818182, 0.18181818181818182],
        [0.0, 1.0],
        [1.0, 0.0],
        [0.0, 1.0],
        [0.9883720930232558, 0.011627906976744186],
        [0.6666666666666666, 0.3333333333333333],
        [1.0, 0.0],
        [0.0, 1.0],
        [0.14035087719298245, 0.8596491228070176],
        [0.42105263157894735, 0.5789473684210527],
        [0.8, 0.2],
        [0.3333333333333333, 0.6666666666666666],
        [1.0, 0.0],
        [0.0, 1.0],
        [0.0, 1.0],
        [0.08333333333333333, 0.9166666666666666],
        [0.25806451612903225, 0.7419354838709677],
        [0.7272727272727273, 0.2727272727272727],
        [1.0, 0.0],
        [0.0, 1.0],
        [0.0, 1.0],
        [0.0, 1.0]
      ]
    },
    {
      "children_left": [
        1, -1, 3, 4, 5, 6, 7, 8, 9, -1, -1, -1, -1, 14, -1, -1, 17, 18, 19, -1,
        21, -1, 23, 24, -1, -1, -1, -1, -1, -1, -1
      ],
      "children_right": [
        2, -1, 30, 29, 16, 13, 12, 11, 10, -1, -1, -1, -1, 15, -1, -1, 28, 27,
        20, -1, 22, -1, 26, 25, -1, -1, -1, -1, -1, -1, -1
      ],
      "feature": [
        147, -2, 56, 117, 172, 65, 108, 84, 146, -2, -2, -2, -2, 48, -2, -2,
        105, 91, 71, -2, 119, -2, 175, 205, -2, -2, -2, -2, -2, -2, -2
      ],
      "threshold": [
        0.5612915456295013, -2.0, 0.5097006261348724, 0.7196521461009979,
        0.16605620831251144, 0.190081886947155, 0.43873998522758484,
        0.644545167684555, 0.6124734878540039, -2.0, -2.0, -2.0, -2.0,
        0.3839014321565628, -2.0, -2.0, 0.5579699575901031, 0.4783003330230713,
        0.4488682895898819, -2.0, 0.602587878704071, -2.0, 0.39095538854599,
        0.22391270101070404, -2.0, -2.0, -2.0, -2.0, -2.0, -2.0, -2.0
      ],
      "value": [
        [0.41198501872659177, 0.5880149812734082],
        [0.0, 1.0],
        [0.4888888888888889, 0.5111111111111111],
        [0.5913978494623656, 0.40860215053763443],
        [0.6918238993710691, 0.3081761006289308],
        [0.8791208791208791, 0.12087912087912088],
        [0.9518072289156626, 0.04819277108433735],
        [0.8260869565217391, 0.17391304347826086],
        [0.9047619047619048, 0.09523809523809523],
        [0.3333333333333333, 0.6666666666666666],
        [1.0, 0.0],
        [0.0, 1.0],
        [1.0, 0.0],
        [0.125, 0.875],
        [0.0, 1.0],
        [1.0, 0.0],
        [0.4411764705882353, 0.5588235294117647],
        [0.5357142857142857, 0.4642857142857143],
        [0.6382978723404256, 0.3617021276595745],
        [0.0, 1.0],
        [0.75, 0.25],
        [0.0, 1.0],
        [0.8571428571428571, 0.14285714285714285],
        [0.9666666666666667, 0.03333333333333333],
        [1.0, 0.0],
        [0.0, 1.0],
        [0.2, 0.8],
        [0.0, 1.0],
        [0.0, 1.0],
        [0.0, 1.0],
        [0.0, 1.0]
      ]
    },
    {
      "children_left": [
        1, 2, -1, -1, 5, 6, 7, 8, 9, 10, -1, -1, -1, -1, -1, -1, 17, 18, 19, 20,
        21, -1, 23, 24, 25, -1, -1, -1, -1, -1, -1, -1, -1
      ],
      "children_right": [
        4, 3, -1, -1, 16, 15, 14, 13, 12, 11, -1, -1, -1, -1, -1, -1, 32, 31,
        30, 29, 22, -1, 28, 27, 26, -1, -1, -1, -1, -1, -1, -1, -1
      ],
      "feature": [
        70, 134, -2, -2, 190, 55, 54, 64, 149, 85, -2, -2, -2, -2, -2, -2, 91,
        208, 119, 62, 97, -2, 100, 59, 134, -2, -2, -2, -2, -2, -2, -2, -2
      ],
      "threshold": [
        0.44586318731307983, 0.05115681514143944, -2.0, -2.0,
        0.15473687648773193, 0.8702909350395203, 0.6349051594734192,
        0.4903675615787506, 0.7450493574142456, 0.5601283609867096, -2.0, -2.0,
        -2.0, -2.0, -2.0, -2.0, 0.46738405525684357, 0.18458718061447144,
        0.6765905022621155, 0.5644280016422272, 0.21363111585378647, -2.0,
        0.8612060546875, 0.630075216293335, 0.21724263578653336, -2.0, -2.0,
        -2.0, -2.0, -2.0, -2.0, -2.0, -2.0
      ],
      "value": [
        [0.41198501872659177, 0.5880149812734082],
        [0.013333333333333334, 0.9866666666666667],
        [1.0, 0.0],
        [0.0, 1.0],
        [0.5677083333333334, 0.4322916666666667],
        [0.8301886792452831, 0.16981132075471697],
        [0.9072164948453608, 0.09278350515463918],
        [0.9565217391304348, 0.043478260869565216],
        [0.9777777777777777, 0.022222222222222223],
        [0.9887640449438202, 0.011235955056179775],
        [0.0, 1.0],
        [1.0, 0.0],
        [0.0, 1.0],
        [0.0, 1.0],
        [0.0, 1.0],
        [0.0, 1.0],
        [0.2441860465116279, 0.7558139534883721],
        [0.38181818181818183, 0.6181818181818182],
        [0.5121951219512195, 0.4878048780487805],
        [0.6363636363636364, 0.36363636363636365],
        [0.75, 0.25],
        [0.0, 1.0],
        [0.84, 0.16],
        [0.9130434782608695, 0.08695652173913043],
        [0.9545454545454546, 0.045454545454545456],
        [1.0, 0.0],
        [0.0, 1.0],
        [0.0, 1.0],
        [0.0, 1.0],
        [0.0, 1.0],
        [0.0, 1.0],
        [0.0, 1.0],
        [0.0, 1.0]
      ]
    },
    {
      "children_left": [
        1, 2, -1, -1, 5, 6, 7, -1, -1, 10, 11, 12, 13, -1, 15, -1, 17, 18, -1,
        -1, -1, 22, 23, -1, -1, 26, -1, -1, -1, 30, -1, 32, -1, 34, -1, -1, -1
      ],
      "children_right": [
        4, 3, -1, -1, 36, 9, 8, -1, -1, 29, 28, 21, 14, -1, 16, -1, 20, 19, -1,
        -1, -1, 25, 24, -1, -1, 27, -1, -1, -1, 31, -1, 33, -1, 35, -1, -1, -1
      ],
      "feature": [
        84, 170, -2, -2, 117, 174, 28, -2, -2, 149, 127, 171, 123, -2, 103, -2,
        148, 197, -2, -2, -2, 34, 9, -2, -2, 5, -2, -2, -2, 50, -2, 136, -2,
        211, -2, -2, -2
      ],
      "threshold": [
        0.565777987241745, 0.38212524354457855, -2.0, -2.0, 0.7185126841068268,
        0.06727812439203262, 0.6950985491275787, -2.0, -2.0, 0.7191303968429565,
        0.38487476110458374, 0.14400092512369156, 0.2026906982064247, -2.0,
        0.5001742094755173, -2.0, 0.612697035074234, 0.12165004387497902, -2.0,
        -2.0, -2.0, 0.6052369177341461, 0.48651646077632904, -2.0, -2.0,
        0.4609377384185791, -2.0, -2.0, -2.0, 0.18513648211956024, -2.0,
        0.8192625343799591, -2.0, 0.09382379800081253, -2.0, -2.0, -2.0
      ],
      "value": [
        [0.41198501872659177, 0.5880149812734082],
        [0.014925373134328358, 0.9850746268656716],
        [1.0, 0.0],
        [0.0, 1.0],
        [0.545, 0.455],
        [0.6687116564417178, 0.3312883435582822],
        [0.98, 0.02],
        [1.0, 0.0],
        [0.0, 1.0],
        [0.5309734513274337, 0.4690265486725664],
        [0.6867469879518072, 0.3132530120481928],
        [0.76, 0.24],
        [0.8979591836734694, 0.10204081632653061],
        [0.0, 1.0],
        [0.9565217391304348, 0.043478260869565216],
        [0.0, 1.0],
        [0.9777777777777777, 0.022222222222222223],
        [0.8333333333333334, 0.16666666666666666],
        [0.0, 1.0],
        [1.0, 0.0],
        [1.0, 0.0],
        [0.5, 0.5],
        [0.8571428571428571, 0.14285714285714285],
        [1.0, 0.0],
        [0.6, 0.4],
        [0.08333333333333333, 0.9166666666666666],
        [1.0, 0.0],
        [0.0, 1.0],
        [0.0, 1.0],
        [0.1, 0.9],
        [0.0, 1.0],
        [0.2, 0.8],
        [1.0, 0.0],
        [0.07692307692307693, 0.9230769230769231],
        [1.0, 0.0],
        [0.0, 1.0],
        [0.0, 1.0]
      ]
    },
    {
      "children_left": [
        1, 2, -1, 4, -1, -1, 7, 8, 9, 10, -1, -1, 13, 14, -1, -1, 17, 18, -1,
        -1, 21, -1, -1, 24, 25, 26, -1, 28, -1, -1, -1, -1, -1
      ],
      "children_right": [
        6, 3, -1, 5, -1, -1, 32, 23, 12, 11, -1, -1, 16, 15, -1, -1, 20, 19, -1,
        -1, 22, -1, -1, 31, 30, 27, -1, 29, -1, -1, -1, -1, -1
      ],
      "feature": [
        28, 16, -2, 151, -2, -2, 214, 72, 71, 41, -2, -2, 139, 121, -2, -2, 206,
        134, -2, -2, 168, -2, -2, 136, 64, 92, -2, 187, -2, -2, -2, -2, -2
      ],
      "threshold": [
        0.4583682119846344, 0.4324290454387665, -2.0, 0.4492693692445755, -2.0,
        -2.0, 0.11841249465942383, 0.7165920436382294, 0.4373209774494171,
        0.334495410323143, -2.0, -2.0, 0.6206079423427582, 0.5092118978500366,
        -2.0, -2.0, 0.2070026993751526, 0.20410948991775513, -2.0, -2.0,
        0.5609250962734222, -2.0, -2.0, 0.837304562330246, 0.3371795564889908,
        0.339386910200119, -2.0, 0.3652062714099884, -2.0, -2.0, -2.0, -2.0,
        -2.0
      ],
      "value": [
        [0.41198501872659177, 0.5880149812734082],
        [0.01818181818181818, 0.9818181818181818],
        [0.0, 1.0],
        [0.125, 0.875],
        [1.0, 0.0],
        [0.0, 1.0],
        [0.5141509433962265, 0.4858490566037736],
        [0.6566265060240963, 0.3433734939759036],
        [0.8807339449541285, 0.11926605504587157],
        [0.16666666666666666, 0.8333333333333334],
        [0.0, 1.0],
        [1.0, 0.0],
        [0.9223300970873787, 0.07766990291262135],
        [0.987012987012987, 0.012987012987012988],
        [1.0, 0.0],
        [0.0, 1.0],
        [0.7307692307692307, 0.2692307692307692],
        [0.9444444444444444, 0.05555555555555555],
        [1.0, 0.0],
        [0.0, 1.0],
        [0.25, 0.75],
        [0.0, 1.0],
        [1.0, 0.0],
        [0.22807017543859648, 0.7719298245614035],
        [0.5, 0.5],
        [0.7222222222222222, 0.2777777777777778],
        [1.0, 0.0],
        [0.375, 0.625],
        [0.0, 1.0],
        [1.0, 0.0],
        [0.0, 1.0],
        [0.0, 1.0],
        [0.0, 1.0]
      ]
    }
  ]
}
