{"params": {"bootstrap": true, "criterion": "entropy", "max_depth": null, "min_samples_leaf": 2, "min_samples_split": 4, "n_estimators": 50}, "classes": ["correct", "incorrect"], "forest": [{"children_left": [1, 2, 3, 4, 5, -1, -1, -1, 9, -1, 11, -1, -1, -1, -1], "children_right": [14, 13, 8, 7, 6, -1, -1, -1, 10, -1, 12, -1, -1, -1, -1], "feature": [47, 23, 50, 16, 45, -2, -2, -2, 47, -2, 26, -2, -2, -2, -2], "threshold": [0.20142249763011932, 0.43029990792274475, 0.08561887219548225, 0.1437903642654419, 0.5834116041660309, -2.0, -2.0, -2.0, 0.10415021702647209, -2.0, 0.12322516739368439, -2.0, -2.0, -2.0, -2.0], "value": [[0.5958549222797928, 0.40414507772020725], [0.777027027027027, 0.22297297297297297], [0.8712121212121212, 0.12878787878787878], [0.9819819819819819, 0.018018018018018018], [0.9908256880733946, 0.009174311926605505], [1.0, 0.0], [0.6666666666666666, 0.3333333333333333], [0.5, 0.5], [0.2857142857142857, 0.7142857142857143], [1.0, 0.0], [0.11764705882352941, 0.8823529411764706], [1.0, 0.0], [0.0, 1.0], [0.0, 1.0], [0.0, 1.0]]}, {"children_left": [1, 2, 3, -1, 5, 6, 7, 8, -1, -1, 11, -1, -1, 14, -1, -1, 17, -1, 19, -1, -1, -1, -1], "children_right": [22, 21, 4, -1, 16, 13, 10, 9, -1, -1, 12, -1, -1, 15, -1, -1, 18, -1, 20, -1, -1, -1, -1], "feature": [8, 41, 9, -2, 11, 44, 7, 48, -2, -2, 30, -2, -2, 31, -2, -2, 30, -2, 14, -2, -2, -2, -2], "threshold": [0.264040932059288, 0.14957084506750107, 0.07176212221384048, -2.0, 0.3493379056453705, 0.18244105577468872, 0.1268421784043312, 0.2818572670221329, -2.0, -2.0, 0.5728228986263275, -2.0, -2.0, 0.08685944229364395, -2.0, -2.0, 0.6395536363124847, -2.0, 0.2139546349644661, -2.0, -2.0, -2.0, -2.0], "value": [[0.5699481865284974, 0.43005181347150256], [0.7586206896551724, 0.2413793103448276], [0.8270676691729323, 0.17293233082706766], [1.0, 0.0], [0.7386363636363636, 0.26136363636363635], [0.5882352941176471, 0.4117647058823529], [0.7073170731707317, 0.2926829268292683], [0.9, 0.1], [0.25, 0.75], [1.0, 0.0], [0.18181818181818182, 0.8181818181818182], [0.6666666666666666, 0.3333333333333333], [0.0, 1.0], [0.1, 0.9], [0.0, 1.0], [0.5, 0.5], [0.9459459459459459, 0.05405405405405406], [1.0, 0.0], [0.8, 0.2], [0.0, 1.0], [1.0, 0.0], [0.0, 1.0], [0.0, 1.0]]}, {"children_left": [1, 2, 3, 4, -1, 6, -1, -1, 9, 10, -1, -1, 13, -1, -1, 16, 17, 18, -1, -1, -1, -1, -1], "children_right": [22, 15, 8, 5, -1, 7, -1, -1, 12, 11, -1, -1, 14, -1, -1, 21, 20, 19, -1, -1, -1, -1, -1], "feature": [41, 50, 50, 6, -2, 19, -2, -2, 35, 37, -2, -2, 4, -2, -2, 26, 37, 38, -2, -2, -2, -2, -2], "threshold": [0.14758887141942978, 0.08323546499013901, 0.05293609760701656, 0.49507127702236176, -2.0, 0.11058882251381874, -2.0, -2.0, 0.5379787385463715, 0.43541400134563446, -2.0, -2.0, 0.562875509262085, -2.0, -2.0, 0.17260702699422836, 0.5316561758518219, 0.5421209931373596, -2.0, -2.0, -2.0, -2.0, -2.0], "value": [[0.5854922279792746, 0.41450777202072536], [0.8071428571428572, 0.19285714285714287], [0.9380530973451328, 0.061946902654867256], [0.9868421052631579, 0.013157894736842105], [1.0, 0.0], [0.8888888888888888, 0.1111111111111111], [1.0, 0.0], [0.5, 0.5], [0.8378378378378378, 0.16216216216216217], [0.25, 0.75], [0.0, 1.0], [0.5, 0.5], [0.9090909090909091, 0.09090909090909091], [0.0, 1.0], [1.0, 0.0], [0.25925925925925924, 0.7407407407407407], [0.6363636363636364, 0.36363636363636365], [0.875, 0.125], [0.5, 0.5], [1.0, 0.0], [0.0, 1.0], [0.0, 1.0], [0.0, 1.0]]}, {"children_left": [1, 2, 3, -1, 5, -1, -1, 8, 9, 10, 11, -1, -1, 14, -1, -1, -1, -1, 19, 20, -1, -1, -1], "children_right": [18, 7, 4, -1, 6, -1, -1, 17, 16, 13, 12, -1, -1, 15, -1, -1, -1, -1, 22, 21, -1, -1, -1], "feature": [8, 23, 33, -2, 40, -2, -2, 50, 44, 47, 32, -2, -2, 1, -2, -2, -2, -2, 44, 24, -2, -2, -2], "threshold": [0.2162567898631096, 0.32780399918556213, 0.09397575631737709, -2.0, 0.5750123858451843, -2.0, -2.0, 0.12029922381043434, 0.1826086863875389, 0.18984410166740417, 0.2649793475866318, -2.0, -2.0, 0.532820850610733, -2.0, -2.0, -2.0, -2.0, 0.1425987109541893, 0.31415197253227234, -2.0, -2.0, -2.0], "value": [[0.5647668393782384, 0.43523316062176165], [0.7794117647058824, 0.22058823529411764], [0.9324324324324325, 0.06756756756756757], [0.0, 1.0], [0.971830985915493, 0.028169014084507043], [1.0, 0.0], [0.6, 0.4], [0.5967741935483871, 0.4032258064516129], [0.6981132075471698, 0.3018867924528302], [0.7872340425531915, 0.2127659574468085], [0.972972972972973, 0.02702702702702703], [0.5, 0.5], [1.0, 0.0], [0.1, 0.9], [0.0, 1.0], [0.5, 0.5], [0.0, 1.0], [0.0, 1.0], [0.05263157894736842, 0.9473684210526315], [0.5, 0.5], [1.0, 0.0], [0.0, 1.0], [0.0, 1.0]]}, {"children_left": [1, 2, -1, 4, -1, -1, 7, 8, 9, 10, 11, -1, -1, 14, -1, 16, -1, 18, -1, 20, -1, -1, 23, -1, -1, -1, -1], "children_right": [6, 3, -1, 5, -1, -1, 26, 25, 22, 13, 12, -1, -1, 15, -1, 17, -1, 19, -1, 21, -1, -1, 24, -1, -1, -1, -1], "feature": [7, 27, -2, 1, -2, -2, 53, 31, 16, 49, 38, -2, -2, 30, -2, 42, -2, 29, -2, 17, -2, -2, 1, -2, -2, -2, -2], "threshold": [0.08198703452944756, 0.10910007730126381, -2.0, 0.527399092912674, -2.0, -2.0, 0.5827979743480682, 0.15859655290842056, 0.08312930166721344, 0.19158075004816055, 0.5227597057819366, -2.0, -2.0, 0.573634922504425, -2.0, 0.2586270123720169, -2.0, 0.10556013137102127, -2.0, 0.2637907564640045, -2.0, -2.0, 0.52642422914505, -2.0, -2.0, -2.0, -2.0], "value": [[0.5284974093264249, 0.47150259067357514], [0.9523809523809523, 0.047619047619047616], [1.0, 0.0], [0.6666666666666666, 0.3333333333333333], [0.0, 1.0], [1.0, 0.0], [0.3230769230769231, 0.676923076923077], [0.4827586206896552, 0.5172413793103449], [0.6363636363636364, 0.36363636363636365], [0.5490196078431373, 0.45098039215686275], [0.9444444444444444, 0.05555555555555555], [0.5, 0.5], [1.0, 0.0], [0.3333333333333333, 0.6666666666666666], [1.0, 0.0], [0.2413793103448276, 0.7586206896551724], [0.0, 1.0], [0.4666666666666667, 0.5333333333333333], [0.0, 1.0], [0.875, 0.125], [1.0, 0.0], [0.6666666666666666, 0.3333333333333333], [0.9333333333333333, 0.06666666666666667], [0.5, 0.5], [1.0, 0.0], [0.0, 1.0], [0.0, 1.0]]}, {"children_left": [1, 2, 3, 4, -1, -1, 7, 8, -1, 10, 11, -1, -1, 14, -1, -1, -1, -1, -1], "children_right": [18, 17, 6, 5, -1, -1, 16, 9, -1, 13, 12, -1, -1, 15, -1, -1, -1, -1, -1], "feature": [27, 19, 8, 41, -2, -2, 44, 50, -2, 52, 45, -2, -2, 3, -2, -2, -2, -2, -2], "threshold": [0.23392044752836227, 0.14479834586381912, 0.15298713743686676, 0.11838467419147491, -2.0, -2.0, 0.17829833179712296, 0.03928573988378048, -2.0, 0.685285896062851, 0.4899136424064636, -2.0, -2.0, 0.5605141520500183, -2.0, -2.0, -2.0, -2.0, -2.0], "value": [[0.5647668393782384, 0.43523316062176165], [0.7266666666666667, 0.2733333333333333], [0.7956204379562044, 0.20437956204379562], [0.9487179487179487, 0.05128205128205128], [1.0, 0.0], [0.2, 0.8], [0.5932203389830508, 0.4067796610169492], [0.7446808510638298, 0.2553191489361702], [0.0, 1.0], [0.875, 0.125], [0.3333333333333333, 0.6666666666666666], [1.0, 0.0], [0.0, 1.0], [0.9705882352941176, 0.029411764705882353], [1.0, 0.0], [0.5, 0.5], [0.0, 1.0], [0.0, 1.0], [0.0, 1.0]]}, {"children_left": [1, 2, 3, 4, 5, -1, -1, 8, 9, 10, -1, 12, -1, -1, 15, 16, -1, -1, 19, -1, -1, -1, -1, 24, -1, -1, -1], "children_right": [26, 23, 22, 7, 6, -1, -1, 21, 14, 11, -1, 13, -1, -1, 18, 17, -1, -1, 20, -1, -1, -1, -1, 25, -1, -1, -1], "feature": [19, 31, 11, 8, 18, -2, -2, 44, 3, 31, -2, 6, -2, -2, 36, 15, -2, -2, 23, -2, -2, -2, -2, 37, -2, -2, -2], "threshold": [0.14509554207324982, 0.129189170897007, 0.4099152386188507, 0.13048935681581497, 0.29811611771583557, -2.0, -2.0, 0.18458718061447144, 0.538016140460968, 0.11929497122764587, -2.0, 0.4524971693754196, -2.0, -2.0, 0.6774638891220093, 0.4841869920492172, -2.0, -2.0, 0.3206753730773926, -2.0, -2.0, -2.0, -2.0, 0.5323230028152466, -2.0, -2.0, -2.0], "value": [[0.5647668393782384, 0.43523316062176165], [0.7266666666666667, 0.2733333333333333], [0.8120300751879699, 0.18796992481203006], [0.84375, 0.15625], [0.9827586206896551, 0.017241379310344827], [1.0, 0.0], [0.5, 0.5], [0.7285714285714285, 0.2714285714285714], [0.8793103448275862, 0.1206896551724138], [0.9777777777777777, 0.022222222222222223], [1.0, 0.0], [0.8571428571428571, 0.14285714285714285], [0.6666666666666666, 0.3333333333333333], [1.0, 0.0], [0.5384615384615384, 0.46153846153846156], [0.16666666666666666, 0.8333333333333334], [0.5, 0.5], [0.0, 1.0], [0.8571428571428571, 0.14285714285714285], [0.5, 0.5], [1.0, 0.0], [0.0, 1.0], [0.0, 1.0], [0.058823529411764705, 0.9411764705882353], [0.0, 1.0], [0.5, 0.5], [0.0, 1.0]]}, {"children_left": [1, 2, 3, 4, 5, -1, 7, -1, -1, 10, -1, 12, -1, -1, 15, 16, -1, -1, 19, -1, -1, -1, 23, 24, -1, -1, -1], "children_right": [22, 21, 14, 9, 6, -1, 8, -1, -1, 11, -1, 13, -1, -1, 18, 17, -1, -1, 20, -1, -1, -1, 26, 25, -1, -1, -1], "feature": [50, 11, 41, 34, 27, -2, 13, -2, -2, 39, -2, 39, -2, -2, 10, 51, -2, -2, 37, -2, -2, -2, 8, 46, -2, -2, -2], "threshold": [0.09456850960850716, 0.45281553268432617, 0.0989748053252697, 0.019412093795835972, 0.11117415130138397, -2.0, 0.2908359169960022, -2.0, -2.0, 0.5449249744415283, -2.0, 0.5511705577373505, -2.0, -2.0, 0.09679017588496208, 0.5567466020584106, -2.0, -2.0, 0.44952794909477234, -2.0, -2.0, -2.0, 0.18218944221735, 0.6779591739177704, -2.0, -2.0, -2.0], "value": [[0.538860103626943, 0.46113989637305697], [0.816, 0.184], [0.8571428571428571, 0.14285714285714285], [0.9142857142857143, 0.08571428571428572], [0.7, 0.3], [1.0, 0.0], [0.3333333333333333, 0.6666666666666666], [0.0, 1.0], [1.0, 0.0], [0.9647058823529412, 0.03529411764705882], [1.0, 0.0], [0.8695652173913043, 0.13043478260869565], [0.0, 1.0], [1.0, 0.0], [0.42857142857142855, 0.5714285714285714], [0.8333333333333334, 0.16666666666666666], [1.0, 0.0], [0.5, 0.5], [0.125, 0.875], [0.3333333333333333, 0.6666666666666666], [0.0, 1.0], [0.0, 1.0], [0.029411764705882353, 0.9705882352941176], [0.3333333333333333, 0.6666666666666666], [0.0, 1.0], [0.6666666666666666, 0.3333333333333333], [0.0, 1.0]]}, {"children_left": [1, 2, 3, -1, 5, 6, 7, -1, 9, -1, 11, -1, -1, -1, 15, 16, -1, -1, -1, 20, -1, -1, -1], "children_right": [22, 19, 4, -1, 14, 13, 8, -1, 10, -1, 12, -1, -1, -1, 18, 17, -1, -1, -1, 21, -1, -1, -1], "feature": [41, 8, 23, -2, 10, 22, 19, -2, 47, -2, 10, -2, -2, -2, 48, 27, -2, -2, -2, 37, -2, -2, -2], "threshold": [0.1475643515586853, 0.2550760954618454, 0.330965980887413, -2.0, 0.13147570192813873, 0.21109550446271896, 0.09532198309898376, -2.0, 0.12711936980485916, -2.0, 0.08764518797397614, -2.0, -2.0, -2.0, 0.3670739084482193, 0.18753774464130402, -2.0, -2.0, -2.0, 0.5392416417598724, -2.0, -2.0, -2.0], "value": [[0.616580310880829, 0.38341968911917096], [0.7828947368421053, 0.21710526315789475], [0.8613138686131386, 0.1386861313868613], [1.0, 0.0], [0.7205882352941176, 0.27941176470588236], [0.5277777777777778, 0.4722222222222222], [0.6333333333333333, 0.36666666666666664], [1.0, 0.0], [0.3888888888888889, 0.6111111111111112], [0.0, 1.0], [0.875, 0.125], [1.0, 0.0], [0.5, 0.5], [0.0, 1.0], [0.9375, 0.0625], [0.7142857142857143, 0.2857142857142857], [1.0, 0.0], [0.3333333333333333, 0.6666666666666666], [1.0, 0.0], [0.06666666666666667, 0.9333333333333333], [0.0, 1.0], [0.5, 0.5], [0.0, 1.0]]}, {"children_left": [1, 2, 3, -1, 5, -1, 7, -1, -1, -1, 11, 12, 13, 14, -1, 16, -1, -1, -1, -1, 21, -1, -1], "children_right": [10, 9, 4, -1, 6, -1, 8, -1, -1, -1, 20, 19, 18, 15, -1, 17, -1, -1, -1, -1, 22, -1, -1], "feature": [7, 34, 27, -2, 44, -2, 0, -2, -2, -2, 47, 27, 50, 21, -2, 51, -2, -2, -2, -2, 41, -2, -2], "threshold": [0.12287774309515953, 0.12339825555682182, 0.11196640133857727, -2.0, 0.1698862835764885, -2.0, 0.6758003830909729, -2.0, -2.0, -2.0, 0.19034967571496964, 0.23809149116277695, 0.1069161482155323, 0.638446569442749, -2.0, 0.5936052799224854, -2.0, -2.0, -2.0, -2.0, 0.12027240917086601, -2.0, -2.0], "value": [[0.538860103626943, 0.46113989637305697], [0.9397590361445783, 0.060240963855421686], [0.975, 0.025], [1.0, 0.0], [0.9, 0.1], [1.0, 0.0], [0.6, 0.4], [0.0, 1.0], [1.0, 0.0], [0.0, 1.0], [0.23636363636363636, 0.7636363636363637], [0.5102040816326531, 0.4897959183673469], [0.6944444444444444, 0.3055555555555556], [0.8620689655172413, 0.13793103448275862], [1.0, 0.0], [0.6923076923076923, 0.3076923076923077], [0.0, 1.0], [1.0, 0.0], [0.0, 1.0], [0.0, 1.0], [0.01639344262295082, 0.9836065573770492], [0.5, 0.5], [0.0, 1.0]]}, {"children_left": [1, 2, 3, 4, -1, 6, 7, 8, -1, -1, -1, -1, 13, -1, -1, 16, -1, -1, 19, -1, -1], "children_right": [18, 15, 12, 5, -1, 11, 10, 9, -1, -1, -1, -1, 14, -1, -1, 17, -1, -1, 20, -1, -1], "feature": [47, 49, 44, 8, -2, 52, 3, 4, -2, -2, -2, -2, 26, -2, -2, 36, -2, -2, 32, -2, -2], "threshold": [0.19060292094945908, 0.31501834094524384, 0.18458718061447144, 0.14793181419372559, -2.0, 0.7078955769538879, 0.5355960726737976, 0.5523383617401123, -2.0, -2.0, -2.0, -2.0, 0.14126147329807281, -2.0, -2.0, 0.6564564108848572, -2.0, -2.0, 0.2877510339021683, -2.0, -2.0], "value": [[0.5233160621761658, 0.47668393782383417], [0.704225352112676, 0.29577464788732394], [0.8434782608695652, 0.1565217391304348], [0.9368421052631579, 0.06315789473684211], [1.0, 0.0], [0.8536585365853658, 0.14634146341463414], [0.5714285714285714, 0.42857142857142855], [0.8888888888888888, 0.1111111111111111], [0.5, 0.5], [1.0, 0.0], [0.0, 1.0], [1.0, 0.0], [0.4, 0.6], [1.0, 0.0], [0.0, 1.0], [0.1111111111111111, 0.8888888888888888], [1.0, 0.0], [0.0, 1.0], [0.0196078431372549, 0.9803921568627451], [0.5, 0.5], [0.0, 1.0]]}, {"children_left": [1, 2, 3, 4, -1, 6, 7, -1, 9, 10, -1, -1, -1, -1, 15, -1, 17, -1, 19, -1, -1, -1, 23, 24, -1, -1, -1], "children_right": [22, 21, 14, 5, -1, 13, 8, -1, 12, 11, -1, -1, -1, -1, 16, -1, 18, -1, 20, -1, -1, -1, 26, 25, -1, -1, -1], "feature": [31, 44, 7, 29, -2, 16, 5, -2, 37, 5, -2, -2, -2, -2, 20, -2, 20, -2, 32, -2, -2, -2, 27, 54, -2, -2, -2], "threshold": [0.12856145203113556, 0.1922907754778862, 0.1317310333251953, 0.08586705848574638, -2.0, 0.0908389687538147, 0.5027492642402649, -2.0, 0.5491416752338409, 0.5112083554267883, -2.0, -2.0, -2.0, -2.0, 0.46122772991657257, -2.0, 0.49382467567920685, -2.0, 0.36498111486434937, -2.0, -2.0, -2.0, 0.20547930896282196, 0.5514609813690186, -2.0, -2.0, -2.0], "value": [[0.6062176165803109, 0.39378238341968913], [0.8169014084507042, 0.18309859154929578], [0.8992248062015504, 0.10077519379844961], [0.9622641509433962, 0.03773584905660377], [1.0, 0.0], [0.8857142857142857, 0.11428571428571428], [0.8, 0.2], [1.0, 0.0], [0.42857142857142855, 0.5714285714285714], [0.2, 0.8], [0.5, 0.5], [0.0, 1.0], [1.0, 0.0], [1.0, 0.0], [0.6086956521739131, 0.391304347826087], [1.0, 0.0], [0.4, 0.6], [0.0, 1.0], [0.75, 0.25], [0.0, 1.0], [1.0, 0.0], [0.0, 1.0], [0.0196078431372549, 0.9803921568627451], [0.058823529411764705, 0.9411764705882353], [0.0, 1.0], [0.3333333333333333, 0.6666666666666666], [0.0, 1.0]]}, {"children_left": [1, 2, 3, 4, 5, -1, 7, -1, -1, 10, -1, -1, 13, 14, -1, -1, -1, -1, -1], "children_right": [18, 17, 12, 9, 6, -1, 8, -1, -1, 11, -1, -1, 16, 15, -1, -1, -1, -1, -1], "feature": [27, 41, 50, 47, 49, -2, 19, -2, -2, 9, -2, -2, 55, 11, -2, -2, -2, -2, -2], "threshold": [0.23392044752836227, 0.14758887141942978, 0.08542657643556595, 0.1903959885239601, 0.23121020942926407, -2.0, 0.10469326376914978, -2.0, -2.0, 0.09631189331412315, -2.0, -2.0, 0.7711849212646484, 0.32451361417770386, -2.0, -2.0, -2.0, -2.0, -2.0], "value": [[0.5751295336787565, 0.42487046632124353], [0.7708333333333334, 0.22916666666666666], [0.8604651162790697, 0.13953488372093023], [0.9459459459459459, 0.05405405405405406], [0.9716981132075472, 0.02830188679245283], [1.0, 0.0], [0.875, 0.125], [1.0, 0.0], [0.0, 1.0], [0.4, 0.6], [0.6666666666666666, 0.3333333333333333], [0.0, 1.0], [0.3333333333333333, 0.6666666666666666], [0.2, 0.8], [1.0, 0.0], [0.0, 1.0], [1.0, 0.0], [0.0, 1.0], [0.0, 1.0]]}, {"children_left": [1, 2, 3, -1, 5, -1, 7, 8, 9, 10, -1, -1, -1, 14, -1, -1, -1, -1, 19, -1, -1], "children_right": [18, 17, 4, -1, 6, -1, 16, 13, 12, 11, -1, -1, -1, 15, -1, -1, -1, -1, 20, -1, -1], "feature": [44, 24, 25, -2, 29, -2, 25, 27, 23, 28, -2, -2, -2, 18, -2, -2, -2, -2, 11, -2, -2], "threshold": [0.1922907754778862, 0.24378028512001038, 0.24499032646417618, -2.0, 0.08636956289410591, -2.0, 0.296994686126709, 0.1354963555932045, 0.329659178853035, 0.09381340071558952, -2.0, -2.0, -2.0, 0.332993745803833, -2.0, -2.0, -2.0, -2.0, 0.3357851952314377, -2.0, -2.0], "value": [[0.5440414507772021, 0.45595854922279794], [0.8, 0.2], [0.8666666666666667, 0.13333333333333333], [1.0, 0.0], [0.8048780487804879, 0.1951219512195122], [1.0, 0.0], [0.7241379310344828, 0.27586206896551724], [0.5151515151515151, 0.48484848484848486], [0.8, 0.2], [0.4, 0.6], [1.0, 0.0], [0.0, 1.0], [1.0, 0.0], [0.2777777777777778, 0.7222222222222222], [0.0, 1.0], [1.0, 0.0], [1.0, 0.0], [0.0, 1.0], [0.015873015873015872, 0.9841269841269841], [0.5, 0.5], [0.0, 1.0]]}, {"children_left": [1, 2, 3, -1, 5, -1, -1, 8, 9, 10, 11, 12, 13, -1, -1, -1, 17, 18, -1, -1, -1, -1, -1, -1, -1], "children_right": [24, 7, 4, -1, 6, -1, -1, 23, 22, 21, 16, 15, 14, -1, -1, -1, 20, 19, -1, -1, -1, -1, -1, -1, -1], "feature": [34, 8, 1, -2, 33, -2, -2, 11, 47, 48, 34, 50, 39, -2, -2, -2, 45, 46, -2, -2, -2, -2, -2, -2, -2], "threshold": [0.10137755051255226, 0.14089322090148926, 0.5146957039833069, -2.0, 0.18434897810220718, -2.0, -2.0, 0.41668878495693207, 0.204755961894989, 0.4941989630460739, 0.0490749292075634, 0.05460444651544094, 0.5291202068328857, -2.0, -2.0, -2.0, 0.5016492009162903, 0.6356445848941803, -2.0, -2.0, -2.0, -2.0, -2.0, -2.0, -2.0], "value": [[0.6269430051813472, 0.37305699481865284], [0.7857142857142857, 0.21428571428571427], [0.9583333333333334, 0.041666666666666664], [0.3333333333333333, 0.6666666666666666], [0.9855072463768116, 0.014492753623188406], [1.0, 0.0], [0.5, 0.5], [0.6341463414634146, 0.36585365853658536], [0.6842105263157895, 0.3157894736842105], [0.7761194029850746, 0.22388059701492538], [0.8, 0.2], [0.4375, 0.5625], [0.875, 0.125], [1.0, 0.0], [0.5, 0.5], [0.0, 1.0], [0.9183673469387755, 0.08163265306122448], [0.6923076923076923, 0.3076923076923077], [1.0, 0.0], [0.0, 1.0], [1.0, 0.0], [0.0, 1.0], [0.0, 1.0], [0.0, 1.0], [0.0, 1.0]]}, {"children_left": [1, 2, 3, -1, 5, 6, 7, 8, -1, 10, -1, -1, 13, -1, -1, 16, -1, 18, 19, 20, 21, -1, -1, -1, -1, -1, -1, 28, -1, -1, -1], "children_right": [30, 27, 4, -1, 26, 15, 12, 9, -1, 11, -1, -1, 14, -1, -1, 17, -1, 25, 24, 23, 22, -1, -1, -1, -1, -1, -1, 29, -1, -1, -1], "feature": [34, 26, 10, -2, 19, 34, 55, 34, -2, 38, -2, -2, 22, -2, -2, 30, -2, 39, 13, 26, 40, -2, -2, -2, -2, -2, -2, 7, -2, -2, -2], "threshold": [0.10059837624430656, 0.2292359098792076, 0.06832271069288254, -2.0, 0.1311298981308937, 0.05326061323285103, 0.6986180543899536, 0.013075402937829494, -2.0, 0.5536181926727295, -2.0, -2.0, 0.1505824625492096, -2.0, -2.0, 0.5992279350757599, -2.0, 0.46824437379837036, 0.28206248581409454, 0.13041656836867332, 0.5195959210395813, -2.0, -2.0, -2.0, -2.0, -2.0, -2.0, 0.21247251331806183, -2.0, -2.0, -2.0], "value": [[0.6113989637305699, 0.38860103626943004], [0.7515923566878981, 0.2484076433121019], [0.8478260869565217, 0.15217391304347827], [1.0, 0.0], [0.7558139534883721, 0.2441860465116279], [0.8125, 0.1875], [0.6, 0.4], [0.35714285714285715, 0.6428571428571429], [1.0, 0.0], [0.1, 0.9], [0.3333333333333333, 0.6666666666666666], [0.0, 1.0], [0.9090909090909091, 0.09090909090909091], [1.0, 0.0], [0.5, 0.5], [0.9090909090909091, 0.09090909090909091], [1.0, 0.0], [0.8333333333333334, 0.16666666666666666], [0.5454545454545454, 0.45454545454545453], [0.375, 0.625], [0.6, 0.4], [0.3333333333333333, 0.6666666666666666], [1.0, 0.0], [0.0, 1.0], [1.0, 0.0], [1.0, 0.0], [0.0, 1.0], [0.05263157894736842, 0.9473684210526315], [0.5, 0.5], [0.0, 1.0], [0.0, 1.0]]}, {"children_left": [1, 2, -1, 4, 5, 6, 7, -1, -1, 10, 11, -1, -1, -1, -1, 16, -1, 18, -1, 20, 21, -1, -1, -1, -1], "children_right": [24, 3, -1, 15, 14, 9, 8, -1, -1, 13, 12, -1, -1, -1, -1, 17, -1, 19, -1, 23, 22, -1, -1, -1, -1], "feature": [50, 25, -2, 14, 54, 42, 24, -2, -2, 47, 3, -2, -2, -2, -2, 52, -2, 8, -2, 26, 25, -2, -2, -2, -2], "threshold": [0.11841249465942383, 0.23574843257665634, -2.0, 0.19624638557434082, 0.509108304977417, 0.22146086394786835, 0.19619667530059814, -2.0, -2.0, 0.19112031906843185, 0.5252842903137207, -2.0, -2.0, -2.0, -2.0, 0.6777777075767517, -2.0, 0.13908123224973679, -2.0, 0.16441607475280762, 0.2674013376235962, -2.0, -2.0, -2.0, -2.0], "value": [[0.5699481865284974, 0.43005181347150256], [0.8148148148148148, 0.18518518518518517], [1.0, 0.0], [0.7619047619047619, 0.23809523809523808], [0.9054054054054054, 0.0945945945945946], [0.8333333333333334, 0.16666666666666666], [0.96875, 0.03125], [1.0, 0.0], [0.5, 0.5], [0.4, 0.6], [0.8, 0.2], [1.0, 0.0], [0.5, 0.5], [0.0, 1.0], [1.0, 0.0], [0.41935483870967744, 0.5806451612903226], [0.0, 1.0], [0.5416666666666666, 0.4583333333333333], [1.0, 0.0], [0.35294117647058826, 0.6470588235294118], [0.6666666666666666, 0.3333333333333333], [0.0, 1.0], [1.0, 0.0], [0.0, 1.0], [0.0, 1.0]]}, {"children_left": [1, 2, 3, -1, 5, -1, 7, 8, 9, -1, 11, 12, -1, -1, -1, -1, -1, 18, -1, -1, -1], "children_right": [20, 17, 4, -1, 6, -1, 16, 15, 10, -1, 14, 13, -1, -1, -1, -1, -1, 19, -1, -1, -1], "feature": [47, 8, 13, -2, 27, -2, 19, 32, 7, -2, 45, 40, -2, -2, -2, -2, -2, 47, -2, -2, -2], "threshold": [0.204755961894989, 0.23964032530784607, 0.2581067830324173, -2.0, 0.11149319633841515, -2.0, 0.12491368502378464, 0.3449716717004776, 0.06896749138832092, -2.0, 0.5605218410491943, 0.5179815590381622, -2.0, -2.0, -2.0, -2.0, -2.0, 0.17052381485700607, -2.0, -2.0, -2.0], "value": [[0.6010362694300518, 0.39896373056994816], [0.7295597484276729, 0.27044025157232704], [0.8582089552238806, 0.1417910447761194], [1.0, 0.0], [0.7466666666666667, 0.25333333333333335], [1.0, 0.0], [0.5869565217391305, 0.41304347826086957], [0.7714285714285715, 0.22857142857142856], [0.6, 0.4], [0.0, 1.0], [0.75, 0.25], [0.9166666666666666, 0.08333333333333333], [0.5, 0.5], [1.0, 0.0], [0.25, 0.75], [1.0, 0.0], [0.0, 1.0], [0.04, 0.96], [0.0, 1.0], [0.3333333333333333, 0.6666666666666666], [0.0, 1.0]]}, {"children_left": [1, 2, -1, 4, -1, 6, 7, 8, 9, -1, -1, -1, 13, 14, -1, 16, -1, -1, 19, -1, -1, -1, -1], "children_right": [22, 3, -1, 5, -1, 21, 12, 11, 10, -1, -1, -1, 18, 15, -1, 17, -1, -1, 20, -1, -1, -1, -1], "feature": [34, 10, -2, 36, -2, 22, 19, 1, 41, -2, -2, -2, 4, 8, -2, 13, -2, -2, 2, -2, -2, -2, -2], "threshold": [0.10130124539136887, 0.06893044710159302, -2.0, 0.5975561439990997, -2.0, 0.262657105922699, 0.09984386339783669, 0.5456455945968628, 0.12872987985610962, -2.0, -2.0, -2.0, 0.5825077593326569, 0.17194126546382904, -2.0, 0.29263508319854736, -2.0, -2.0, 0.6318528354167938, -2.0, -2.0, -2.0, -2.0], "value": [[0.694300518134715, 0.30569948186528495], [0.8271604938271605, 0.1728395061728395], [1.0, 0.0], [0.711340206185567, 0.28865979381443296], [0.0, 1.0], [0.7931034482758621, 0.20689655172413793], [0.8414634146341463, 0.15853658536585366], [0.9649122807017544, 0.03508771929824561], [0.9090909090909091, 0.09090909090909091], [1.0, 0.0], [0.0, 1.0], [1.0, 0.0], [0.56, 0.44], [0.16666666666666666, 0.8333333333333334], [0.0, 1.0], [0.4, 0.6], [1.0, 0.0], [0.0, 1.0], [0.9230769230769231, 0.07692307692307693], [1.0, 0.0], [0.5, 0.5], [0.0, 1.0], [0.0, 1.0]]}, {"children_left": [1, 2, 3, 4, -1, 6, 7, -1, -1, 10, -1, -1, 13, -1, 15, -1, 17, 18, -1, -1, -1, -1, -1], "children_right": [22, 21, 12, 5, -1, 9, 8, -1, -1, 11, -1, -1, 14, -1, 16, -1, 20, 19, -1, -1, -1, -1, -1], "feature": [44, 24, 41, 48, -2, 13, 38, -2, -2, 32, -2, -2, 25, -2, 23, -2, 52, 8, -2, -2, -2, -2, -2], "threshold": [0.20529883354902267, 0.2471446767449379, 0.0989748053252697, 0.3619336187839508, -2.0, 0.29111120104789734, 0.5985948741436005, -2.0, -2.0, 0.34199953079223633, -2.0, -2.0, 0.2425255849957466, -2.0, 0.3397793620824814, -2.0, 0.7167871296405792, 0.1857496276497841, -2.0, -2.0, -2.0, -2.0, -2.0], "value": [[0.5906735751295337, 0.40932642487046633], [0.8028169014084507, 0.19718309859154928], [0.8702290076335878, 0.1297709923664122], [0.9523809523809523, 0.047619047619047616], [1.0, 0.0], [0.7916666666666666, 0.20833333333333334], [0.5555555555555556, 0.4444444444444444], [1.0, 0.0], [0.0, 1.0], [0.9333333333333333, 0.06666666666666667], [0.5, 0.5], [1.0, 0.0], [0.5384615384615384, 0.46153846153846156], [1.0, 0.0], [0.4, 0.6], [0.0, 1.0], [0.7272727272727273, 0.2727272727272727], [0.25, 0.75], [0.5, 0.5], [0.0, 1.0], [1.0, 0.0], [0.0, 1.0], [0.0, 1.0]]}, {"children_left": [1, 2, 3, -1, -1, 6, 7, -1, -1, 10, 11, 12, -1, -1, 15, 16, -1, 18, -1, -1, 21, -1, -1, -1, -1], "children_right": [24, 5, 4, -1, -1, 9, 8, -1, -1, 23, 14, 13, -1, -1, 20, 17, -1, 19, -1, -1, 22, -1, -1, -1, -1], "feature": [19, 29, 26, -2, -2, 14, 27, -2, -2, 31, 9, 6, -2, -2, 50, 17, -2, 23, -2, -2, 54, -2, -2, -2, -2], "threshold": [0.14509554207324982, 0.08533261343836784, 0.08895296975970268, -2.0, -2.0, 0.12996810674667358, 0.14076975733041763, -2.0, -2.0, 0.16532615572214127, 0.08389508724212646, 0.4716109484434128, -2.0, -2.0, 0.08280741795897484, 0.18694886565208435, -2.0, 0.35161589086055756, -2.0, -2.0, 0.6388718783855438, -2.0, -2.0, -2.0, -2.0], "value": [[0.5906735751295337, 0.40932642487046633], [0.7261146496815286, 0.27388535031847133], [0.9848484848484849, 0.015151515151515152], [0.6666666666666666, 0.3333333333333333], [1.0, 0.0], [0.5384615384615384, 0.46153846153846156], [0.9333333333333333, 0.06666666666666667], [1.0, 0.0], [0.75, 0.25], [0.4605263157894737, 0.5394736842105263], [0.5223880597014925, 0.47761194029850745], [0.08333333333333333, 0.9166666666666666], [0.5, 0.5], [0.0, 1.0], [0.6181818181818182, 0.38181818181818183], [0.9142857142857143, 0.08571428571428572], [1.0, 0.0], [0.7, 0.3], [0.0, 1.0], [1.0, 0.0], [0.1, 0.9], [0.0, 1.0], [1.0, 0.0], [0.0, 1.0], [0.0, 1.0]]}, {"children_left": [1, 2, 3, -1, 5, -1, -1, 8, 9, 10, -1, 12, 13, -1, -1, 16, -1, -1, 19, -1, 21, -1, -1, -1, -1], "children_right": [24, 7, 4, -1, 6, -1, -1, 23, 18, 11, -1, 15, 14, -1, -1, 17, -1, -1, 20, -1, 22, -1, -1, -1, -1], "feature": [19, 50, 3, -2, 38, -2, -2, 42, 52, 27, -2, 10, 33, -2, -2, 12, -2, -2, 50, -2, 9, -2, -2, -2, -2], "threshold": [0.14303912222385406, 0.04970180615782738, 0.5377112329006195, -2.0, 0.622430145740509, -2.0, -2.0, 0.2966635823249817, 0.7190563082695007, 0.08454251661896706, -2.0, 0.1601104959845543, 0.10949712246656418, -2.0, -2.0, 0.2580036595463753, -2.0, -2.0, 0.08407892286777496, -2.0, 0.09175555408000946, -2.0, -2.0, -2.0, -2.0], "value": [[0.533678756476684, 0.46632124352331605], [0.7304964539007093, 0.2695035460992908], [0.972972972972973, 0.02702702702702703], [1.0, 0.0], [0.8461538461538461, 0.15384615384615385], [0.0, 1.0], [1.0, 0.0], [0.4626865671641791, 0.5373134328358209], [0.5849056603773585, 0.41509433962264153], [0.36666666666666664, 0.6333333333333333], [1.0, 0.0], [0.24, 0.76], [0.0625, 0.9375], [0.5, 0.5], [0.0, 1.0], [0.5555555555555556, 0.4444444444444444], [1.0, 0.0], [0.0, 1.0], [0.8695652173913043, 0.13043478260869565], [1.0, 0.0], [0.5, 0.5], [1.0, 0.0], [0.0, 1.0], [0.0, 1.0], [0.0, 1.0]]}, {"children_left": [1, 2, 3, 4, 5, 6, 7, -1, -1, -1, -1, 12, 13, -1, -1, 16, -1, -1, -1, -1, 21, 22, -1, -1, -1], "children_right": [20, 19, 18, 11, 10, 9, 8, -1, -1, -1, -1, 15, 14, -1, -1, 17, -1, -1, -1, -1, 24, 23, -1, -1, -1], "feature": [50, 28, 38, 19, 33, 16, 42, -2, -2, -2, -2, 8, 6, -2, -2, 41, -2, -2, -2, -2, 11, 16, -2, -2, -2], "threshold": [0.08407892286777496, 0.26429907232522964, 0.6226765513420105, 0.10095279663801193, 0.1197914332151413, 0.045540086925029755, 0.1718626245856285, -2.0, -2.0, -2.0, -2.0, 0.13318057358264923, 0.4734676331281662, -2.0, -2.0, 0.033871693536639214, -2.0, -2.0, -2.0, -2.0, 0.3378188759088516, 0.08190269768238068, -2.0, -2.0, -2.0], "value": [[0.6010362694300518, 0.39896373056994816], [0.8702290076335878, 0.1297709923664122], [0.8976377952755905, 0.10236220472440945], [0.8289473684210527, 0.17105263157894737], [0.9655172413793104, 0.034482758620689655], [0.8333333333333334, 0.16666666666666666], [0.5, 0.5], [0.5, 0.5], [0.5, 0.5], [1.0, 0.0], [1.0, 0.0], [0.3888888888888889, 0.6111111111111112], [0.1, 0.9], [0.0, 1.0], [0.3333333333333333, 0.6666666666666666], [0.75, 0.25], [0.0, 1.0], [1.0, 0.0], [1.0, 0.0], [0.0, 1.0], [0.03225806451612903, 0.967741935483871], [0.4, 0.6], [0.0, 1.0], [1.0, 0.0], [0.0, 1.0]]}, {"children_left": [1, 2, 3, -1, 5, 6, -1, -1, -1, 10, 11, 12, 13, 14, 15, -1, -1, -1, -1, 20, -1, -1, -1, -1, 25, -1, -1], "children_right": [24, 9, 4, -1, 8, 7, -1, -1, -1, 23, 22, 19, 18, 17, 16, -1, -1, -1, -1, 21, -1, -1, -1, -1, 26, -1, -1], "feature": [7, 27, 33, -2, 37, 51, -2, -2, -2, 19, 47, 45, 22, 13, 21, -2, -2, -2, -2, 2, -2, -2, -2, -2, 40, -2, -2], "threshold": [0.2258889228105545, 0.09922263026237488, 0.09695477783679962, -2.0, 0.4516165256500244, 0.5637607276439667, -2.0, -2.0, -2.0, 0.12361260503530502, 0.19132725149393082, 0.587976485490799, 0.2504570558667183, 0.2686307579278946, 0.6750651597976685, -2.0, -2.0, -2.0, -2.0, 0.631095826625824, -2.0, -2.0, -2.0, -2.0, 0.4827783554792404, -2.0, -2.0], "value": [[0.5699481865284974, 0.43005181347150256], [0.7364864864864865, 0.2635135135135135], [0.9705882352941176, 0.029411764705882353], [0.5, 0.5], [0.9848484848484849, 0.015151515151515152], [0.8888888888888888, 0.1111111111111111], [1.0, 0.0], [0.5, 0.5], [1.0, 0.0], [0.5375, 0.4625], [0.7166666666666667, 0.2833333333333333], [0.8113207547169812, 0.18867924528301888], [0.9302325581395349, 0.06976744186046512], [0.975, 0.025], [0.8333333333333334, 0.16666666666666666], [1.0, 0.0], [0.5, 0.5], [1.0, 0.0], [0.3333333333333333, 0.6666666666666666], [0.3, 0.7], [1.0, 0.0], [0.0, 1.0], [0.0, 1.0], [0.0, 1.0], [0.022222222222222223, 0.9777777777777777], [0.3333333333333333, 0.6666666666666666], [0.0, 1.0]]}, {"children_left": [1, 2, 3, -1, 5, -1, 7, 8, 9, 10, 11, -1, -1, -1, -1, -1, 17, -1, -1, -1, 21, -1, -1], "children_right": [20, 19, 4, -1, 6, -1, 16, 15, 14, 13, 12, -1, -1, -1, -1, -1, 18, -1, -1, -1, 22, -1, -1], "feature": [44, 11, 29, -2, 28, -2, 2, 35, 47, 41, 10, -2, -2, -2, -2, -2, 15, -2, -2, -2, 49, -2, -2], "threshold": [0.19260355830192566, 0.4285842478275299, 0.07095509022474289, -2.0, 0.06798224151134491, -2.0, 0.6049736738204956, 0.619876891374588, 0.18590129911899567, 0.0833534486591816, 0.07827193289995193, -2.0, -2.0, -2.0, -2.0, -2.0, 0.614037036895752, -2.0, -2.0, -2.0, 0.18815024197101593, -2.0, -2.0], "value": [[0.5958549222797928, 0.40414507772020725], [0.8308823529411765, 0.16911764705882354], [0.8692307692307693, 0.13076923076923078], [1.0, 0.0], [0.782051282051282, 0.21794871794871795], [1.0, 0.0], [0.6964285714285714, 0.30357142857142855], [0.4666666666666667, 0.5333333333333333], [0.38461538461538464, 0.6153846153846154], [0.5882352941176471, 0.4117647058823529], [0.4166666666666667, 0.5833333333333334], [1.0, 0.0], [0.0, 1.0], [1.0, 0.0], [0.0, 1.0], [1.0, 0.0], [0.9615384615384616, 0.038461538461538464], [1.0, 0.0], [0.6666666666666666, 0.3333333333333333], [0.0, 1.0], [0.03508771929824561, 0.9649122807017544], [1.0, 0.0], [0.0, 1.0]]}, {"children_left": [1, 2, 3, -1, 5, -1, 7, -1, -1, 10, -1, -1, 13, 14, -1, -1, -1], "children_right": [12, 9, 4, -1, 6, -1, 8, -1, -1, 11, -1, -1, 16, 15, -1, -1, -1], "feature": [41, 44, 8, -2, 8, -2, 52, -2, -2, 52, -2, -2, 24, 54, -2, -2, -2], "threshold": [0.12373519688844681, 0.18395929783582687, 0.14977529644966125, -2.0, 0.15876859426498413, -2.0, 0.6651810109615326, -2.0, -2.0, 0.6904089450836182, -2.0, -2.0, 0.16450798511505127, 0.565981388092041, -2.0, -2.0, -2.0], "value": [[0.5803108808290155, 0.41968911917098445], [0.7785714285714286, 0.22142857142857142], [0.9473684210526315, 0.05263157894736842], [1.0, 0.0], [0.8333333333333334, 0.16666666666666666], [0.0, 1.0], [0.9090909090909091, 0.09090909090909091], [0.0, 1.0], [1.0, 0.0], [0.038461538461538464, 0.9615384615384616], [0.5, 0.5], [0.0, 1.0], [0.05660377358490566, 0.9433962264150944], [0.3333333333333333, 0.6666666666666666], [1.0, 0.0], [0.0, 1.0], [0.0, 1.0]]}, {"children_left": [1, 2, 3, -1, 5, -1, 7, -1, -1, 10, 11, 12, 13, 14, 15, -1, -1, -1, 19, -1, -1, -1, 23, -1, 25, 26, -1, -1, -1, -1, -1], "children_right": [30, 9, 4, -1, 6, -1, 8, -1, -1, 29, 22, 21, 18, 17, 16, -1, -1, -1, 20, -1, -1, -1, 24, -1, 28, 27, -1, -1, -1, -1, -1], "feature": [34, 10, 28, -2, 45, -2, 17, -2, -2, 28, 33, 42, 36, 45, 51, -2, -2, -2, 25, -2, -2, -2, 35, -2, 21, 3, -2, -2, -2, -2, -2], "threshold": [0.10139689221978188, 0.08609835430979729, 0.08965171873569489, -2.0, 0.5126195549964905, -2.0, 0.13785470277071, -2.0, -2.0, 0.21043606102466583, 0.1756308376789093, 0.22203510999679565, 0.6642192900180817, 0.4792146533727646, 0.5362519919872284, -2.0, -2.0, -2.0, 0.26887743175029755, -2.0, -2.0, -2.0, 0.5311179161071777, -2.0, 0.6490343809127808, 0.5376353859901428, -2.0, -2.0, -2.0, -2.0, -2.0], "value": [[0.538860103626943, 0.46113989637305697], [0.7272727272727273, 0.2727272727272727], [0.935064935064935, 0.06493506493506493], [1.0, 0.0], [0.8, 0.2], [0.2, 0.8], [0.95, 0.05], [0.75, 0.25], [1.0, 0.0], [0.48484848484848486, 0.5151515151515151], [0.5714285714285714, 0.42857142857142855], [0.2692307692307692, 0.7307692307692307], [0.4117647058823529, 0.5882352941176471], [0.6666666666666666, 0.3333333333333333], [0.4, 0.6], [1.0, 0.0], [0.0, 1.0], [1.0, 0.0], [0.125, 0.875], [0.0, 1.0], [0.3333333333333333, 0.6666666666666666], [0.0, 1.0], [0.8333333333333334, 0.16666666666666666], [0.25, 0.75], [0.9230769230769231, 0.07692307692307693], [0.8461538461538461, 0.15384615384615385], [1.0, 0.0], [0.0, 1.0], [1.0, 0.0], [0.0, 1.0], [0.0, 1.0]]}, {"children_left": [1, 2, -1, 4, 5, -1, 7, -1, -1, 10, 11, 12, 13, 14, 15, -1, -1, -1, -1, -1, -1, -1, 23, 24, -1, 26, 27, -1, -1, -1, -1], "children_right": [22, 3, -1, 9, 6, -1, 8, -1, -1, 21, 20, 19, 18, 17, 16, -1, -1, -1, -1, -1, -1, -1, 30, 25, -1, 29, 28, -1, -1, -1, -1], "feature": [11, 25, -2, 9, 48, -2, 26, -2, -2, 22, 10, 41, 39, 23, 10, -2, -2, -2, -2, -2, -2, -2, 27, 9, -2, 37, 47, -2, -2, -2, -2], "threshold": [0.3743080794811249, 0.2447538748383522, -2.0, 0.08648010343313217, 0.29358483850955963, -2.0, 0.1592824086546898, -2.0, -2.0, 0.262657105922699, 0.1601104959845543, 0.09494111686944962, 0.5430758893489838, 0.3424091935157776, 0.12193825840950012, -2.0, -2.0, -2.0, -2.0, -2.0, -2.0, -2.0, 0.23392044752836227, 0.14505625516176224, -2.0, 0.5063984990119934, 0.19571220874786377, -2.0, -2.0, -2.0, -2.0], "value": [[0.5129533678756477, 0.48704663212435234], [0.773109243697479, 0.226890756302521], [1.0, 0.0], [0.6823529411764706, 0.3176470588235294], [0.925, 0.075], [0.0, 1.0], [0.9736842105263158, 0.02631578947368421], [1.0, 0.0], [0.5, 0.5], [0.4666666666666667, 0.5333333333333333], [0.5675675675675675, 0.43243243243243246], [0.38461538461538464, 0.6153846153846154], [0.6666666666666666, 0.3333333333333333], [0.8333333333333334, 0.16666666666666666], [0.5, 0.5], [1.0, 0.0], [0.0, 1.0], [1.0, 0.0], [0.0, 1.0], [0.0, 1.0], [1.0, 0.0], [0.0, 1.0], [0.0945945945945946, 0.9054054054054054], [0.4117647058823529, 0.5882352941176471], [0.0, 1.0], [0.7, 0.3], [0.5, 0.5], [1.0, 0.0], [0.0, 1.0], [1.0, 0.0], [0.0, 1.0]]}, {"children_left": [1, 2, 3, -1, 5, 6, 7, -1, -1, -1, -1, 12, 13, 14, 15, -1, -1, 18, 19, 20, -1, -1, -1, -1, -1, -1, 27, 28, -1, 30, -1, -1, -1], "children_right": [26, 11, 4, -1, 10, 9, 8, -1, -1, -1, -1, 25, 24, 17, 16, -1, -1, 23, 22, 21, -1, -1, -1, -1, -1, -1, 32, 29, -1, 31, -1, -1, -1], "feature": [13, 50, 39, -2, 51, 9, 7, -2, -2, -2, -2, 44, 19, 4, 20, -2, -2, 25, 48, 29, -2, -2, -2, -2, -2, -2, 8, 21, -2, 13, -2, -2, -2], "threshold": [0.3178690969944, 0.04943429306149483, 0.4608030319213867, -2.0, 0.6147507429122925, 0.12174460664391518, 0.06456860527396202, -2.0, -2.0, -2.0, -2.0, 0.20616315305233002, 0.12325902655720711, 0.5599120855331421, 0.4403742104768753, -2.0, -2.0, 0.296994686126709, 0.4129141867160797, 0.11594072729349136, -2.0, -2.0, -2.0, -2.0, -2.0, -2.0, 0.2605106383562088, 0.6768568158149719, -2.0, 0.3404070734977722, -2.0, -2.0, -2.0], "value": [[0.5699481865284974, 0.43005181347150256], [0.7019867549668874, 0.2980132450331126], [0.9634146341463414, 0.036585365853658534], [1.0, 0.0], [0.926829268292683, 0.07317073170731707], [0.7692307692307693, 0.23076923076923078], [0.9090909090909091, 0.09090909090909091], [0.5, 0.5], [1.0, 0.0], [0.0, 1.0], [1.0, 0.0], [0.391304347826087, 0.6086956521739131], [0.5294117647058824, 0.47058823529411764], [0.6136363636363636, 0.38636363636363635], [0.09090909090909091, 0.9090909090909091], [0.5, 0.5], [0.0, 1.0], [0.7878787878787878, 0.21212121212121213], [0.631578947368421, 0.3684210526315789], [0.9230769230769231, 0.07692307692307693], [1.0, 0.0], [0.5, 0.5], [0.0, 1.0], [1.0, 0.0], [0.0, 1.0], [0.0, 1.0], [0.09523809523809523, 0.9047619047619048], [0.3333333333333333, 0.6666666666666666], [0.0, 1.0], [0.8, 0.2], [1.0, 0.0], [0.5, 0.5], [0.0, 1.0]]}, {"children_left": [1, 2, -1, 4, 5, 6, 7, -1, -1, 10, 11, -1, 13, -1, -1, -1, -1, 18, -1, -1, -1], "children_right": [20, 3, -1, 17, 16, 9, 8, -1, -1, 15, 12, -1, 14, -1, -1, -1, -1, 19, -1, -1, -1], "feature": [23, 8, -2, 44, 18, 21, 51, -2, -2, 30, 12, -2, 38, -2, -2, -2, -2, 52, -2, -2, -2], "threshold": [0.410950168967247, 0.12715815752744675, -2.0, 0.1851266846060753, 0.322676345705986, 0.6455405056476593, 0.5482973158359528, -2.0, -2.0, 0.6582578420639038, 0.16803134977817535, -2.0, 0.622430145740509, -2.0, -2.0, -2.0, -2.0, 0.7994337975978851, -2.0, -2.0, -2.0], "value": [[0.6113989637305699, 0.38860103626943004], [0.7712418300653595, 0.22875816993464052], [1.0, 0.0], [0.5882352941176471, 0.4117647058823529], [0.7424242424242424, 0.25757575757575757], [0.6382978723404256, 0.3617021276595745], [0.09090909090909091, 0.9090909090909091], [0.3333333333333333, 0.6666666666666666], [0.0, 1.0], [0.8055555555555556, 0.19444444444444445], [0.6956521739130435, 0.30434782608695654], [1.0, 0.0], [0.36363636363636365, 0.6363636363636364], [0.0, 1.0], [1.0, 0.0], [1.0, 0.0], [1.0, 0.0], [0.05263157894736842, 0.9473684210526315], [0.0, 1.0], [0.5, 0.5], [0.0, 1.0]]}, {"children_left": [1, 2, 3, 4, -1, -1, 7, 8, -1, -1, -1, -1, 13, 14, 15, 16, -1, -1, -1, 20, -1, -1, -1], "children_right": [12, 11, 6, 5, -1, -1, 10, 9, -1, -1, -1, -1, 22, 19, 18, 17, -1, -1, -1, 21, -1, -1, -1], "feature": [42, 49, 27, 26, -2, -2, 44, 4, -2, -2, -2, -2, 5, 47, 44, 7, -2, -2, -2, 24, -2, -2, -2], "threshold": [0.21881097555160522, 0.20605988800525665, 0.13210152834653854, 0.08931199833750725, -2.0, -2.0, 0.17631306499242783, 0.5605009198188782, -2.0, -2.0, -2.0, -2.0, 0.5367971062660217, 0.19398849457502365, 0.18645893037319183, 0.22114909440279007, -2.0, -2.0, -2.0, 0.15998639166355133, -2.0, -2.0, -2.0], "value": [[0.5803108808290155, 0.41968911917098445], [0.8804347826086957, 0.11956521739130435], [0.9418604651162791, 0.05813953488372093], [0.9863013698630136, 0.0136986301369863], [0.5, 0.5], [1.0, 0.0], [0.6923076923076923, 0.3076923076923077], [0.9, 0.1], [0.5, 0.5], [1.0, 0.0], [0.0, 1.0], [0.0, 1.0], [0.3069306930693069, 0.693069306930693], [0.49206349206349204, 0.5079365079365079], [0.7894736842105263, 0.21052631578947367], [0.967741935483871, 0.03225806451612903], [1.0, 0.0], [0.5, 0.5], [0.0, 1.0], [0.04, 0.96], [0.5, 0.5], [0.0, 1.0], [0.0, 1.0]]}, {"children_left": [1, 2, 3, 4, -1, -1, 7, 8, 9, -1, 11, -1, 13, 14, 15, -1, -1, -1, -1, -1, -1, 22, -1, -1, -1], "children_right": [24, 21, 6, 5, -1, -1, 20, 19, 10, -1, 12, -1, 18, 17, 16, -1, -1, -1, -1, -1, -1, 23, -1, -1, -1], "feature": [26, 40, 28, 27, -2, -2, 41, 38, 5, -2, 24, -2, 44, 49, 7, -2, -2, -2, -2, -2, -2, 16, -2, -2, -2], "threshold": [0.25050850212574005, 0.5929909348487854, 0.08491001650691032, 0.1265701688826084, -2.0, -2.0, 0.13503150641918182, 0.6509957015514374, 0.5013334453105927, -2.0, 0.1468588337302208, -2.0, 0.18935950845479965, 0.20343418419361115, 0.0694180354475975, -2.0, -2.0, -2.0, -2.0, -2.0, -2.0, 0.08413603529334068, -2.0, -2.0, -2.0], "value": [[0.616580310880829, 0.38341968911917096], [0.7531645569620253, 0.2468354430379747], [0.8368794326241135, 0.16312056737588654], [0.9850746268656716, 0.014925373134328358], [1.0, 0.0], [0.5, 0.5], [0.7027027027027027, 0.2972972972972973], [0.8125, 0.1875], [0.6842105263157895, 0.3157894736842105], [1.0, 0.0], [0.5555555555555556, 0.4444444444444444], [1.0, 0.0], [0.3684210526315789, 0.631578947368421], [0.5384615384615384, 0.46153846153846156], [0.7777777777777778, 0.2222222222222222], [0.3333333333333333, 0.6666666666666666], [1.0, 0.0], [0.0, 1.0], [0.0, 1.0], [1.0, 0.0], [0.0, 1.0], [0.058823529411764705, 0.9411764705882353], [0.0, 1.0], [0.3333333333333333, 0.6666666666666666], [0.0, 1.0]]}, {"children_left": [1, 2, -1, 4, 5, -1, 7, 8, -1, -1, -1, -1, 13, 14, -1, -1, -1], "children_right": [12, 3, -1, 11, 6, -1, 10, 9, -1, -1, -1, -1, 16, 15, -1, -1, -1], "feature": [44, 2, -2, 16, 28, -2, 48, 6, -2, -2, -2, -2, 43, 21, -2, -2, -2], "threshold": [0.18379350751638412, 0.5671385526657104, -2.0, 0.17695382982492447, 0.14615534245967865, -2.0, 0.3670181334018707, 0.4451751261949539, -2.0, -2.0, -2.0, -2.0, 0.3543182462453842, 0.6893569231033325, -2.0, -2.0, -2.0], "value": [[0.616580310880829, 0.38341968911917096], [0.8984375, 0.1015625], [0.0, 1.0], [0.9426229508196722, 0.05737704918032787], [0.9745762711864406, 0.025423728813559324], [1.0, 0.0], [0.8, 0.2], [0.4, 0.6], [1.0, 0.0], [0.0, 1.0], [1.0, 0.0], [0.0, 1.0], [0.06153846153846154, 0.9384615384615385], [0.6666666666666666, 0.3333333333333333], [0.3333333333333333, 0.6666666666666666], [1.0, 0.0], [0.0, 1.0]]}, {"children_left": [1, -1, 3, 4, -1, 6, 7, -1, -1, -1, -1], "children_right": [2, -1, 10, 5, -1, 9, 8, -1, -1, -1, -1], "feature": [17, -2, 19, 27, -2, 11, 50, -2, -2, -2, -2], "threshold": [0.1527942270040512, -2.0, 0.12664348632097244, 0.14224831014871597, -2.0, 0.41668878495693207, 0.09456850960850716, -2.0, -2.0, -2.0, -2.0], "value": [[0.6839378238341969, 0.3160621761658031], [1.0, 0.0], [0.4830508474576271, 0.5169491525423728], [0.76, 0.24], [1.0, 0.0], [0.5263157894736842, 0.47368421052631576], [0.7142857142857143, 0.2857142857142857], [1.0, 0.0], [0.0, 1.0], [0.0, 1.0], [0.0, 1.0]]}, {"children_left": [1, 2, 3, 4, 5, -1, -1, -1, 9, -1, -1, 12, -1, 14, 15, -1, 17, -1, -1, -1, -1], "children_right": [20, 11, 8, 7, 6, -1, -1, -1, 10, -1, -1, 13, -1, 19, 16, -1, 18, -1, -1, -1, -1], "feature": [27, 43, 41, 0, 14, -2, -2, -2, 25, -2, -2, 35, -2, 19, 31, -2, 29, -2, -2, -2, -2], "threshold": [0.23716676235198975, 0.353061705827713, 0.112271748483181, 0.6428810358047485, 0.1805921420454979, -2.0, -2.0, -2.0, 0.2768109142780304, -2.0, -2.0, 0.5335032343864441, -2.0, 0.12425656989216805, 0.10582386702299118, -2.0, 0.16124308854341507, -2.0, -2.0, -2.0, -2.0], "value": [[0.5647668393782384, 0.43523316062176165], [0.7414965986394558, 0.2585034013605442], [0.9166666666666666, 0.08333333333333333], [0.9868421052631579, 0.013157894736842105], [0.8, 0.2], [1.0, 0.0], [0.5, 0.5], [1.0, 0.0], [0.25, 0.75], [1.0, 0.0], [0.0, 1.0], [0.5079365079365079, 0.49206349206349204], [0.0, 1.0], [0.64, 0.36], [0.8888888888888888, 0.1111111111111111], [1.0, 0.0], [0.6, 0.4], [0.0, 1.0], [1.0, 0.0], [0.0, 1.0], [0.0, 1.0]]}, {"children_left": [1, 2, 3, 4, -1, 6, -1, 8, 9, 10, -1, -1, -1, -1, 15, -1, -1, 18, -1, -1, 21, -1, -1], "children_right": [20, 17, 14, 5, -1, 7, -1, 13, 12, 11, -1, -1, -1, -1, 16, -1, -1, 19, -1, -1, 22, -1, -1], "feature": [47, 23, 20, 1, -2, 27, -2, 23, 41, 10, -2, -2, -2, -2, 29, -2, -2, 12, -2, -2, 42, -2, -2], "threshold": [0.19060292094945908, 0.4081394076347351, 0.5698230266571045, 0.5130322873592377, -2.0, 0.13483089953660965, -2.0, 0.3529856204986572, 0.08613070845603943, 0.1403615102171898, -2.0, -2.0, -2.0, -2.0, 0.12838102877140045, -2.0, -2.0, 0.2610156834125519, -2.0, -2.0, 0.2070026993751526, -2.0, -2.0], "value": [[0.5958549222797928, 0.40414507772020725], [0.8248175182481752, 0.17518248175182483], [0.9105691056910569, 0.08943089430894309], [0.9473684210526315, 0.05263157894736842], [0.0, 1.0], [0.972972972972973, 0.02702702702702703], [1.0, 0.0], [0.8888888888888888, 0.1111111111111111], [0.5, 0.5], [0.75, 0.25], [0.5, 0.5], [1.0, 0.0], [0.0, 1.0], [1.0, 0.0], [0.4444444444444444, 0.5555555555555556], [0.0, 1.0], [1.0, 0.0], [0.07142857142857142, 0.9285714285714286], [0.5, 0.5], [0.0, 1.0], [0.03571428571428571, 0.9642857142857143], [1.0, 0.0], [0.0, 1.0]]}, {"children_left": [1, 2, 3, 4, 5, -1, -1, 8, 9, -1, 11, -1, 13, 14, 15, -1, -1, -1, -1, -1, 21, -1, -1, -1, -1], "children_right": [24, 23, 20, 7, 6, -1, -1, 19, 10, -1, 12, -1, 18, 17, 16, -1, -1, -1, -1, -1, 22, -1, -1, -1, -1], "feature": [26, 16, 53, 36, 12, -2, -2, 20, 32, -2, 43, -2, 8, 50, 42, -2, -2, -2, -2, -2, 7, -2, -2, -2, -2], "threshold": [0.24122054874897003, 0.137506403028965, 0.5922644138336182, 0.5965323150157928, 0.1809549331665039, -2.0, -2.0, 0.5605902373790741, 0.21668440848588943, -2.0, 0.34826794266700745, -2.0, 0.16387870907783508, 0.07744845002889633, 0.24158208817243576, -2.0, -2.0, -2.0, -2.0, -2.0, 0.08938870579004288, -2.0, -2.0, -2.0, -2.0], "value": [[0.6269430051813472, 0.37305699481865284], [0.7857142857142857, 0.21428571428571427], [0.8344827586206897, 0.16551724137931034], [0.8947368421052632, 0.10526315789473684], [0.2857142857142857, 0.7142857142857143], [0.0, 1.0], [0.6666666666666666, 0.3333333333333333], [0.9285714285714286, 0.07142857142857142], [0.9504132231404959, 0.049586776859504134], [0.4, 0.6], [0.9741379310344828, 0.02586206896551724], [1.0, 0.0], [0.896551724137931, 0.10344827586206896], [0.6666666666666666, 0.3333333333333333], [0.8571428571428571, 0.14285714285714285], [1.0, 0.0], [0.5, 0.5], [0.0, 1.0], [1.0, 0.0], [0.4, 0.6], [0.16666666666666666, 0.8333333333333334], [0.6666666666666666, 0.3333333333333333], [0.0, 1.0], [0.0, 1.0], [0.0, 1.0]]}, {"children_left": [1, 2, -1, 4, -1, -1, 7, 8, -1, 10, 11, 12, 13, 14, -1, -1, -1, -1, 19, -1, -1, -1, -1], "children_right": [6, 3, -1, 5, -1, -1, 22, 9, -1, 21, 18, 17, 16, 15, -1, -1, -1, -1, 20, -1, -1, -1, -1], "feature": [49, 44, -2, 44, -2, -2, 19, 18, -2, 22, 2, 21, 50, 37, -2, -2, -2, -2, 3, -2, -2, -2, -2], "threshold": [0.19308190792798996, 0.1842944473028183, -2.0, 0.18691691011190414, -2.0, -2.0, 0.12225114554166794, 0.26269493997097015, -2.0, 0.2838282734155655, 0.6328131556510925, 0.6521484553813934, 0.0832873210310936, 0.44279685616493225, -2.0, -2.0, -2.0, -2.0, 0.5444263815879822, -2.0, -2.0, -2.0, -2.0], "value": [[0.6528497409326425, 0.3471502590673575], [0.9578947368421052, 0.042105263157894736], [1.0, 0.0], [0.6666666666666666, 0.3333333333333333], [0.0, 1.0], [1.0, 0.0], [0.35714285714285715, 0.6428571428571429], [0.625, 0.375], [0.0, 1.0], [0.7291666666666666, 0.2708333333333333], [0.8333333333333334, 0.16666666666666666], [0.8918918918918919, 0.10810810810810811], [0.6666666666666666, 0.3333333333333333], [0.8888888888888888, 0.1111111111111111], [1.0, 0.0], [0.5, 0.5], [0.0, 1.0], [1.0, 0.0], [0.4, 0.6], [1.0, 0.0], [0.0, 1.0], [0.0, 1.0], [0.0, 1.0]]}, {"children_left": [1, 2, 3, 4, -1, 6, 7, -1, -1, -1, 11, 12, 13, 14, -1, -1, -1, 18, -1, 20, -1, -1, -1, -1, -1], "children_right": [24, 23, 10, 5, -1, 9, 8, -1, -1, -1, 22, 17, 16, 15, -1, -1, -1, 19, -1, 21, -1, -1, -1, -1, -1], "feature": [31, 44, 26, 29, -2, 25, 41, -2, -2, -2, 53, 43, 5, 43, -2, -2, -2, 1, -2, 45, -2, -2, -2, -2, -2], "threshold": [0.15646182000637054, 0.20529883354902267, 0.14412342011928558, 0.10532798990607262, -2.0, 0.2887922078371048, 0.05444316379725933, -2.0, -2.0, -2.0, 0.5650646388530731, 0.34947554767131805, 0.528414785861969, 0.3284604996442795, -2.0, -2.0, -2.0, 0.5671729445457458, -2.0, 0.560833066701889, -2.0, -2.0, -2.0, -2.0, -2.0], "value": [[0.5958549222797928, 0.40414507772020725], [0.7615894039735099, 0.23841059602649006], [0.8712121212121212, 0.12878787878787878], [0.9545454545454546, 0.045454545454545456], [1.0, 0.0], [0.7647058823529411, 0.23529411764705882], [0.42857142857142855, 0.5714285714285714], [0.75, 0.25], [0.0, 1.0], [1.0, 0.0], [0.7045454545454546, 0.29545454545454547], [0.7560975609756098, 0.24390243902439024], [0.5333333333333333, 0.4666666666666667], [0.3, 0.7], [1.0, 0.0], [0.0, 1.0], [1.0, 0.0], [0.8846153846153846, 0.11538461538461539], [1.0, 0.0], [0.5, 0.5], [0.6666666666666666, 0.3333333333333333], [0.3333333333333333, 0.6666666666666666], [0.0, 1.0], [0.0, 1.0], [0.0, 1.0]]}, {"children_left": [1, 2, 3, 4, 5, 6, -1, 8, -1, -1, -1, -1, 13, 14, -1, 16, -1, -1, -1, 20, 21, -1, -1, 24, 25, -1, -1, -1, 29, 30, -1, -1, -1], "children_right": [28, 19, 12, 11, 10, 7, -1, 9, -1, -1, -1, -1, 18, 15, -1, 17, -1, -1, -1, 23, 22, -1, -1, 27, 26, -1, -1, -1, 32, 31, -1, -1, -1], "feature": [12, 24, 50, 3, 14, 18, -2, 12, -2, -2, -2, -2, 50, 40, -2, 6, -2, -2, -2, 13, 40, -2, -2, 3, 38, -2, -2, -2, 8, 9, -2, -2, -2], "threshold": [0.25411806255578995, 0.19273942708969116, 0.08696652576327324, 0.5234255790710449, 0.20177128165960312, 0.3121482729911804, -2.0, 0.13702383637428284, -2.0, -2.0, -2.0, -2.0, 0.12029922381043434, 0.5474196672439575, -2.0, 0.4870547950267792, -2.0, -2.0, -2.0, 0.26890647411346436, 0.4889890253543854, -2.0, -2.0, 0.5149845778942108, 0.5857232809066772, -2.0, -2.0, -2.0, 0.2606615424156189, 0.17723197489976883, -2.0, -2.0, -2.0], "value": [[0.5854922279792746, 0.41450777202072536], [0.7857142857142857, 0.21428571428571427], [0.8828828828828829, 0.11711711711711711], [0.9690721649484536, 0.030927835051546393], [0.9347826086956522, 0.06521739130434782], [0.9772727272727273, 0.022727272727272728], [1.0, 0.0], [0.8571428571428571, 0.14285714285714285], [0.5, 0.5], [1.0, 0.0], [0.0, 1.0], [1.0, 0.0], [0.2857142857142857, 0.7142857142857143], [0.5714285714285714, 0.42857142857142855], [0.0, 1.0], [0.8, 0.2], [1.0, 0.0], [0.5, 0.5], [0.0, 1.0], [0.41379310344827586, 0.5862068965517241], [0.06666666666666667, 0.9333333333333333], [0.5, 0.5], [0.0, 1.0], [0.7857142857142857, 0.21428571428571427], [0.4, 0.6], [1.0, 0.0], [0.0, 1.0], [1.0, 0.0], [0.05660377358490566, 0.9433962264150944], [0.3333333333333333, 0.6666666666666666], [0.0, 1.0], [1.0, 0.0], [0.0, 1.0]]}, {"children_left": [1, 2, 3, 4, 5, -1, 7, -1, -1, 10, -1, -1, 13, -1, 15, -1, -1, 18, -1, 20, -1, -1, -1], "children_right": [22, 17, 12, 9, 6, -1, 8, -1, -1, 11, -1, -1, 14, -1, 16, -1, -1, 19, -1, 21, -1, -1, -1], "feature": [34, 50, 45, 35, 27, -2, 45, -2, -2, 12, -2, -2, 14, -2, 4, -2, -2, 47, -2, 40, -2, -2, -2], "threshold": [0.10137755051255226, 0.08542657643556595, 0.5092589855194092, 0.5549503266811371, 0.14414821565151215, -2.0, 0.46613916754722595, -2.0, -2.0, 0.16089605540037155, -2.0, -2.0, 0.22288944572210312, -2.0, 0.5799430310726166, -2.0, -2.0, 0.18461774289608002, -2.0, 0.5696026086807251, -2.0, -2.0, -2.0], "value": [[0.5906735751295337, 0.40932642487046633], [0.7651006711409396, 0.2348993288590604], [0.9032258064516129, 0.0967741935483871], [0.7872340425531915, 0.2127659574468085], [0.9459459459459459, 0.05405405405405406], [1.0, 0.0], [0.5, 0.5], [0.0, 1.0], [1.0, 0.0], [0.2, 0.8], [1.0, 0.0], [0.0, 1.0], [0.974025974025974, 0.025974025974025976], [1.0, 0.0], [0.8181818181818182, 0.18181818181818182], [0.0, 1.0], [1.0, 0.0], [0.08, 0.92], [0.0, 1.0], [0.2857142857142857, 0.7142857142857143], [0.6666666666666666, 0.3333333333333333], [0.0, 1.0], [0.0, 1.0]]}, {"children_left": [1, 2, 3, -1, 5, 6, -1, -1, 9, -1, 11, -1, -1, 14, 15, -1, -1, -1, 19, 20, 21, 22, -1, -1, -1, 26, -1, -1, 29, -1, -1], "children_right": [18, 13, 4, -1, 8, 7, -1, -1, 10, -1, 12, -1, -1, 17, 16, -1, -1, -1, 28, 25, 24, 23, -1, -1, -1, 27, -1, -1, 30, -1, -1], "feature": [28, 43, 29, -2, 31, 6, -2, -2, 0, -2, 33, -2, -2, 44, 24, -2, -2, -2, 23, 41, 24, 27, -2, -2, -2, 37, -2, -2, 12, -2, -2], "threshold": [0.13036666810512543, 0.3630785197019577, 0.075465839356184, -2.0, 0.11724954843521118, 0.4900304079055786, -2.0, -2.0, 0.6664917767047882, -2.0, 0.15346359461545944, -2.0, -2.0, 0.17841946333646774, 0.16269134730100632, -2.0, -2.0, -2.0, 0.410950168967247, 0.09791489318013191, 0.20101052522659302, 0.1475120484828949, -2.0, -2.0, -2.0, 0.40934614837169647, -2.0, -2.0, 0.2674647122621536, -2.0, -2.0], "value": [[0.6010362694300518, 0.39896373056994816], [0.7952755905511811, 0.2047244094488189], [0.9186046511627907, 0.08139534883720931], [1.0, 0.0], [0.7941176470588235, 0.20588235294117646], [0.9545454545454546, 0.045454545454545456], [1.0, 0.0], [0.6666666666666666, 0.3333333333333333], [0.5, 0.5], [0.0, 1.0], [0.8571428571428571, 0.14285714285714285], [1.0, 0.0], [0.5, 0.5], [0.5365853658536586, 0.4634146341463415], [0.9166666666666666, 0.08333333333333333], [1.0, 0.0], [0.3333333333333333, 0.6666666666666666], [0.0, 1.0], [0.22727272727272727, 0.7727272727272727], [0.4666666666666667, 0.5333333333333333], [0.8666666666666667, 0.13333333333333333], [0.6666666666666666, 0.3333333333333333], [0.0, 1.0], [1.0, 0.0], [1.0, 0.0], [0.06666666666666667, 0.9333333333333333], [0.5, 0.5], [0.0, 1.0], [0.027777777777777776, 0.9722222222222222], [0.3333333333333333, 0.6666666666666666], [0.0, 1.0]]}, {"children_left": [1, 2, 3, -1, 5, 6, 7, -1, -1, 10, -1, -1, 13, 14, -1, 16, -1, -1, 19, -1, 21, -1, -1, -1, -1], "children_right": [24, 23, 4, -1, 12, 9, 8, -1, -1, 11, -1, -1, 18, 15, -1, 17, -1, -1, 20, -1, 22, -1, -1, -1, -1], "feature": [31, 23, 29, -2, 34, 8, 28, -2, -2, 11, -2, -2, 25, 50, -2, 4, -2, -2, 41, -2, 27, -2, -2, -2, -2], "threshold": [0.14518088102340698, 0.410950168967247, 0.075465839356184, -2.0, 0.05326061323285103, 0.15980353206396103, 0.10521497949957848, -2.0, -2.0, 0.365693137049675, -2.0, -2.0, 0.2619722783565521, 0.018395770341157913, -2.0, 0.5649340152740479, -2.0, -2.0, 0.07301715761423111, -2.0, 0.1659955233335495, -2.0, -2.0, -2.0, -2.0], "value": [[0.6217616580310881, 0.37823834196891193], [0.7843137254901961, 0.21568627450980393], [0.8571428571428571, 0.14285714285714285], [1.0, 0.0], [0.7752808988764045, 0.2247191011235955], [0.5517241379310345, 0.4482758620689655], [0.9166666666666666, 0.08333333333333333], [0.5, 0.5], [1.0, 0.0], [0.29411764705882354, 0.7058823529411765], [0.0, 1.0], [1.0, 0.0], [0.8833333333333333, 0.11666666666666667], [0.5454545454545454, 0.45454545454545453], [1.0, 0.0], [0.16666666666666666, 0.8333333333333334], [0.5, 0.5], [0.0, 1.0], [0.9591836734693877, 0.04081632653061224], [1.0, 0.0], [0.8461538461538461, 0.15384615384615385], [1.0, 0.0], [0.3333333333333333, 0.6666666666666666], [0.0, 1.0], [0.0, 1.0]]}, {"children_left": [1, 2, 3, 4, -1, 6, 7, 8, 9, -1, -1, -1, -1, 14, -1, 16, -1, 18, -1, -1, 21, 22, -1, -1, -1, 26, -1, -1, -1], "children_right": [28, 25, 20, 5, -1, 13, 12, 11, 10, -1, -1, -1, -1, 15, -1, 17, -1, 19, -1, -1, 24, 23, -1, -1, -1, 27, -1, -1, -1], "feature": [27, 16, 42, 8, -2, 19, 52, 36, 3, -2, -2, -2, -2, 14, -2, 2, -2, 16, -2, -2, 14, 23, -2, -2, -2, 29, -2, -2, -2], "threshold": [0.23392044752836227, 0.11967479437589645, 0.33651046454906464, 0.12745526432991028, -2.0, 0.10146310552954674, 0.6671377420425415, 0.596762478351593, 0.5045221000909805, -2.0, -2.0, -2.0, -2.0, 0.19535603374242783, -2.0, 0.6095146834850311, -2.0, 0.07001186534762383, -2.0, -2.0, 0.14416099339723587, 0.34487098455429077, -2.0, -2.0, -2.0, 0.14882466942071915, -2.0, -2.0, -2.0], "value": [[0.5440414507772021, 0.45595854922279794], [0.75, 0.25], [0.8455284552845529, 0.15447154471544716], [0.8849557522123894, 0.11504424778761062], [1.0, 0.0], [0.7833333333333333, 0.21666666666666667], [0.9130434782608695, 0.08695652173913043], [0.6666666666666666, 0.3333333333333333], [0.2, 0.8], [0.0, 1.0], [0.5, 0.5], [1.0, 0.0], [1.0, 0.0], [0.35714285714285715, 0.6428571428571429], [1.0, 0.0], [0.18181818181818182, 0.8181818181818182], [0.0, 1.0], [0.4, 0.6], [0.0, 1.0], [1.0, 0.0], [0.4, 0.6], [0.25, 0.75], [0.0, 1.0], [1.0, 0.0], [1.0, 0.0], [0.058823529411764705, 0.9411764705882353], [0.0, 1.0], [0.5, 0.5], [0.0, 1.0]]}, {"children_left": [1, 2, 3, 4, -1, 6, -1, -1, 9, 10, 11, 12, -1, -1, -1, -1, -1, 18, 19, -1, -1, -1, 23, 24, 25, 26, -1, -1, -1, -1, -1], "children_right": [22, 17, 8, 5, -1, 7, -1, -1, 16, 15, 14, 13, -1, -1, -1, -1, -1, 21, 20, -1, -1, -1, 30, 29, 28, 27, -1, -1, -1, -1, -1], "feature": [22, 54, 49, 50, -2, 2, -2, -2, 34, 9, 12, 42, -2, -2, -2, -2, -2, 11, 35, -2, -2, -2, 31, 5, 34, 25, -2, -2, -2, -2, -2], "threshold": [0.22629868239164352, 0.6100386381149292, 0.19308190792798996, 0.05369182117283344, -2.0, 0.6025427579879761, -2.0, -2.0, 0.11298761516809464, 0.09944115951657295, 0.14480727165937424, 0.26180629432201385, -2.0, -2.0, -2.0, -2.0, -2.0, 0.3411785513162613, 0.6710174679756165, -2.0, -2.0, -2.0, 0.12692711874842644, 0.5180656313896179, 0.07230483740568161, 0.2926620543003082, -2.0, -2.0, -2.0, -2.0, -2.0], "value": [[0.5284974093264249, 0.47150259067357514], [0.7251908396946565, 0.2748091603053435], [0.8454545454545455, 0.15454545454545454], [0.9836065573770492, 0.01639344262295082], [1.0, 0.0], [0.875, 0.125], [0.6666666666666666, 0.3333333333333333], [1.0, 0.0], [0.673469387755102, 0.32653061224489793], [0.7857142857142857, 0.21428571428571427], [0.47058823529411764, 0.5294117647058824], [0.8888888888888888, 0.1111111111111111], [1.0, 0.0], [0.5, 0.5], [0.0, 1.0], [1.0, 0.0], [0.0, 1.0], [0.09523809523809523, 0.9047619047619048], [0.4, 0.6], [0.0, 1.0], [1.0, 0.0], [0.0, 1.0], [0.11290322580645161, 0.8870967741935484], [0.3181818181818182, 0.6818181818181818], [0.6363636363636364, 0.36363636363636365], [0.2, 0.8], [0.5, 0.5], [0.0, 1.0], [1.0, 0.0], [0.0, 1.0], [0.0, 1.0]]}, {"children_left": [1, 2, 3, 4, -1, 6, 7, -1, -1, -1, 11, -1, -1, 14, 15, -1, 17, -1, 19, -1, -1, -1, -1], "children_right": [22, 13, 10, 5, -1, 9, 8, -1, -1, -1, 12, -1, -1, 21, 16, -1, 18, -1, 20, -1, -1, -1, -1], "feature": [19, 26, 7, 1, -2, 42, 5, -2, -2, -2, 34, -2, -2, 53, 54, -2, 44, -2, 47, -2, -2, -2, -2], "threshold": [0.14479834586381912, 0.16675709187984467, 0.12109450623393059, 0.5192590057849884, -2.0, 0.13539718091487885, 0.5319602787494659, -2.0, -2.0, -2.0, 0.06905895471572876, -2.0, -2.0, 0.5088962614536285, 0.415589302778244, -2.0, 0.14854121208190918, -2.0, 0.15958448499441147, -2.0, -2.0, -2.0, -2.0], "value": [[0.6321243523316062, 0.36787564766839376], [0.782051282051282, 0.21794871794871795], [0.918918918918919, 0.08108108108108109], [0.9607843137254902, 0.0392156862745098], [0.3333333333333333, 0.6666666666666666], [0.9797979797979798, 0.020202020202020204], [0.7142857142857143, 0.2857142857142857], [1.0, 0.0], [0.3333333333333333, 0.6666666666666666], [1.0, 0.0], [0.4444444444444444, 0.5555555555555556], [0.0, 1.0], [1.0, 0.0], [0.4444444444444444, 0.5555555555555556], [0.6060606060606061, 0.3939393939393939], [0.0, 1.0], [0.7407407407407407, 0.25925925925925924], [1.0, 0.0], [0.3, 0.7], [1.0, 0.0], [0.0, 1.0], [0.0, 1.0], [0.0, 1.0]]}, {"children_left": [1, 2, 3, 4, -1, 6, 7, -1, 9, -1, -1, -1, 13, 14, 15, -1, -1, -1, 19, -1, -1, -1, 23, -1, -1], "children_right": [22, 21, 12, 5, -1, 11, 8, -1, 10, -1, -1, -1, 18, 17, 16, -1, -1, -1, 20, -1, -1, -1, 24, -1, -1], "feature": [44, 9, 7, 5, -2, 13, 55, -2, 1, -2, -2, -2, 8, 47, 5, -2, -2, -2, 7, -2, -2, -2, 27, -2, -2], "threshold": [0.18443530797958374, 0.23339133709669113, 0.1268421784043312, 0.5241532623767853, -2.0, 0.2678435891866684, 0.6257686614990234, -2.0, 0.5596236288547516, -2.0, -2.0, -2.0, 0.19848503172397614, 0.18984410166740417, 0.5178049802780151, -2.0, -2.0, -2.0, 0.227573424577713, -2.0, -2.0, -2.0, 0.11010491847991943, -2.0, -2.0], "value": [[0.5854922279792746, 0.41450777202072536], [0.8102189781021898, 0.1897810218978102], [0.8538461538461538, 0.14615384615384616], [0.9651162790697675, 0.03488372093023256], [1.0, 0.0], [0.9, 0.1], [0.5, 0.5], [1.0, 0.0], [0.25, 0.75], [0.5, 0.5], [0.0, 1.0], [1.0, 0.0], [0.6363636363636364, 0.36363636363636365], [0.3333333333333333, 0.6666666666666666], [0.6363636363636364, 0.36363636363636365], [1.0, 0.0], [0.2, 0.8], [0.0, 1.0], [0.9130434782608695, 0.08695652173913043], [1.0, 0.0], [0.5, 0.5], [0.0, 1.0], [0.03571428571428571, 0.9642857142857143], [1.0, 0.0], [0.0, 1.0]]}, {"children_left": [1, 2, 3, 4, -1, -1, -1, 8, -1, 10, 11, -1, 13, 14, 15, -1, 17, -1, -1, 20, -1, -1, -1, -1, 25, -1, -1], "children_right": [24, 7, 6, 5, -1, -1, -1, 9, -1, 23, 12, -1, 22, 19, 16, -1, 18, -1, -1, 21, -1, -1, -1, -1, 26, -1, -1], "feature": [50, 28, 36, 34, -2, -2, -2, 23, -2, 47, 49, -2, 39, 1, 50, -2, 5, -2, -2, 32, -2, -2, -2, -2, 8, -2, -2], "threshold": [0.10548483207821846, 0.08965171873569489, 0.6020883023738861, 0.06167156063020229, -2.0, -2.0, -2.0, 0.31444214284420013, -2.0, 0.1903959885239601, 0.12673328071832657, -2.0, 0.5729001462459564, 0.5688505172729492, 0.08519082516431808, -2.0, 0.5146717429161072, -2.0, -2.0, 0.34677714109420776, -2.0, -2.0, -2.0, -2.0, 0.15761494636535645, -2.0, -2.0], "value": [[0.5647668393782384, 0.43523316062176165], [0.8307692307692308, 0.16923076923076924], [0.96875, 0.03125], [0.7777777777777778, 0.2222222222222222], [1.0, 0.0], [0.3333333333333333, 0.6666666666666666], [1.0, 0.0], [0.696969696969697, 0.30303030303030304], [1.0, 0.0], [0.6, 0.4], [0.7142857142857143, 0.2857142857142857], [0.0, 1.0], [0.7894736842105263, 0.21052631578947367], [0.8333333333333334, 0.16666666666666666], [0.9333333333333333, 0.06666666666666667], [1.0, 0.0], [0.5, 0.5], [1.0, 0.0], [0.0, 1.0], [0.3333333333333333, 0.6666666666666666], [0.3333333333333333, 0.6666666666666666], [0.3333333333333333, 0.6666666666666666], [0.0, 1.0], [0.0, 1.0], [0.015873015873015872, 0.9841269841269841], [0.5, 0.5], [0.0, 1.0]]}, {"children_left": [1, 2, 3, -1, 5, -1, 7, -1, -1, 10, 11, -1, -1, -1, 15, 16, -1, 18, -1, -1, -1], "children_right": [14, 9, 4, -1, 6, -1, 8, -1, -1, 13, 12, -1, -1, -1, 20, 17, -1, 19, -1, -1, -1], "feature": [50, 24, 19, -2, 3, -2, 29, -2, -2, 47, 43, -2, -2, -2, 11, 4, -2, 19, -2, -2, -2], "threshold": [0.08323546499013901, 0.19988229125738144, 0.10084628313779831, -2.0, 0.5175020098686218, -2.0, 0.09961336851119995, -2.0, -2.0, 0.18590129911899567, 0.29118023812770844, -2.0, -2.0, -2.0, 0.3378188759088516, 0.5717540979385376, -2.0, 0.03853399120271206, -2.0, -2.0, -2.0], "value": [[0.5492227979274611, 0.45077720207253885], [0.8461538461538461, 0.15384615384615385], [0.967032967032967, 0.03296703296703297], [1.0, 0.0], [0.9347826086956522, 0.06521739130434782], [0.0, 1.0], [0.9772727272727273, 0.022727272727272728], [1.0, 0.0], [0.8888888888888888, 0.1111111111111111], [0.4230769230769231, 0.5769230769230769], [0.6875, 0.3125], [0.0, 1.0], [1.0, 0.0], [0.0, 1.0], [0.09210526315789473, 0.9078947368421053], [0.4117647058823529, 0.5882352941176471], [0.0, 1.0], [0.7777777777777778, 0.2222222222222222], [0.3333333333333333, 0.6666666666666666], [1.0, 0.0], [0.0, 1.0]]}, {"children_left": [1, 2, 3, 4, 5, 6, -1, -1, 9, -1, 11, -1, -1, -1, -1, 16, 17, 18, -1, 20, -1, -1, -1, -1, -1], "children_right": [24, 15, 14, 13, 8, 7, -1, -1, 10, -1, 12, -1, -1, -1, -1, 23, 22, 19, -1, 21, -1, -1, -1, -1, -1], "feature": [7, 41, 49, 44, 32, 24, -2, -2, 48, -2, 48, -2, -2, -2, -2, 12, 16, 2, -2, 10, -2, -2, -2, -2, -2], "threshold": [0.2258889228105545, 0.08747858926653862, 0.3053784519433975, 0.19308222830295563, 0.2507195770740509, 0.17703720182180405, -2.0, -2.0, 0.3571755439043045, -2.0, 0.37068404257297516, -2.0, -2.0, -2.0, -2.0, 0.215066097676754, 0.13008474931120872, 0.5677898228168488, -2.0, 0.06291741505265236, -2.0, -2.0, -2.0, -2.0, -2.0], "value": [[0.5958549222797928, 0.40414507772020725], [0.7371794871794872, 0.26282051282051283], [0.8771929824561403, 0.12280701754385964], [0.9345794392523364, 0.06542056074766354], [0.9611650485436893, 0.038834951456310676], [0.8421052631578947, 0.15789473684210525], [1.0, 0.0], [0.0, 1.0], [0.9880952380952381, 0.011904761904761904], [1.0, 0.0], [0.9444444444444444, 0.05555555555555555], [0.5, 0.5], [1.0, 0.0], [0.25, 0.75], [0.0, 1.0], [0.35714285714285715, 0.6428571428571429], [0.5555555555555556, 0.4444444444444444], [0.6818181818181818, 0.3181818181818182], [0.0, 1.0], [0.9375, 0.0625], [0.5, 0.5], [1.0, 0.0], [0.0, 1.0], [0.0, 1.0], [0.0, 1.0]]}]}