{"params": {"bootstrap": false, "criterion": "log_loss", "max_depth": 80, "min_samples_leaf": 2, "min_samples_split": 6, "n_estimators": 5, "train_test_split_seed": 151}, "classes": ["correct", "incorrect"], "features": {"points": ["LEFT_SHOULDER", "RIGHT_SHOULDER", "LEFT_HIP", "RIGHT_HIP", "LEFT_KNEE", "RIGHT_KNEE", "LEFT_ANKLE", "RIGHT_ANKLE"], "angles": [["LEFT_SHOULDER", "LEFT_HIP", "LEFT_KNEE"], ["RIGHT_SHOULDER", "RIGHT_HIP", "RIGHT_KNEE"], ["LEFT_HIP", "LEFT_KNEE", "LEFT_ANKLE"], ["RIGHT_HIP", "RIGHT_KNEE", "RIGHT_ANKLE"], ["LEFT_ANKLE", "LEFT_HIP", "RIGHT_HIP"], ["RIGHT_ANKLE", "RIGHT_HIP", "LEFT_HIP"]]}, "model_data": [{"children_left": [1, 2, -1, 4, 5, 6, -1, 8, 9, 10, -1, 12, -1, 14, -1, -1, 17, 18, -1, -1, 21, -1, 23, -1, -1, -1, -1, -1, 29, 30, 31, 32, -1, -1, -1, -1, -1], "children_right": [28, 3, -1, 27, 26, 7, -1, 25, 16, 11, -1, 13, -1, 15, -1, -1, 20, 19, -1, -1, 22, -1, 24, -1, -1, -1, -1, -1, 36, 35, 34, 33, -1, -1, -1, -1, -1], "feature": [3, 5, -2, 1, 5, 1, -2, 1, 5, 4, -2, 3, -2, 3, -2, -2, 1, 0, -2, -2, 1, -2, 1, -2, -2, -2, -2, -2, 3, 0, 1, 2, -2, -2, -2, -2, -2], "threshold": [0.0853518545627594, 0.38407979905605316, -2.0, 0.22418241947889328, 0.5498729050159454, 0.04375496692955494, -2.0, 0.1715841069817543, 0.455582395195961, 0.4683914929628372, -2.0, 0.05641227401793003, -2.0, 0.06862682476639748, -2.0, -2.0, 0.09773477539420128, 0.09078565239906311, -2.0, -2.0, 0.11355055868625641, -2.0, 0.12387015298008919, -2.0, -2.0, -2.0, -2.0, -2.0, 0.1226365864276886, 0.14597277343273163, 0.17270629853010178, 0.13849478960037231, -2.0, -2.0, -2.0, -2.0, -2.0], "value": [[0.5803108808290155, 0.41968911917098445], [0.8629032258064516, 0.13709677419354838], [0.3333333333333333, 0.6666666666666666], [0.8760330578512396, 0.12396694214876033], [0.8983050847457628, 0.1016949152542373], [0.8620689655172413, 0.13793103448275862], [1.0, 0.0], [0.8356164383561644, 0.1643835616438356], [0.8064516129032258, 0.1935483870967742], [0.9117647058823529, 0.08823529411764706], [0.5, 0.5], [0.9375, 0.0625], [1.0, 0.0], [0.7142857142857143, 0.2857142857142857], [0.5, 0.5], [1.0, 0.0], [0.6785714285714286, 0.32142857142857145], [0.7894736842105263, 0.21052631578947367], [1.0, 0.0], [0.2, 0.8], [0.4444444444444444, 0.5555555555555556], [0.0, 1.0], [0.5714285714285714, 0.42857142857142855], [1.0, 0.0], [0.4, 0.6], [1.0, 0.0], [1.0, 0.0], [0.0, 1.0], [0.07246376811594203, 0.927536231884058], [0.2777777777777778, 0.7222222222222222], [0.45454545454545453, 0.5454545454545454], [0.3333333333333333, 0.6666666666666666], [0.0, 1.0], [1.0, 0.0], [1.0, 0.0], [0.0, 1.0], [0.0, 1.0]]}, {"children_left": [1, 2, 3, 4, 5, -1, 7, -1, 9, -1, 11, -1, -1, 14, 15, -1, 17, 18, -1, 20, -1, -1, -1, -1, -1, 26, 27, -1, -1, -1, 31, -1, -1], "children_right": [30, 25, 24, 13, 6, -1, 8, -1, 10, -1, 12, -1, -1, 23, 16, -1, 22, 19, -1, 21, -1, -1, -1, -1, -1, 29, 28, -1, -1, -1, 32, -1, -1], "feature": [2, 3, 0, 3, 5, -2, 0, -2, 0, -2, 0, -2, -2, 0, 3, -2, 0, 4, -2, 5, -2, -2, -2, -2, -2, 2, 0, -2, -2, -2, 2, -2, -2], "threshold": [0.1475643515586853, 0.08542657643556595, 0.303010530769825, 0.05293609760701656, 0.4167247712612152, -2.0, 0.09682708606123924, -2.0, 0.10490468144416809, -2.0, 0.17590389400720596, -2.0, -2.0, 0.17376034706830978, 0.056939564645290375, -2.0, 0.12118247151374817, 0.4505561292171478, -2.0, 0.49988245964050293, -2.0, -2.0, -2.0, -2.0, -2.0, 0.14044999331235886, 0.09958650916814804, -2.0, -2.0, -2.0, 0.16448302567005157, -2.0, -2.0], "value": [[0.5803108808290155, 0.41968911917098445], [0.7708333333333334, 0.22916666666666666], [0.8770491803278688, 0.12295081967213115], [0.8991596638655462, 0.10084033613445378], [0.9397590361445783, 0.060240963855421686], [0.6666666666666666, 0.3333333333333333], [0.95, 0.05], [1.0, 0.0], [0.8, 0.2], [0.3333333333333333, 0.6666666666666666], [0.8823529411764706, 0.11764705882352941], [1.0, 0.0], [0.6, 0.4], [0.8055555555555556, 0.19444444444444445], [0.72, 0.28], [0.2, 0.8], [0.85, 0.15], [0.9411764705882353, 0.058823529411764705], [1.0, 0.0], [0.8571428571428571, 0.14285714285714285], [1.0, 0.0], [0.5, 0.5], [0.3333333333333333, 0.6666666666666666], [1.0, 0.0], [0.0, 1.0], [0.18181818181818182, 0.8181818181818182], [0.1, 0.9], [0.6666666666666666, 0.3333333333333333], [0.0, 1.0], [1.0, 0.0], [0.02040816326530612, 0.9795918367346939], [0.2, 0.8], [0.0, 1.0]]}, {"children_left": [1, 2, 3, 4, 5, 6, -1, 8, 9, -1, -1, -1, 13, 14, -1, 16, 17, 18, -1, -1, -1, -1, 23, 24, 25, -1, -1, 28, -1, 30, -1, -1, -1, -1, 35, -1, 37, 38, -1, -1, 41, -1, -1, -1, -1], "children_right": [44, 43, 34, 33, 12, 7, -1, 11, 10, -1, -1, -1, 22, 15, -1, 21, 20, 19, -1, -1, -1, -1, 32, 27, 26, -1, -1, 29, -1, 31, -1, -1, -1, -1, 36, -1, 40, 39, -1, -1, 42, -1, -1, -1, -1], "feature": [5, 2, 2, 1, 4, 1, -2, 2, 2, -2, -2, -2, 1, 4, -2, 4, 2, 0, -2, -2, -2, -2, 3, 0, 5, -2, -2, 0, -2, 4, -2, -2, -2, -2, 4, -2, 1, 2, -2, -2, 2, -2, -2, -2, -2], "threshold": [0.6042876839637756, 0.16575297713279724, 0.117905143648386, 0.23520734906196594, 0.4183554947376251, 0.1072847992181778, -2.0, 0.05036094971001148, 0.0454527921974659, -2.0, -2.0, -2.0, 0.11149319633841515, 0.5104267299175262, -2.0, 0.5346482694149017, 0.08529987558722496, 0.09682708606123924, -2.0, -2.0, -2.0, -2.0, 0.08519593253731728, 0.09095672890543938, 0.5316459238529205, -2.0, -2.0, 0.19804707914590836, -2.0, 0.48348189890384674, -2.0, -2.0, -2.0, -2.0, 0.436349093914032, -2.0, 0.13974346220493317, 0.1293099857866764, -2.0, -2.0, 0.1305585578083992, -2.0, -2.0, -2.0, -2.0], "value": [[0.5803108808290155, 0.41968911917098445], [0.6054054054054054, 0.3945945945945946], [0.7619047619047619, 0.23809523809523808], [0.8015267175572519, 0.1984732824427481], [0.8536585365853658, 0.14634146341463414], [0.625, 0.375], [0.0, 1.0], [0.7692307692307693, 0.23076923076923078], [0.5, 0.5], [1.0, 0.0], [0.0, 1.0], [1.0, 0.0], [0.8878504672897196, 0.11214953271028037], [0.9594594594594594, 0.04054054054054054], [1.0, 0.0], [0.90625, 0.09375], [0.8, 0.2], [0.9166666666666666, 0.08333333333333333], [1.0, 0.0], [0.6666666666666666, 0.3333333333333333], [0.3333333333333333, 0.6666666666666666], [1.0, 0.0], [0.7272727272727273, 0.2727272727272727], [0.8571428571428571, 0.14285714285714285], [0.5, 0.5], [1.0, 0.0], [0.25, 0.75], [0.9545454545454546, 0.045454545454545456], [1.0, 0.0], [0.875, 0.125], [0.5, 0.5], [1.0, 0.0], [0.0, 1.0], [0.0, 1.0], [0.4375, 0.5625], [0.0, 1.0], [0.5384615384615384, 0.46153846153846156], [0.8333333333333334, 0.16666666666666666], [0.5, 0.5], [1.0, 0.0], [0.2857142857142857, 0.7142857142857143], [0.5, 0.5], [0.0, 1.0], [0.0, 1.0], [0.0, 1.0]]}, {"children_left": [1, 2, 3, -1, 5, 6, 7, -1, 9, 10, 11, 12, -1, -1, -1, -1, 17, 18, -1, 20, -1, -1, 23, -1, 25, 26, -1, -1, -1, -1, -1, -1, 33, 34, -1, 36, -1, -1, -1], "children_right": [32, 31, 4, -1, 30, 29, 8, -1, 16, 15, 14, 13, -1, -1, -1, -1, 22, 19, -1, 21, -1, -1, 24, -1, 28, 27, -1, -1, -1, -1, -1, -1, 38, 35, -1, 37, -1, -1, -1], "feature": [3, 0, 1, -2, 5, 2, 0, -2, 5, 5, 2, 3, -2, -2, -2, -2, 4, 0, -2, 4, -2, -2, 0, -2, 5, 5, -2, -2, -2, -2, -2, -2, 0, 1, -2, 2, -2, -2, -2], "threshold": [0.0853518545627594, 0.303010530769825, 0.04375496692955494, -2.0, 0.5647140443325043, 0.117905143648386, 0.05834886431694031, -2.0, 0.46333545446395874, 0.4375888705253601, 0.09277231618762016, 0.03753522224724293, -2.0, -2.0, -2.0, -2.0, 0.45697903633117676, 0.11461251974105835, -2.0, 0.4124329090118408, -2.0, -2.0, 0.08302778378129005, -2.0, 0.5096367001533508, 0.4740568995475769, -2.0, -2.0, -2.0, -2.0, -2.0, -2.0, 0.13717882335186005, 0.13483089953660965, -2.0, 0.052779994904994965, -2.0, -2.0, -2.0], "value": [[0.5803108808290155, 0.41968911917098445], [0.8629032258064516, 0.13709677419354838], [0.8916666666666667, 0.10833333333333334], [1.0, 0.0], [0.8725490196078431, 0.12745098039215685], [0.8539325842696629, 0.14606741573033707], [0.8809523809523809, 0.11904761904761904], [1.0, 0.0], [0.8507462686567164, 0.14925373134328357], [0.9393939393939394, 0.06060606060606061], [0.8461538461538461, 0.15384615384615385], [0.6666666666666666, 0.3333333333333333], [0.5, 0.5], [0.75, 0.25], [1.0, 0.0], [1.0, 0.0], [0.7647058823529411, 0.23529411764705882], [0.9130434782608695, 0.08695652173913043], [1.0, 0.0], [0.6666666666666666, 0.3333333333333333], [0.3333333333333333, 0.6666666666666666], [1.0, 0.0], [0.45454545454545453, 0.5454545454545454], [0.0, 1.0], [0.625, 0.375], [0.5, 0.5], [0.75, 0.25], [0.0, 1.0], [1.0, 0.0], [0.4, 0.6], [1.0, 0.0], [0.0, 1.0], [0.07246376811594203, 0.927536231884058], [0.3125, 0.6875], [0.6, 0.4], [0.18181818181818182, 0.8181818181818182], [0.5, 0.5], [0.0, 1.0], [0.0, 1.0]]}, {"children_left": [1, 2, 3, 4, 5, -1, 7, -1, -1, 10, -1, 12, 13, 14, -1, -1, 17, 18, 19, 20, 21, -1, -1, -1, -1, -1, -1, -1, -1, 30, 31, 32, -1, 34, -1, -1, 37, -1, -1, 40, 41, -1, -1, -1, -1], "children_right": [44, 29, 28, 9, 6, -1, 8, -1, -1, 11, -1, 27, 16, 15, -1, -1, 26, 25, 24, 23, 22, -1, -1, -1, -1, -1, -1, -1, -1, 39, 36, 33, -1, 35, -1, -1, 38, -1, -1, 43, 42, -1, -1, -1, -1], "feature": [0, 1, 2, 0, 3, -2, 4, -2, -2, 4, -2, 1, 3, 2, -2, -2, 4, 5, 5, 0, 0, -2, -2, -2, -2, -2, -2, -2, -2, 3, 1, 4, -2, 0, -2, -2, 5, -2, -2, 3, 0, -2, -2, -2, -2], "threshold": [0.2533816173672676, 0.13483089953660965, 0.16662945598363876, 0.08198703452944756, 0.05245314911007881, -2.0, 0.4701634645462036, -2.0, -2.0, 0.41649946570396423, -2.0, 0.12744542956352234, 0.03339933417737484, 0.08712347596883774, -2.0, -2.0, 0.5458121001720428, 0.5500955283641815, 0.46291498839855194, 0.13766617327928543, 0.11691484972834587, -2.0, -2.0, -2.0, -2.0, -2.0, -2.0, -2.0, -2.0, 0.0836508758366108, 0.1715841069817543, 0.43478478491306305, -2.0, 0.20025639235973358, -2.0, -2.0, 0.5612905919551849, -2.0, -2.0, 0.10585378110408783, 0.09958650916814804, -2.0, -2.0, -2.0, -2.0], "value": [[0.5803108808290155, 0.41968911917098445], [0.7133757961783439, 0.28662420382165604], [0.8712871287128713, 0.12871287128712872], [0.8979591836734694, 0.10204081632653061], [0.9824561403508771, 0.017543859649122806], [1.0, 0.0], [0.8571428571428571, 0.14285714285714285], [1.0, 0.0], [0.6666666666666666, 0.3333333333333333], [0.7804878048780488, 0.21951219512195122], [0.0, 1.0], [0.8205128205128205, 0.1794871794871795], [0.7878787878787878, 0.21212121212121213], [0.9333333333333333, 0.06666666666666667], [1.0, 0.0], [0.5, 0.5], [0.6666666666666666, 0.3333333333333333], [0.6, 0.4], [0.5, 0.5], [0.6666666666666666, 0.3333333333333333], [0.8333333333333334, 0.16666666666666666], [0.5, 0.5], [1.0, 0.0], [0.3333333333333333, 0.6666666666666666], [0.0, 1.0], [1.0, 0.0], [1.0, 0.0], [1.0, 0.0], [0.0, 1.0], [0.42857142857142855, 0.5714285714285714], [0.8461538461538461, 0.15384615384615385], [0.7, 0.3], [1.0, 0.0], [0.625, 0.375], [0.4, 0.6], [1.0, 0.0], [0.9375, 0.0625], [1.0, 0.0], [0.6666666666666666, 0.3333333333333333], [0.06666666666666667, 0.9333333333333333], [0.2857142857142857, 0.7142857142857143], [1.0, 0.0], [0.0, 1.0], [0.0, 1.0], [0.0, 1.0]]}]}